1021 128
9151 3.080108245618368e-05 -0.0001972285806430809 -0.0002834667409549189 -0.004974946524869629 0.0011724097849405814 0.01621087891242974 0.007996679941351614 0.0007029330416635991 -0.012126728813762368 0.01429475701950938 -0.017947928753866013 0.005947181508417472 -0.002506025441003644 -0.008248235423740521 0.0023943941323885023 0.010876112438197309 -0.0005222742649317068 0.05996841341035883 -0.011393274182486833 0.01599082869612439 0.013421301216915574 0.007168061891033238 0.00856095932872316 0.016953845023057256 -0.009860803046118173 -0.001504952817350596 -0.0106899279458604 0.022276918849147474 -0.03229527414747355 -0.02287729237703326 0.008648005691353081 0.03365889229287986 0.014225203397834013 -0.023499964573418814 0.05345254342328233 0.02385741262462197 0.010063977128286604 0.010370430889638732 0.06568014914668688 -0.024019527795108814 0.030464499756643122 0.017608019466657656 0.0407833636548718 -0.0037470569145867188 -0.04966441679979804 -0.008534596264174098 -0.031603273457969906 1.5116790869854545e-15 0.015715654932169285 -0.01298297939771656 -0.0024542044537003726 0.010718731577372166 -0.007854103190973138 -0.06544757271908215 0.005984169834322719 0.019750225060619984 -0.04600648134222609 -0.022064871977926163 0.043977605641346236 0.007978661150915051 -0.008885264103040077 0.0016029012961613078 0.0010078306954821705 -0.004753053805154446 0.0002892523848464211 -0.0034926124098122895 0.0007683536479171887 -0.01111766627053931 -0.00915851355119418 -0.010572002781569173 0.015779072764176824 0.00880022615359879 0.011414691805727382 0.00038791112771702257 -0.03604893058280886 0.017156906097569966 0.009695489861389298 0.01913264734512348 0.007749028198538572 0.022940874052608543 0.019638208507216225 -0.001433371324049423 -0.007034549701263341 0.0023859403075529393 -0.017658005702683208 -0.011006198900881553 0.026749552688472338 -0.024260012683211943 0.012614216250435586 3.41254979307143e-05 0.0041719680941839305 -0.006723751783727892 -0.004319400453416228 -0.010145952420620014 -0.0018584038546709154 0.014395812992433978 0.008570229412433402 -0.009082443151688388 0.0034515199175977306 -0.004807085752476256 0.012065239804042383 0.017416429878325392 0.012612493169585735 -0.014358452288225474 -0.00016299351542189158 0.012889802441673499 -0.00290102485043562 -0.0031912888324312177 0.005096984119130584 0.0036982614106169705 -0.0021004898214872563 0.0036436830947905595 0.013849380711018587 0.007691708145571006 -0.02709859598423644 0.02161201453871364 0.005444638189994981 0.02377977865042413 0.00157353151017995 -0.0018855314918298177 -0.022627044175174336 -0.016618996479104104 0.015094356434742025 -0.012032877716794562 0.0011323118314380356 0.011607740107836982 0.020629717273738916 0.011577681861452383
9700 9.057170020954532e-05 0.00014362059337582437 -0.0006477484828424896 -0.00860750354791638 0.0006661937461145135 0.031214969907155322 0.0275451627656988 0.0013131456380342567 -0.0240931367737585 0.02290804393945734 -0.03934039880659299 -0.004172606024186226 -0.004998680647892538 -0.016890863325774927 -0.004692919902321747 0.012488888087920752 0.0006044725256356418 0.08014174068392435 -0.018235005247695935 0.028331705964214745 0.002382278237691547 -0.003115092961727858 0.005653113271705805 0.009288305449812587 -0.006359701754363453 -0.0023682700981021527 -0.007908827919143253 0.015823989093918293 -0.024801963897122067 -0.015422454730389227 -0.001622830117975666 0.021273617905606838 0.010556260398004787 -0.027099511919947472 0.03496473904720787 0.016826751678871037 0.007214917702084419 0.003117812019355359 0.05576660233747699 -0.019065405312380827 0.023488305124811787 0.014940874479059589 0.03639439584411629 0.002393412931343784 -0.041115167483788344 -0.00261842507807573 -0.02363573236944016 2.0893725819143968e-15 0.008116526848183661 0.023087531667170782 0.0035398465382672864 0.033435267841863306 -0.010184588335726026 -0.03662087102088593 0.01238279770921601 0.013285570674413064 -0.020047081919451582 -0.009002914768488562 0.02060691630467901 0.020530414745381375 -0.023168483298019592 -0.0013425471472435734 -0.009912679631198474 -0.016571729391715324 -0.010065976760875202 0.0330912089495899 -0.03064371885741244 -0.007178854393741677 -0.0032458670674725574 -0.017970785514307804 0.008336484751754683 0.004721812541769518 0.009764594998865098 0.004122445749737453 0.019995736662745164 0.025957617001327957 -0.007924974754770667 -0.001613069013646099 -0.016339861618884184 -0.010683921855490821 0.0037863396168854465 -0.015275616912080906 0.003149475166945728 -0.00867155189531654 -0.005465268545497034 -0.01093540140384869 0.013727224603255534 0.0012092664272918543 -0.01391752718373405 -0.0007375406139615715 0.0007073163510327694 0.011613612950247277 -0.011932077110198617 -0.004311790962871273 -0.009493730956064568 -0.004143451639741537 0.0076152391817959865 0.005239577075642566 -0.011594656951392293 -0.004921734764120517 0.01742347396013681 0.011142812067350407 -0.002982263010726009 0.01590426691499488 0.0024165494227893596 -0.0038289832657083618 0.009226367977416671 -0.007723463387865694 -0.0034551986001348147 0.004571425623853554 0.0012806363562193356 -0.0049385876793836755 0.004591091406937688 0.007605444510060912 -0.009346232056060388 -0.006373250796349608 0.0030105063165864563 0.02153235176700832 -0.006459933772324996 -0.00994944843092733 0.015387393394527202 -0.0015125568084116503 0.020480440606456 0.002558707904182987 -0.013126327893864307 -0.0016220811433049276 -0.015319926890841778 0.00039944841081875976
10034 0.00011564763577799637 -0.0014397164595686524 0.0001486080913472518 -0.003745094908935153 0.0011360609306942807 0.009107219098015198 -0.0038438683827547904 0.000747281292118827 -0.0038080468841571874 0.0016276011244268733 -0.0013461350006970744 0.00501308603263985 -0.0006298745392009657 0.0007016913474164722 0.017133484631980687 -0.0039017450597993372 -0.0015807502675752828 0.025174090027662077 -0.004179625319517624 -0.005209536687901577 0.01058707922944851 -0.00022120076303676003 0.003881372091716029 0.018248832016905546 -0.013696110201924282 -0.004629956539777762 -0.007627283342205906 0.020358241936720204 -0.022639198618649756 -0.018111932881626994 0.004358801647759501 0.01268666113679425 0.018302623770852653 0.01639056758247052 0.021411427233690685 0.017907496127881426 0.014434887234235796 0.018166935727675273 0.03346579937388842 -0.03333884443877666 0.025362536561358957 0.006990896912794931 0.012248808382855107 -0.016482836015360745 -0.02468859989961112 -0.0338675089900425 0.008782727263361077 -3.4843761256718503e-15 0.0074829368690462915 -0.0691708214495074 0.016409965867240594 -0.006469015941662365 0.0008586899893417153 0.00731391000185848 0.00626880004891319 0.020261952374361843 -0.019402665446304247 -0.015256173198692947 0.034135081121745625 -0.03194437311924753 0.032789566162631414 -0.03244440727961272 0.02618686636034748 0.010381927045040453 -0.05505240631570393 -0.09745691377348405 0.08208281628218896 0.016922942333488372 0.03742833316704097 0.03010646754281595 -0.004136714258112638 -0.03708200299440967 -0.060370897198225346 0.00942782745845365 -0.020454877231121365 -0.02055306565331707 -0.01847353941496914 -0.011334052469567875 -0.004441786230368187 -0.0030450518391362757 0.020302972216836322 -0.051497250073233636 0.016292402580665874 0.05452921051793911 0.0033251027835653115 0.007537857769881631 -0.07207588907804492 -0.031042629821544307 -0.030518097337892784 -0.034044736560004285 -0.010390157969211446 -0.04587123237577191 0.011320927519304786 -0.012625359934537127 -0.022859073651845373 -0.005611399256472321 -0.02082051798801513 -0.019819240166913377 0.020997314404653186 -0.03412714886757199 0.005604196871686824 -0.017928963864477464 -0.0018514196647990895 0.008140918609287905 -0.009274135569698659 0.008198661821512623 -0.035844233999892575 0.0009679165555344709 0.000805107843428523 -0.046998302789671965 0.007474273768252457 -0.00961754087664727 0.003696179247204552 0.006764063385948725 0.01943350421765729 0.006549997941078431 0.041837599728091535 -0.015921254857962672 0.0038816351790379134 0.01928018226586136 0.008462050131311514 0.008109109619027693 0.00783593182864016 0.011644101155097092 0.01064856152028239 -0.026300774982488975 -0.009571501403781891 -0.018610987790746998
10062 4.48855106555395e-05 -5.6689027574508675e-05 -0.00015593056525961698 -0.0044503205771464814 0.0011460147754996362 0.014089144759972421 0.007041480452629582 0.0008549703139894055 -0.009503199858794279 0.012973431474013312 -0.017313847105256314 0.004654775254097067 -0.0010993574631341088 -0.008251701859781597 -8.937578566048179e-05 0.011399619575879733 -0.0010666025728147698 0.05602804333445959 -0.009293734946981306 0.016226731123923654 0.010534446474397491 0.006222665277088762 0.0074145008793399655 0.014717556573412963 -0.0059247427569292755 -0.0016238881029284244 -0.009179533541448901 0.01921112572477146 -0.02772877623670681 -0.019681591996145078 0.009794681923852477 0.03172298732271485 0.00809291294192072 -0.023118503798038096 0.05113437085254378 0.025434605467346442 0.004169721206207637 0.012119558987113623 0.05729108198224338 -0.018555988679278122 0.027398902498298017 0.01901361193457008 0.037200948382066015 -0.002239179555836212 -0.04502033814249353 -0.009161172252817599 -0.028276566714802137 1.974472840734901e-15 0.017904227631838465 -0.005053948240861702 -0.010410712491455597 0.012119667613874046 -0.002400053082470813 -0.06767708163819879 0.0012723357201898163 0.006770702894498535 -0.035489960564701294 -0.014425707764453493 0.04614662774881305 0.011353866709648696 -0.0088409121047881 0.00362246927589599 0.004462147588726525 -0.005967489642428949 0.00915751470208819 -0.00011863340047282931 -0.008987404350354033 -0.0092331894588766 -0.016051487628711236 -0.005744619017613348 0.021213243772606336 0.01403368978348441 0.014898977795983934 0.0014382057811718654 -0.029179147981163524 0.014055413892973306 0.010196176982630731 0.017661801606182727 0.014795858086148283 0.01604269439037528 0.009397357090036657 0.014506091131195822 -0.008267361961514027 -0.003020431388992251 -0.01230992714439666 -0.008989067419802828 0.03561983244372482 -0.01943805685521045 0.02572860478515206 -0.004939111450462079 0.005895858888820038 0.003297544666365903 0.003663407740091282 -0.009082289439951255 -0.0024188695956951904 0.01759684774153942 0.014411511418549018 -0.007276923711588504 0.007312594483168888 -0.000468428922011105 0.010371735702087074 0.012955590705609537 0.015078093774988201 -0.020314675749788284 -0.00120370405172507 0.009706354847034953 -0.0014364205693131189 0.004451081709165351 -0.001278470755921849 0.022084162772082576 -0.0032974942656492675 -0.0029651608648724745 0.019280554781806472 0.0075220434862079705 -0.028098362773881603 0.03016863376869438 -0.004928392490825453 0.0294793469947047 -0.00296305179787248 0.006277265669016479 -0.02625013875126519 -0.03288093296088699 0.002416369756094479 -0.02241260262395254 0.004867454964040765 0.00483393204940478 0.017968742603014832 0.0053868163622714784
9167 -9.274723282795124e-05 -4.350310684441877e-05 -0.00012119012292925591 -0.004716746668228913 0.001208785494867344 0.015264759108238966 0.00719691633851001 0.00027009939476527574 -0.010780780952430893 0.013113910515510592 -0.01633757011008397 0.005147567756433628 -0.002159144008388287 -0.007839662560927631 0.0020012578060600163 0.011708667612151568 0.00034621726383079896 0.05356746894231365 -0.010110332638977065 0.015561863851414372 0.011668445787914263 0.007784725740104176 0.00816945320605663 0.011917869928901814 -0.007018030682421181 -0.001262489627686826 -0.009358413058903088 0.018001313332988905 -0.02863950528275152 -0.018898349215525443 0.010366670624749934 0.030480652986700957 0.010684992389903133 -0.02479149708798492 0.04534656665299437 0.020930489565248993 0.006605673258081167 0.004386925205132593 0.05765789908215403 -0.017653322579050123 0.026855977517132833 0.01629446475624225 0.03723320409691174 0.0003227352381364002 -0.04278959266788837 0.002527750223354823 -0.03452897544263841 2.037982830884727e-15 0.017648437889234713 -0.0013880635037418804 -0.005843541265234988 0.006964179520513432 -0.007401683130945935 -0.06255208063021651 0.004878332046125899 0.01749432230679588 -0.04010045784794638 -0.023813390862478266 0.03515049367372024 0.005898308304391256 -0.014197174221179587 0.005011566386102644 -0.004506580020988636 -0.006639020034223393 0.018015688139310915 0.006275188894635212 -0.0011710797617111072 -0.018979879013105015 -0.019469716565735054 -0.01553809741296076 0.008477165198749496 0.01486240088758816 0.012845928601730465 0.000509164804400889 -0.038700594503330306 0.020364991254685813 0.012738240936295522 0.02348606771404819 0.003577738415962339 0.026660764126885415 0.00617788249254531 0.0021976413363834772 -0.0062171979894529526 -0.004475174772122235 -0.021676977476263275 -0.0069877879118971165 0.03444338486331468 -0.02336704829481886 0.015396217883153478 0.00948055154763265 0.01077854881180329 0.0023853666558057646 -0.007627493992610036 -0.0008642852303235135 0.01146777904263219 0.02049281645116825 0.004014402024799468 -0.010474037152383145 -0.001456470207511705 0.019404793170949897 0.017169473699176714 0.023545300030763543 0.012392381364431793 -0.014544056807282874 0.0025602754195484813 0.009752188724331057 0.0007654162285972109 -0.003504375402577056 0.0031940473173003824 0.01687044773452658 -0.012830948850380821 0.005036405162323968 0.008609793672409627 0.00841079855305291 -0.022575815938619976 0.013911270246386586 0.005129041907497788 0.03071162524079905 -0.0015819126255201116 -0.013476299143694068 -0.01766705804776653 0.0078889807324493 0.01462604207817086 -0.011769240805808918 -0.0003231412867759854 0.021664970035408588 0.02764617285152801 0.013063387532629823
10064 0.00012986918127034098 -0.0007511627864266076 -0.0005695116759248055 -0.007219895542814537 0.0006027842064529993 0.019675604178558355 9.591807045389303e-05 0.00034493729536443275 -0.011921833536264217 0.015611596079139341 -0.010217462615709667 0.027193149193400608 -0.003166780030432348 -0.0034850410674102774 0.0031147297785792025 0.011951842813271276 4.237400120701015e-05 0.04172397504511652 -0.006683567500492365 0.005201414937815921 0.02476248997739343 0.02033605005562137 0.011566253605491161 0.024607356326742717 -0.01417192194599688 0.0033663277589454778 -0.007279022768977385 0.019711171879082057 -0.026052776327441653 -0.021023348921723924 0.010081638913370205 0.027511771028965012 0.010640865200838972 -0.012620206774239499 0.046169034526338616 0.0033386116198681304 0.012583856900961804 0.006176706533591489 0.012976157124790237 -0.004396770367885405 0.011373020539813452 0.006747415844144406 0.013060589279083516 -0.005755883457423216 -0.010721070419943681 -0.0004240922218332002 -0.019282913310603014 6.689478137254744e-16 -0.012155324290477387 -0.020750398794377192 0.002035628580234936 -0.023969493685630096 0.004530141958831165 -0.025117610952146888 -0.0053271394929549 0.0037257081155954554 -0.011100199167527443 -0.0007735030054665173 -0.003830411359034924 0.008016702041707803 -0.0005579694850332848 0.018702677814123922 -0.013265079437127136 0.010683989514477521 0.004384031674276428 0.008559653620162321 -0.014411775206529942 0.004298678528142794 -0.02774142821894741 -0.007552202415059499 -0.0031388656506031024 0.01481293504720339 0.04202078472547972 -0.011650679260066937 -0.022163256419430965 0.001557300881851898 0.019094126787854042 0.019442504709156955 0.011361979811764976 0.02667433785177766 0.010830056471635286 0.03598694446303232 -0.014927939950362436 -0.024368804095806714 -0.0077467483091211604 -0.0007029003008875307 0.009357615146347574 0.010107910734832611 0.02630380442092815 0.02236179225603485 -0.0044130717186254415 -0.010614906760716738 -0.006974592376178626 -0.0016056940211333422 0.01324165212509967 -0.006778433590025061 -0.01956839555290956 0.016485024203311376 0.0004974165210476869 -0.01737656148423322 -0.04088658149648244 -0.0004564905366400023 -0.004467749423913432 0.014109055270433563 0.013901526848672035 0.002495010220579026 0.013889202972010375 -0.004072888042991521 0.019346905085441637 -0.022991137035425713 0.01809466759841694 0.03719030367850662 -0.012641103616299195 -0.04185606638922112 0.02383823179995674 -0.017703373208480744 -0.015446636854280861 -0.05703727546375395 0.02823811073504548 -0.0003624136415926874 -0.0052236648270673 0.0191816333451952 -0.013939294966307072 -0.0011996030445665272 -0.014591625866045226 0.0017014130176318642 0.010798643263754903 0.012067875363923156
10002 7.182992412912089e-05 -3.453894903179393e-05 -0.0007188430983852773 -0.0031246375934687637 0.0016242509677454181 0.009218887021816929 0.0048133611836057065 0.0006355366114304003 -0.00838215555705563 0.008842316008295069 -0.009942494062104072 0.003674860653315966 -0.0015782816714856136 -0.0042383706230244254 0.002807093199798683 0.007002986850001349 -0.001854736847771473 0.03442414740279008 -0.006498749708554553 0.008601534954774543 0.010714058045663813 0.004744637806983922 0.004631321786892883 0.011087869543798805 -0.004664945423472674 -0.0003953725911319952 -0.005745502276489829 0.01345095186676452 -0.019278748052477444 -0.013343621827881267 0.005645059998926432 0.020037388188076235 0.0075308005655771405 -0.013339235532488824 0.03242780007384875 0.011971164258996579 0.006286064923000591 0.00566551338005396 0.037654822099322534 -0.013869085421999359 0.015861812528917107 0.007698979519366212 0.021529173692703654 -0.002116828027978903 -0.025440497641428417 -0.006072061447276181 -0.013852769952193244 6.688000133296959e-16 0.011017201630216437 -0.011108787800833754 -0.0031456662678820946 0.008541503371137743 -0.008374471722778042 -0.03146891734055733 0.0011560817054570246 0.014154566808577565 -0.03019108441253201 -0.005811871506838722 0.024741783101474502 0.0030804718587062116 -0.0036502082842790177 0.001427982257337162 0.004481663053706514 0.0037789606075548567 -0.00702542204617137 0.0024221958507404016 0.0024024683662681725 -0.0048501605639548195 0.005522282816469714 0.0009971910364595798 0.013464286485671394 -0.0036046892356363137 0.003315799090417693 -0.00428218390830306 -0.020365801829030732 -0.0014555118892859177 0.007336475919053067 -0.0010948533419250575 0.012718367924013648 0.012049024241732204 0.016088507651217446 -0.006199214559831222 -0.005554939115085263 0.010397294578022473 -0.004485502752331909 -0.008703274304913623 0.011706220307267663 -0.005198877378541903 -0.0012767378931447233 0.0006991439229924664 -0.005733880313773461 -0.006033475570815639 0.004615951932352076 -0.00964778335886474 -0.0074590295692587875 -0.0014069924944722847 0.019542244886529312 -0.003992814418623022 0.001843175014948296 -0.006456940196215527 -0.0005750520837934177 -0.004095015162799153 0.0007721615996449868 -0.020827790106676413 -0.009316283965638791 0.004663304052526319 -0.0019257781027940894 0.00124904053019247 0.0031201159789455766 -0.005736592378722585 0.0013870718501120991 -0.0032821144096934116 0.00313472575217726 0.014719582988005018 -0.017948670038608703 0.013338159366310913 -0.0068320619781422716 -0.0007151542956305528 0.000620512760384201 0.00867136741944111 -0.018575678169033393 -0.02862060283879827 -0.00409416299605864 0.007541915294136395 0.010589892039580854 0.0017020598191733716 0.0013599925377470042 0.006881454931196135
9555 3.085960942913785e-05 -4.779213220326876e-05 -0.00015714390966357116 -0.004524087350424054 0.0012372974938208517 0.01494541736566216 0.007603375722758183 0.0005871235236104244 -0.011151176854581049 0.014839643140184454 -0.0161393772095664 0.004896586129959589 -0.002517490580834712 -0.008110719561691989 -0.0005835905732317736 0.011067932751681199 0.000132134504195801 0.055175119816683216 -0.010065479783953848 0.016105824065762844 0.011837183719677595 0.007400811767741021 0.007699724519689003 0.012814980847297161 -0.008324084829835373 -0.0007246974632182265 -0.01032554812778589 0.018189851293542156 -0.026670271593176156 -0.019421166740683494 0.0065955666914037075 0.03141012976026478 0.012805773820862065 -0.024905961898591247 0.045452284299644 0.020122838142825315 0.006896450512412647 0.007271238911390442 0.058110796753763405 -0.01649362864179539 0.021365380410957292 0.013058275239238701 0.03473298095127496 -0.0015388685451589452 -0.04210192557998967 -0.002580526708697456 -0.029895570382326705 1.8414344859254593e-15 0.012253205097974599 -0.0031116817804535788 -0.0034984687182749263 0.007284731886621789 -0.007835073264309439 -0.061644136719023974 0.005553263657382236 0.014848973358739177 -0.041041059066500914 -0.022844585181464077 0.03175742210802036 0.010593127934051165 -0.008765156711876061 0.006513641774200091 -0.0016316768671149973 -0.006852461591513259 0.01369794147377822 0.006891813289515716 -0.008793398973155364 -0.012270163967426796 -0.008838074825795373 -0.016578589664148324 0.013118101566024155 0.01550364520440713 0.017879050522679397 0.00015191456961146293 -0.02933325247329252 0.01815535974290502 0.010701394880755366 0.022292903504691593 0.006295072863903645 0.02001716297530976 0.016907492746879586 0.008292035644564093 -0.008658906166790747 -0.00728951005408761 -0.014035796808768836 -0.009080178817370265 0.033263335096893054 -0.01855582158247108 0.016643058324871902 0.0034154826514408605 0.007999478403146697 0.00046773979739330964 -0.007489040471329388 -0.004193472345464101 0.003445002641646629 0.016484730228373073 0.007309956272856207 -0.0062208283080556915 0.00014353207884902646 -0.00020120949010926919 0.011916169419769461 0.021664712816621808 0.014976246715438868 -0.012424148703171455 0.003257509140515746 0.012170124387937346 0.001193254017989524 -0.0041725892906925455 0.0037502719842651923 0.010488813496383309 -0.003175846124259158 0.003642583034540737 0.011493569251450708 0.002886011112984703 -0.02720465593761868 0.01676386773440675 0.0016755530144405082 0.026965042209188213 -0.0012309760220513678 -0.007213733669465436 -0.017963609751853286 -0.01277086883363097 0.015203302293296646 -0.014720926663604143 -0.0009510291487884472 0.016997392812077506 0.020376288026895582 0.01166061643138671
9152 2.2115455757252058e-05 0.00046594025730674115 0.00034450978778602945 -0.0002531608416874291 0.0022563797689334497 -0.0008132341170911661 0.0008160600281777911 0.00034700563564251584 -0.00035056186633090235 -0.0005458423579077368 0.0032701695677274925 -9.667247536969464e-06 -0.0005340277759783052 0.0014206543022207666 -0.00168626610073537 0.0020232452388100467 0.0007187450523544646 0.003099979996091943 -0.001252034880067547 -0.0008042588326507519 0.0037879228144162853 0.0036977597418087448 0.00010403082876514682 -0.0019581656975680537 0.001070722518882419 0.0009514119408804717 -0.0015972463337830928 -0.0015774118133066483 -0.00040995802843946 -0.0020967024210975156 -0.002119503269270641 0.0005654178240061431 0.0047642766305559985 0.0021530688746004907 0.001725230616473432 -0.002602359462481947 0.0017866222559924994 -0.0010242192924563547 0.0015025779320330555 0.0005566557813257932 -0.0008342055795659585 0.0021235118173152084 0.00015285046420297142 -2.3935999846757258e-05 0.00108443697199446 0.005600047638754656 -0.0047874488143344945 4.0826398040834776e-16 0.00647217359763863 -0.007937069632695666 -0.0017240174232631604 -0.007071154323080071 -0.010745220601941897 0.010334235784812065 -0.002138350281877081 -0.003823758209520659 -0.0038373726415962726 -0.007665371066458889 -0.004468338776800533 0.0007385038297143387 0.009559812855479185 0.0013183687307189737 0.008332187804995606 0.00356907439376996 0.011292925775339803 -0.0007303557893311508 0.008969011641627172 -0.0025857077253302776 0.01631816058081941 0.008488745446393055 0.01001264616848387 -0.0006352342103442839 -0.010301362586825317 0.010797447265844794 0.012366325847890568 0.006314557112423316 -0.006300089402076567 0.015459752150827677 -0.0029797340667027748 -0.017455978751036 -0.012798671130623477 -0.004464518599245066 0.0012938265379928684 0.0012389702496564546 0.0017280924314341294 0.009896212501204283 0.019820607024460153 0.008396543799725324 -0.015878168454049456 -0.003334569091391556 -0.009916074014015857 0.005406958716743171 0.004944778046984473 0.0008012369685377203 0.007779289172428591 0.01497795636923956 -0.010321112554579995 -0.0004527499771559811 -0.02707524736770412 0.0010135223668194411 0.006977766367645966 0.0003158174295887327 -0.018045671216469387 -0.017923148534584415 -0.03126438014664988 -0.014689026721057414 -0.02463389953600328 0.003965582983991655 -0.000201137722014007 -0.011608127176454475 -0.0017038168764568116 0.00795506687655512 -0.013478178882021512 0.011579478628984305 0.0017916761240401404 0.014716835312049025 -0.00886158443122706 -0.008455475929431274 -0.0073535656877108365 0.014548339196372405 -0.0009422755127771054 -0.008128569968930903 0.006434434516121025 -0.0016567644421851585 -0.008034498944593394 -0.004328078141342013 0.011420161260031312 -0.006274766393004426
9987 0.00017199625970098353 0.0010918960774243933 0.0006310742766759368 -0.000488648209851664 0.0026478554847087486 -0.0014501737361552862 0.008150764271804785 0.001769226252957625 0.0021395055285302403 -0.008522985445685678 0.01459926874991665 -0.0011673500566332425 -0.0005284590848300479 0.00014115950931202603 -0.012417619344465109 0.006151557672101968 4.278930281907863e-05 -0.0011378786895137668 0.0031690487385864605 0.0016683697542777386 0.006140860694326122 0.005576302244377764 0.005499548020449392 -0.01366377122022374 0.006224131620077849 -0.006329046167689709 0.0005291136067696653 -0.009543202818899378 0.006010482011669405 0.007017681398219291 -0.00015770732286771 -0.0025567080975160443 -0.00016331125263011797 0.006217367692929398 0.008030129659419577 -0.0005227276939942845 0.00388989896957093 -0.006722330019481114 0.00612659729232324 5.7187905809831906e-05 0.0080605031288509 0.0027596122133055 -0.0011704082980149562 -0.003080079643149065 0.002321617175105676 0.0032084197209139177 -0.005419063713147127 1.0801077217446208e-15 0.022977101190250575 -0.01769918409771557 -0.01580792378683012 0.009937934624281037 -0.004527614487691931 0.01646416169395488 0.024670669254890105 0.006384139984940888 0.025774797008731754 -0.01557511255727008 0.017594490835386875 0.011358977209595592 0.0005057358803579232 0.014015566440484508 -0.007254402721900251 -0.004944883300685793 -0.006417899186151051 0.016755796801287377 0.0028253955621824604 -0.020010854172627712 0.014177684417667317 0.026056424412414566 0.011402107949307468 0.008754627404173855 -0.016717251810517506 0.031087871087118656 0.0037164493108153077 0.024228636789194218 -0.017059113095027986 0.04682025614739808 0.006252728417200133 0.0028296391729350787 -0.005366202356806108 -0.002883083709695797 -0.015482509547203874 -0.008232086756991937 -0.0033627813092041996 0.005997995644210151 0.017428146207783976 -0.0016760011758661002 -0.03174711480406831 -0.02174834507776828 -0.0021626821639941177 -0.0029230321778971036 0.005788697797179421 0.00706066855408465 0.04296467694667674 -0.0003437758522181725 -0.006704897415885981 0.01684065582988192 -0.0031788846097513413 0.007712079905539662 0.014079082379234276 -0.02347778302273852 -0.000592885179995218 -0.0005784542957659269 -0.008376311812676972 0.018996026840136074 -0.002274011701894381 -0.007862735347064383 -0.011829798235767667 0.011469719795020282 -0.006151605004879304 0.022357878242986528 -0.02199941401764552 0.007893151949898489 0.0076134540816709066 0.011624926650439394 0.015025392188306246 -0.00936628389274548 -0.011077863351709287 -0.015956967404686592 0.018272382287259806 0.014965331442370625 -0.005815840215918198 0.020650703946926027 0.020358494602921485 0.02348848385930564 -0.0006534437641819869 0.012806848557228884
9609 4.138171929613287e-05 -1.4348734180878363e-05 -0.0006056417866842242 0.00044978453915553066 -0.0005335252908965092 0.003585391726012366 0.003913103164473199 0.0006035875439188446 0.006188602145203414 -0.0022055244752737647 0.005610863572091715 0.002078464519889877 0.001162954246083791 0.002695685402069824 0.0029326710939279774 -0.0010312431521949275 0.0008378484099122748 0.005748258956606828 -0.0012721680928368746 -0.003136250155871876 0.0020525641225674057 0.0016921769710918346 0.0010938260043187246 0.005761778337535037 -0.004453706300188736 -0.0011710804823293515 -0.0042824740784772174 -0.0016463325636186866 -0.0015456427582184514 -0.006024014907430868 -0.007999907705021628 0.0003659598224147524 0.010538187844368314 0.0036878094643338854 0.003975404915756024 0.004261184105738614 0.006477342675347591 0.009060700840698188 0.010289653671578015 -0.008756832962536524 0.004217174601799405 0.0035140038314847924 -0.000819029702508307 -0.008559993984969993 -0.005004113582745225 -0.011521458510001113 -0.008104081557108815 4.404654120416199e-16 0.020864048925509446 -0.022988753110484865 0.01776676067748183 0.0043400133874298905 -0.009123113536530255 0.020183021609759225 0.004964388456539471 -0.008478384981168189 -0.011853089512140265 -0.010641160844177384 -7.207166556217824e-05 -0.012896407408234353 0.014774488408741657 -0.016812151322538788 0.012902213034011916 0.015343072694068094 -0.001980479940221018 -0.026093911365689296 -0.000234741104293939 0.003608919955625521 -0.017239370749530022 0.01894788285446908 0.008991082738495495 -0.016513500617414377 -0.01496957430393602 0.01751984319299393 0.03416124784662726 -0.013234071363913202 0.007083444997177191 -0.0072567083635743865 -0.0016382188241922482 -0.023524943812863828 0.017647624891147226 -0.01839170186748292 0.003322275259066032 0.018361235527715142 0.00988365388194329 0.020419420686302633 0.015054778888631562 -0.0016522074825891721 -0.013481705533217741 -0.03489099374740064 0.01882437472777082 -0.0031462437029941563 0.020673484731896386 0.01148682577634473 0.03646438879369182 0.030097290367044695 -0.04328568176562682 -0.026915690037754802 -0.04168713583449246 -0.01589417132335949 -0.0038557685424013733 -0.0068595888782986055 -0.003130985969213414 -0.006861789455729253 -0.022105304927126136 0.005937934121330377 -0.041513420366374 -0.009172987181561587 0.028558295202783236 -0.02185115658945985 0.005951598720127209 0.009795795018368827 0.014045396963056457 0.011668690283001193 0.010824827598809036 0.007084905918939252 -0.019428870495849685 -0.0219624645587006 0.004849133943092559 0.01501423648274029 -0.017573508523700165 0.011395004792293904 -0.001079730128650582 -0.001764743286637381 0.0015206561574135137 0.013063901106268374 0.0035732473935719457 0.009025815735987402
9997 0.00013892644024712136 0.0009555215283590004 0.0005767448740325049 0.0007048134792857452 0.0033664780774211047 -0.005115067537864344 0.0002392334588896982 -0.0004444384938178701 -0.003738882133624024 -0.0006627929072865145 0.001170907756188652 1.923215076272709e-05 0.0003607542908102731 0.004264196409418495 -0.0009067944041619532 0.0005873400590831133 0.0006965552865484943 -0.0010577244178159174 -0.0022181451561309002 0.004741027911460038 0.004242224742963863 0.0016677219900608157 -0.014189037419452459 0.0014571812605727937 -0.01012718363399607 0.009087080431171566 0.0008789470906212141 0.0005895420409792245 -0.006695268914942227 -0.005130194957335089 -0.0066236328590876525 -0.0043430746995868335 0.004740120526870687 -0.0063561176389733375 0.0003993164325656662 -0.002264916896833266 -0.0016924821650137509 -0.00037931229048378224 0.00018933446289029208 0.003890021242826784 -0.0055443337564484085 0.006961439560311877 -0.0016180099527849739 0.0022897447876621007 0.0017059830164873535 0.013509364659177363 -0.0027477222604468917 1.1426999739447327e-15 0.000604215853684616 0.002525600173685654 -0.0018733664071678784 -0.007748724309633343 -0.006886652978711586 0.002617186488216885 0.007449952488218918 0.00036517849109718263 0.006997910822433641 -0.0034787795603265386 -0.010235326316745666 0.012411134920937221 -0.0031172306519421907 0.004327869818844352 0.015341301513251816 -0.004058837120436765 0.0022171241411828033 0.0006902384232850742 -0.0015031831025803337 -0.018239685022483836 0.0066299214944858685 0.006339425062291826 0.006517189098818056 -0.006351284951476258 -0.002965611783142249 0.00523317935603803 0.0196827001273256 0.005897536225912684 -0.019066848698812186 -0.017205009076073075 -0.0007084180100768961 -0.005942538798341624 -0.03167015021695693 -0.009226171654371104 0.01590410160058737 0.010045617637840789 -0.00836352588790556 0.010867281256435208 0.02601478392418871 -0.01747349645480389 -0.04035409948572193 0.017880507658889176 -0.011163576555503454 0.01483390552805828 -0.008024321020387692 -0.013965456943113897 -0.03311344606420938 0.001746002946753151 0.0018283007482720961 -0.015200055135506147 0.0036699154485154853 0.00888850642743207 7.730247136370502e-06 9.203496206774638e-05 -0.025562489422881356 -0.007366971775833242 -0.03982128047949592 -0.029441746977069177 -0.0017030148146591428 0.011985316715596293 -0.01734001102384153 -0.003918885037155067 -0.012206279660570318 0.03658227225365538 -0.0033161919499016795 -0.02357454435285637 0.000653874275708854 0.03155947132695987 -0.034091037236468606 0.00428897747553534 0.007999813783132805 0.02349307185548207 0.011707325383986892 -0.00783979133159304 0.00356895689998488 -0.009246515855400081 -0.003293874784837439 -0.01314438254185267 0.027975201086039198 -0.033731523112603384
9615 -4.047269730483195e-05 0.0003839739951693914 -0.0006041452207001981 0.0006963431706667469 0.0009183144269355208 -0.003316641408339951 0.0003043881893144639 -0.0002214521157721526 -0.00028735239871593434 -0.001197083459701831 0.0011242227181493176 0.001135834068818849 0.0027052219630139657 0.002185423033860024 0.012756040916245973 -0.009779615536118046 0.0015569110079445433 0.00028898972445354606 -0.004553861210632052 0.0001263837699906556 -0.005709971305190559 -0.007518172895944452 -0.0010824083899496025 -0.0002511891051990595 -0.0024469354791025605 -0.0012285650895353314 -0.005528212330735483 0.000996253731859645 -0.0033529679952980468 -0.0003259731200300132 -0.008987606496848936 0.0009381908017820103 0.004581023941675113 0.00586172978463067 -0.0020086358514565055 0.004751544819993329 -0.00018713296372582374 0.000239223582687377 0.005656272201563023 -0.003721429928509684 0.0046753723197452985 0.0021537727657178775 -0.001424551923985985 0.0032424995702644175 0.0009246255250391941 0.004455652906443357 0.012259706090725101 -4.887341100370395e-16 0.016739139259804508 0.0006994455255330713 0.0053689407045116 -0.0001379643822314577 -0.009593445305769494 0.0036320050970406327 -0.0046885657941918785 0.010804246778473975 -0.0030958372719579433 -0.0026253940072755045 0.009839009815849726 0.0010733414690393868 0.021623035900571706 -0.0004096242322875296 0.0034476409332241903 0.010592464463635478 -0.007924540199096391 -0.03662990815885685 0.020552791753970075 0.0023592803682630573 0.006155708349457266 -0.004826138237485043 -0.00134629206598773 0.00732310543378851 -0.004527581919649323 7.226739264983893e-05 0.007498565709726497 -0.0024070249752948672 -0.015182829072536477 0.012923680406025448 -0.04156851625167699 -0.0016123970756785652 -0.02060289538922154 0.0030904415837400443 -0.001512623954128354 -0.010779965790863032 -0.006843178309864904 0.004319087165591822 0.018203976296771503 0.018198566534000947 0.0026762277721950017 0.010487425895186944 -0.04689689779872912 0.0038326115939324745 -0.010310796442027353 0.0046204029733286555 0.009476440863666225 0.006655392838260113 -0.010415435172431174 0.022507622009516046 -0.03291166592076731 0.01635636692952209 -0.0015762871775483545 0.012573869993442077 -0.017943527941780127 -0.011910830587796678 0.010246827735185845 0.01162436788425879 0.010993035618572315 0.005982317691679392 0.003804355815535496 0.005721355519901205 -0.004082896818791531 0.0037978987388810285 -0.0015354382096988163 0.018021989544272258 -0.004896911531850294 -0.011311547048207296 -0.01838681923268654 -0.008600185212911823 -0.023505056388944717 0.023506695687373694 0.007189837869609699 -0.02095147739689845 -0.001979837166910054 -0.0002116600276850353 0.0009759963920612385 -0.012215573281931747 7.40766402477086e-05 -0.008205835504524694
9744 2.1339122321325435e-05 0.0001625313984145547 0.0002047420276132443 -0.0001270902373496303 -0.00022429790321565603 -0.001432271745579784 -0.00014111050337238336 0.00019955919559826938 -0.0011262876255482685 -0.0006668632712294007 0.001000057406195285 -0.00039260192434497325 -0.0004750347434421711 0.0004900929974408203 -0.0018524375261090222 4.283066931050004e-05 6.424571975535618e-05 0.00010582009624316193 -0.001099315476965956 -0.0002266330860435006 -0.001303681630865589 0.0017137783153704526 0.0004052792533946121 0.00018005089310567433 0.00021587087111836752 0.0011410429194050101 -0.00023573953920028758 -2.52401432501475e-05 -0.000513976276997873 -0.0002515497332930039 -0.0017062827718968292 0.00019016617005348195 0.002220959101334026 0.00016540150967046143 -0.00030383411696566356 -0.0003077449093870054 0.0006114113946300172 -0.0013927836509904717 0.0005046469634097906 -0.0015694712092053445 0.0013027628755124194 -0.0019604078243402046 0.0007224371389097863 0.0006938094938012679 -0.0006271649550099606 0.003184809266883578 -0.001731784382105794 1.5039261615375494e-16 0.0008403420639402646 -0.0038007582192506506 -0.0008922126267755547 -0.00040691956979189243 -0.002937486877938567 0.004677634784948453 -1.7087611208698695e-05 -0.000724449700791926 -0.001810119270245837 -0.003932596577522823 -0.0006432934588320696 0.002472343378532335 0.004624223790173907 0.0009800160828449846 0.0029502069165292123 5.76239076075356e-05 0.002394323850090182 -0.0004925734369101163 0.0029663130983088835 -6.1066839806889565e-06 0.005145705169342172 0.0012812777568480796 0.001500824532545607 -0.0023905377402471486 -0.003273197484249538 0.004876228500191022 0.004398221208901375 0.004353861311674214 -0.0019784068560043926 0.006376108755702486 0.0010768519414947532 -0.0035694448609776865 -0.008620379414087756 -0.0056467638174437255 -0.0007544202273108601 0.00017144727087137083 0.0024249437970461176 0.002316897452691714 0.005895292205615345 -0.0007587156794291864 -0.007679178355743615 0.002602880447217362 -0.008116404290031328 0.0067528623661471795 7.171778967402053e-05 0.002013426297505201 0.008712395807470248 0.004008454592375787 -0.00036529550496932576 -0.0024247482897838727 -0.007046750731587958 -0.005175074893184366 0.002826336513503499 0.0015408370040524545 -0.009828326417156313 -0.005733393583132298 -0.00761006254774797 -0.006878557160909074 -0.0062396505060996685 -0.003701820575481296 0.00013563394606911277 -0.008494350821636078 0.0031536490979551498 0.0019613468568939153 -0.007862145784105679 0.012110742610637756 0.007341898986221983 0.0016482482680737094 -0.008821874750464368 -0.002168398284233923 -0.002200892326054265 0.011745694115278696 -0.0008241171754482314 -0.008941637033298767 0.005341937880207633 -0.013119255631672929 -0.010347620416400636 0.0007729842580696611 0.004424869452262744 -0.009033754731113177
10008 0.00019338666435786365 0.0007169840098174117 0.0008789949794842255 -0.0022198683457148095 0.0032990894924325672 0.0056920992570155295 -0.00028143678703079506 0.0007167611795873237 -0.002566522782043329 0.020233638623291694 0.0027069041586535426 -0.0032326977361068618 -0.003909866759522172 -0.00909493451130476 -0.015742156907134836 0.009881511736418705 0.001880680249882812 0.030227563888521648 -0.00997306404154865 0.010296878904196382 0.0074024879444199235 0.006392220717259267 0.0011648275432824522 -0.014827140357572642 -0.003396790081088459 0.005904712792908523 -0.00992601741390868 -0.00812122708599967 0.003996480760955599 -0.0022054760283364188 -0.01177712586434663 0.013453128834477949 0.020337779564970848 -0.003922674349145087 -0.015668984036475164 0.0038705853968213273 -0.01204996977009857 -0.0015984906429275033 -0.007630495107609656 0.006094807743351509 -0.011687035803052212 0.0056547394913202004 -0.0021834115364695486 0.008469174361477027 0.008262893277590267 0.02382382900814087 0.004176237113583961 -4.865424326462954e-16 -0.010091945006370248 0.007428696353958931 0.0007162324475637276 -0.04163244587059397 -0.0186182757922315 -0.009885622444381037 0.0076704948502655445 -0.00220150478697355 -0.03391611499008083 -0.04863598597770887 -0.04666100964066783 -0.013613128540347956 0.04044431381380408 0.0120075551495862 0.019678395814675183 -0.0025321305510301426 0.07975856298098462 -0.004008575955961779 0.018579342655206908 0.01609863898534102 0.08263793712903052 -0.03372965910102561 -0.02122541378118779 0.016984613979193004 -0.006444812207286922 0.019675368670896153 0.004088040835712345 -0.018774259535924896 0.0039545027712640105 0.030418660948857916 0.005765108784751089 0.007831957241177877 0.023537384601907477 0.0037154734794467075 -0.002499288554184556 -0.013419272942747024 0.02253113510207425 0.003672748968055675 -0.015778164233351256 -0.0014738019898127498 0.011477295867673144 -0.0015320657155499825 0.014745486066529217 -0.005682636774663065 0.00840126602401809 0.02544719696799061 0.006602953234750618 0.006503801706718385 0.0006641862914722333 0.013300708318137953 -0.0023308388856978566 0.011288824303299548 0.008716399920247881 0.008130166695590642 0.02275639315079094 0.0072965587841479825 0.0043504317186004475 0.0034440790193499184 -0.0018630433423050983 -0.007421429269308976 0.0014645459663452749 0.005121447734033581 -0.005595074550160649 -0.012261639013793011 -0.0015076900148206847 0.0007310361778901357 0.001316738093218284 0.0019448324906200234 0.0048752698535702525 -0.008949040151547214 -0.012793816424985595 0.0009493364254995704 -0.0048647447574941575 0.011227803465447387 0.0053632235000971515 0.0026181661913597773 0.014547273558183674 0.0033055077868545434 -0.0068116672331052985 -0.0016722607752859013
9234 0.00014185601116970336 0.0007106663314869875 0.0007821266775074642 0.0008139448907647671 0.0017575107405747709 -0.004167027130536382 0.0003697473124711344 0.0019255547767077314 -0.0005634709346815384 -0.0021740247994513685 0.0014717961643120122 -0.002398324290803596 -0.0006321446156138196 0.00029118122879887476 -0.009774308715887534 0.0036646914612236394 0.00022825972453070228 -0.0030144708824396786 -0.00032961057959669983 -0.0023337944272165787 0.005988887214573789 0.003151712195456923 0.003473173004039888 -0.0036617985751260687 0.005424537251396548 0.0011409458809013824 0.005081085253300426 -0.004464828346545917 0.0010947484135022808 0.0015078057751453592 -0.001182995084363869 -0.0017209987546860826 0.0002595172804149603 -0.002680872816378813 0.006803306654393929 0.0010381375902143483 0.0025659093565933893 -0.0033197374221186 0.0017842341440739652 -0.0026359463472404236 0.0032251896497583316 0.007171315696799911 0.000992478524306763 -0.0039677753892486565 0.0012387963411399359 -0.001454513990025093 -0.003489574808689825 8.846303952680265e-16 0.014776648048728632 -0.010363885471062474 -0.010515426623494627 -0.0002639304120406424 0.001613719398149487 0.010510665314265928 0.013053708846586777 -0.000886923291739518 0.018674671503525232 -0.0027127626323356045 0.006013052238812962 -0.00030443132347704937 -0.0058372541450625185 0.009330210845253883 -0.0018342893415443796 0.006077256534944756 -9.611719716529616e-05 0.014593385518206256 0.0033723299670998966 -0.0010590298944750216 0.02380118590187193 0.018247079882982707 -0.010507110971095015 -0.008875020524596386 -0.00832207222377162 0.027719552694047318 0.0031833002285562295 0.017499073500370766 0.0003415406420801687 0.02968805356228587 0.004447632823090359 0.0010479959022919782 -0.010935330387830696 -0.0012990558202516467 0.006074509036962401 -0.0032778875157615317 -0.004879292989303328 -0.007308450664064226 0.007932886111690757 -0.0005602052805953335 -0.012712472031794226 0.011191820394341316 -0.010578956505323645 -0.012967635111639834 0.010778721166552407 -0.02878108793465835 0.01617458584908376 -0.0029069994634914683 0.004180433197223043 0.008074184278429063 -0.03256207704273679 0.008132490236888694 0.015613054370531725 -0.01028416144762991 -0.01861561289025541 -0.06419863023823082 -0.015166500620916118 -0.012943939467251107 -0.006579417225427274 -0.010098830171130389 0.029540841513143175 0.013524313975898821 -0.007331978485217947 0.028828191346883022 0.021561929451028545 -0.02101994127730726 0.006653390956751678 0.028220016786288327 0.01735212994960991 -0.0058676537282139635 0.0041543922164446875 -0.007387603090173847 0.021005783837303466 -0.0014622714558858384 -0.0016201731625397344 0.06159502262015937 -0.004917032689501902 0.0015334985634867571 0.015208814254826269 -0.0016193741055677308
10005 0.00012256460859987224 0.00030027567806904565 0.00025649509638972224 -0.000966604039678138 0.0021010631277047363 0.0036027278077680287 -0.0021495734833261904 -0.0002519714920397937 -0.003598744361207637 0.00869621512810259 0.0028492826863173136 0.0006639037082591235 -0.0010667523534544606 0.0007260094954804237 -0.009388846105581147 0.004317336865801714 0.0012402911962530261 0.01166322172269019 -0.0022819020271205573 0.0035521848329747555 0.010992688943673008 0.0138036579381886 0.0030586745827264356 -0.02013684482200296 -0.005098938261411029 0.007931103994428344 -0.015002002617614047 -0.01236725373350367 0.007119753268568062 -0.0038143069657776934 -0.01336354113785648 0.01919857137931234 0.02447800559139293 -0.0041289146504268045 -0.008546760935014754 0.0035699446992345876 -0.007328783799025438 0.0011800053577473773 -0.0015284851811053094 0.008155985652228833 -0.008887764818997149 0.008800437380532924 -0.00014593339445068517 0.004772205729941444 0.004820775781335801 0.01932441069677984 -0.0018962633433434845 -3.455524344652708e-16 -0.00938680419488654 0.006814023615714166 -0.006968629706645802 -0.03915124896181585 -0.019838287377786246 -0.0014042206276795835 0.005054915373070764 -0.008334211669101097 -0.03391078652069126 -0.038133622906852786 -0.044755865907335435 -0.01803133640768147 0.047024148852398646 0.018258158420235458 0.02292612155274055 -0.005470827581767196 0.07828565571160487 0.000536217847563586 0.014194412070773743 0.02269942757328166 0.09951200868679139 -0.03331032142499357 -0.018950877793680265 0.020552284029039216 0.004497894118912135 0.018727259533357243 0.009581382929940187 -0.022318488420076946 0.003923785850116395 0.042977618372107396 0.012408234246826662 -0.011652757930872698 0.020021618729806526 0.001223314594064977 -0.00840457828801735 -0.039161402633919366 0.03317923284475321 -0.012658443287453358 -0.01666153868849823 -0.0026695174650869535 0.0013674152872625517 0.0019654495435329025 0.00017771456356342253 0.007436874712206514 0.03476956292613427 0.022630884594525755 -0.014298027386277045 0.001884604690034876 -0.017650623063192455 0.013619956719747538 -0.01216404040264942 -0.029082319913000084 -0.02187351223149256 -0.016080187088512107 0.007818142122692613 0.02791761655369189 -0.012365874187707092 -0.008956629465643226 -0.012351805402690926 0.009916162334672886 0.003707235823009745 -0.009117586645801569 0.007380018817472047 0.010081990021303742 0.014406703126140626 0.0050039756568072144 -0.008503546437912594 0.007084930333426497 -0.00145026622256361 0.005046484291885085 0.005044997157720107 0.003847837161141896 -0.008032265693807465 -0.008991334143988238 0.0015122435895803593 -0.0088650267302216 -0.00799243873767323 -0.00045329764360386765 0.005576905171783539 -0.0008276860933438237
9239 0.00022224366948074412 0.0016232747638733446 0.0007721242990535351 0.00131105438959279 0.007844469831107983 -0.006991817382912525 0.0024113179569407775 0.002271432986232781 0.001919774171072493 -0.0013215467215496653 5.2902797338248645e-05 -0.004894629169249393 0.0034727605193526087 -0.007750989448384447 -0.010847274074162985 0.005277488418912047 -0.0015966904826527465 -0.0019422104517762481 0.0027484601674372796 -0.00044442501125694164 0.002194571785796034 -0.001181072382806413 0.0033487244748697936 -0.021147665745415437 0.013478918255356945 -0.010426106827035828 0.0038247398486489807 -0.010315107616064054 0.01432795197779385 0.01333334537727247 0.011852633590717086 -0.005351125267700684 -0.01290862105716336 0.0160447462052366 0.009544276208778318 -0.008052133546070388 0.0021787213126496403 -0.011325188501088075 0.0058192522460550665 0.002601834173876275 0.002115074583415423 0.000918622439884105 0.005885685269075277 0.003229999351029566 -0.003940460062572098 -0.006227712685872466 -0.011873095966285427 7.881950491048183e-16 0.011790568111908779 -0.003923743312528509 0.0007344726362731029 -0.0011146641591714003 1.858818067343367e-05 0.01208296071766352 0.006688751823889873 -0.001576618800732736 0.019834009905855144 -0.012403050586612365 0.0126373935578311 0.02094229911137698 0.00241744803141383 0.00977502642668305 -0.0024847467584663825 0.002060356401335286 -0.018422190732391732 0.010337420121598212 0.015295114599720728 0.020314823895550838 0.032694602569739294 0.028471799646089355 -0.01105120795121636 0.01872909924168158 -0.0044429627672764385 0.026310753424536728 0.003603095593836753 0.04616803937586476 -0.021707616678999044 0.018382886940202767 0.02363529397225481 0.034891983003359474 -0.008573467869226154 0.005218936103513017 -0.009155708389015343 0.018240965406202684 0.005425118798925431 -0.010574788536488829 0.023295908123176747 0.007819295772466437 -0.013878917193912169 -0.005183481257829749 0.03235586287158537 0.0006899873437213013 -0.0204736352586854 0.0027377308327084468 0.018346521146097847 0.01672646324741507 0.027665901405971072 0.04116989935083185 -0.028936058444166864 0.006107236565551868 0.0023702766309100483 -0.00965748488604166 0.0026526140379668005 -0.03289849469301794 -0.005608129736335263 0.02414116131269145 -0.018937678712888296 0.015073160551212049 0.02644677972820024 -0.009416971842962744 0.021570442693583786 0.010736111172392104 -0.0013461502643367395 0.01230149540197513 -0.007701642771563373 -0.011694406505210456 0.0023719199598559045 -0.005374526301306043 0.025563128794354184 -0.014150597959330692 0.013357755303298545 0.01550998582445764 -0.03170976932092899 0.0345624859522241 -0.046109482613334855 0.006521305848239812 0.033999099561337176 0.014672525704115863
9368 2.8117341844095375e-06 -5.52977509578047e-05 -0.0019465466799427655 -0.0028303711860317056 0.0006537316730348932 0.001601232317500998 0.002701966886123239 -0.0009917731208652335 0.007148573645488638 0.0040289264421102 -0.0031150276428193145 0.007153176207167198 0.00043537499640016874 0.002868984944737024 0.010538930505997256 -0.002949425294837195 -0.0008081575465232697 0.0016441260639640635 0.00434659823268222 0.00019135865175829084 -0.00025766122560206097 0.013170325618384368 0.004648493863327589 -0.007396911314652979 0.005301391852572975 -0.0022638200572025996 -0.0038265546244292356 0.0030848548945841756 0.0004809169769125039 0.0016605308982749144 -0.0016406700729358049 0.00701742849798096 -0.0038549352023007537 0.004749288589654607 0.011613575246320564 -0.003939048890214043 -0.005161067043041665 -0.016429484839616624 0.0008831588664834778 0.0045348520201927535 0.0051919224460812066 -0.004480284451355037 -0.0008118918127609769 0.007875135827250189 0.014054137143880714 0.022054639760883968 0.007993564637207393 5.2818047696117903e-17 0.00250686024293813 -0.008804525339651054 -0.003830159402462222 0.026808247437460898 0.026028231442718024 0.008874898626517394 0.008337274099075673 0.025742460047932365 -0.0044863342210829165 0.015515332885823204 0.004929960297094121 0.0023908963552216785 0.010289874683285577 -0.008615987738793743 0.033116107155572234 0.012215873975918707 0.0034549427973976903 0.006168951512273671 -0.013768885685089995 0.0005169766051421852 0.01817768988038453 0.03228478094418359 0.01712087489073347 0.030426266960289924 -0.006334149351269593 -0.02530479527450925 0.010638498905044468 -0.023666442899448668 0.024639282797115022 -0.04110794368723761 0.018184815623661522 0.016168945622236093 0.0003286067756309299 -0.00867578250023092 0.008487603202457589 -0.03183958336402836 -0.022711970385469807 -0.013985717145815936 0.028408273892824635 0.04374641870356284 -0.007225450931828881 0.009136864586104621 0.011424276414976653 0.002013025906700993 0.000352778452231224 0.014277614057754653 -0.011129939946307043 0.01599237858121382 -0.016225325187513174 -0.014244774455960976 0.004515669164309453 -0.009364574753063322 0.005625673068237145 0.015283468240300673 0.01434731687517737 -0.003611845874728908 0.007658109846955791 -0.004921997625570725 -0.010890686796918736 0.010425630453607507 -0.008588953576687704 -0.02354289518597065 -0.01726952943738498 0.035172690830818004 -0.014726465681987284 0.015653474043784747 0.008717504705494136 0.014178299641386944 0.02517881446569249 0.01031802722655169 -0.001319988150849439 0.015475152285603248 -0.0014972302304377461 0.053805442123917635 0.005528345187108948 0.0004612175027182343 -0.03883861411773081 -0.026597675604980633 0.022659458430411634 0.03949609539797517
9513 0.00016667768603426442 0.0007632684472952308 0.0007915698910145333 -0.0008641418745967135 0.0006175329796021587 -0.0035639191095138112 -0.002343128445791283 0.0010947415560778318 -0.005209843381461926 0.001998492797911559 0.0034116875926529008 -0.0010911396329348019 -0.0014833925802656 0.003804216253253911 -0.006910311782830711 0.010545085851463153 0.0009763746040143306 -0.0006108421760659426 -0.0029497994128214584 -0.0003734735880056108 0.004798075092943398 0.0038106326867085143 -0.003047816963980219 0.007304728245731935 -0.008613469196680693 0.005049944958241055 -0.0031029846525667563 0.0020073013759547434 -0.005213552955011359 -0.005992896999966422 -0.0063423887959222465 0.00020040270318653593 0.004827774493445401 -0.006677572326985367 -0.0007153278143836678 -0.003509181217014338 0.0007800820817559721 -0.00027134598902196457 -0.01144469990484654 0.007085621023282553 -0.008105379685778104 0.006124204712238753 -0.004742690243387673 0.00274708198671243 0.005944714828556447 0.014798874247668384 -0.0015018551071915905 1.4010219836201415e-15 0.00499920888849894 0.0007375431534483067 0.0017500798785360992 -0.016051385146580405 -0.011012380577257189 -0.0024285023697943114 0.007701016688276964 -0.01111511362920084 0.018015142582645027 -0.004322848700965054 -0.016164832784236537 0.020448508065290655 0.001981611221630153 -0.013573397782277561 0.017934655636011907 0.021396307979614854 0.001403831566702653 0.0011163540210911908 0.006840082058324115 -0.012824744447530484 0.007632237003020442 0.009752007230510576 0.005171275977106942 -0.0018210271685963088 -0.00660870632975845 0.0031826936136823652 0.011876481305901038 0.021192128658779036 -0.016005001298572463 0.002216416779695694 -0.0006558257981835589 -0.012814591451280895 -0.011698149609909558 0.007974412151864724 0.00886615270700181 0.00909777438701541 -0.011873331637033689 -0.007989293513082522 0.031388776009000786 -0.0020159844902608677 -0.036917215182666316 0.004204113850901715 -0.010512919733046105 0.0016868854899654208 -0.006885339589118101 -0.019189294466366573 -0.029097213138481088 -0.009573272835881148 -0.00395836526364539 -0.010149331728705763 0.01676914211944847 0.025506409331076937 0.0026235157397481155 0.015690247249601632 -0.01908143784874157 -0.004169918577727797 -0.037551111282643046 -0.02210525747671625 -0.02012341755658296 -0.020050879517292137 -0.02430353164725608 -0.0040544451950254 -0.014855511840351582 0.00291807520402682 -0.024918647113573014 -0.007217666977275003 -0.0014747928636506449 0.027693219491816124 0.004383023661236586 -0.021526893030063422 0.013717952076634872 0.026852399136310982 0.002583261840534015 -0.015226155901107985 0.006223591170090298 -0.023237274831340263 -0.019299135567033932 0.004154210569303437 -0.00469700783862042 0.008701101928194458
9799 0.00018202007348513017 0.00022507539292564215 0.0006492316770216816 -0.00017689169408402632 0.0014250252092594454 -0.00012837985329530464 -0.004056861346294638 0.0020320762821247084 -0.0021294342095259018 -0.0002223966596941496 0.0020126299790431037 0.0012441723449284055 -0.0036976664017415663 0.0048365309471146796 -0.007013582825404376 0.0054031238663429255 0.0008645479653873311 0.0017643574689519745 -0.0063239417358496525 -0.009070600070926001 0.010956722823932973 0.0016499041261099855 0.001631181804282766 0.01962676679556148 -0.0066464677457185725 0.006474584850755578 -2.9845862238572858e-05 0.0038400928806868054 -0.005469065360937951 -0.002689324567904526 -0.01019025405339322 -0.002497486432866891 0.004324016318211156 -0.01048713464189805 0.005858098075677259 -0.00803399177289341 -0.00018024911345530304 0.0036793552577947058 -0.015356014226537621 0.0015907174706670667 -0.004306892702539203 -0.0010209689863078508 -0.007782710190094992 -0.004498787122135037 0.00710427089511635 0.008684862912267078 -0.019182166915337712 7.503955950221517e-16 -0.0012836764384918237 -0.01957459263739471 -0.0007615720956979407 -0.013789733749754018 -0.0022469704185767068 0.017566349812599615 -0.0037199377892925584 -0.01599284125392326 0.0032874833161062305 0.0038802603027335925 -0.0013957711701567932 -0.002294665327388061 -0.004334052292382106 0.016156409168512572 -0.009022986059776337 0.019060479369845732 -0.018188860764369437 0.013957457635029768 0.004657907269099835 0.015122948173754999 -0.02075544697665761 -0.004780665070592006 -0.0002130263074173451 -0.007276144021501882 0.003763016602394878 0.0019648930869112574 0.011102214917827528 0.0037456979104298223 0.00752280290724379 0.002023825814620936 -0.008159261585526123 0.0037211675454684873 -0.004837850275216824 -0.017544003834275047 -0.008986794448159913 -0.009598200504860821 0.005291137636607102 0.0013896930391313503 0.0029847414333872245 0.009468265459738301 0.00372034535285317 0.013453330421598627 0.005714952813733377 0.005953146454932828 0.01779675881780252 0.004530989298828863 -0.0003236633347939037 -0.00994531556915101 0.013399103752744477 -0.008670734568793947 0.0028292679034794036 -0.0036406814315866143 0.014512029912812452 -0.010262348908560367 0.003912903806144094 3.4472481609539803e-05 -0.02167470691123707 -0.010825757623641437 -0.005003464269631479 -0.001671724954751019 0.012999399782210255 -0.0032963712191478724 0.023583855089727362 -0.02328928591010977 0.007705013694725655 0.00852184739561597 -0.005804155394505526 0.0034550835085817824 -0.0022413227675085615 0.0031465529377088706 -0.03308046316403465 0.007377369491735513 0.013512046706097215 -0.009778341986017743 0.016357389542904853 -0.016548262385338693 0.002511885279731791 0.015116378160373195 0.0003203320039281972 0.0033505957324676235
9654 0.00020501503231280569 -0.0011962007351658077 0.00042794737895741496 -0.005493184220623879 -0.002457119886749569 0.012090095108699411 -0.010244969308949785 -0.00047230473466209624 0.010202971356476171 -0.0017795833252489321 -0.0038258660051127677 -0.003225992670579486 -0.002540616698069721 -0.001015761543146799 0.0008537022966604049 0.001045167868592168 -0.0014527635849591112 -0.0032627912388800942 0.007760072127173472 0.0016437470878827147 -0.008099595930128493 0.00646080082740539 0.006226949053955755 -0.0071301181776998335 0.020166365273870335 -0.004237781757712079 0.009619921065375896 0.007701883600446678 0.006597392567338346 0.0019119652726865275 0.04047712856583421 -0.004905053185322268 -0.0042209012651867415 0.01572590047779104 -0.0075355422270327686 -0.008429888233029379 0.008277216298015389 -0.0049188123476396626 0.014118609415025756 0.002313729626058048 0.0018481594501121457 -0.003596514661573518 0.011277268772348798 0.0033381591120794085 -0.013572087109401158 -0.009103029376271124 -0.006138383857284729 3.9020278478849934e-16 -0.004123712212199121 -0.00592876680100774 -0.01708138121733579 -0.008012511607169051 -0.00216829564433923 0.011160934212220476 -0.029509730036939727 -0.01007939862817487 -0.007004638150546485 0.03010710063603636 -0.0058640718560644435 0.02372101486534667 -0.0005392661054532193 -0.011882523021527473 -0.012312316063080139 -0.019999687090656054 0.013514341470794984 0.005900167525711283 -0.0036080231063486353 -0.018172607821153618 0.01894309498809151 0.006043137426201954 0.0052138961451904334 0.0044759683504898 0.012377105332684301 -0.008171910808036446 -0.008093107937108074 -0.012815289477452026 -0.0024842739238735137 -0.004382972986698838 0.01410437013556266 -0.044749524289021486 -0.007379775147497071 -0.006824738003355253 -0.010981420849401945 -0.0034811085585874767 0.0195783397410876 0.005762921157926256 0.0038503868414383126 0.0005161792884839857 0.01139639534577037 -0.0010843797284613263 -0.0022433654454573067 -0.010712126985926449 0.02807531633567456 -0.017017598646442995 0.0089518918858368 0.005702338058890649 -0.0011165225211530177 0.01518959021373015 0.006287267209900631 0.007814498291467659 0.0007882225877041306 0.008686121416776224 -0.03646592588582401 -0.0212782856000386 0.013113418800921395 0.015170897634155328 -0.0069882082488807755 -0.019226965952498613 -0.011867592856257013 0.002682424542014826 -0.022748474550172856 -0.024468943380981364 -0.01199429322141553 0.006697313850705342 0.02153428516626009 0.00898763153360077 0.009718833060412175 -0.011807185787455252 -0.019167873015929534 0.02362886242817043 -0.01153409720590964 -0.020681575312539807 -0.018182443914651986 -0.003370723310050907 0.0033176005606742587 -0.012241032300163044 -0.009998035687760844 -0.008727063629107152
9278 0.00011657232297069578 0.0004980198494846914 0.0006864923389942713 0.0002780352966219135 0.002093263129357048 -0.0027344179566664868 0.0008642535484347363 0.0005112773299577799 0.0009308639484738628 -0.0009379117671059372 0.001601042434828845 -0.0009734244738058034 -0.00026747960948419856 -0.00023825457814926333 -0.0037916903854296915 0.00270988415202055 -0.00034642531125564374 -0.0022980682524684497 0.0018653336919771859 0.0024020541413185656 0.001699576752578637 0.00028876180931467773 0.0015241506485646128 -0.0019142146294463466 0.004422479602092639 0.0013514798410040902 0.0016535228448474938 -0.001020213298111188 0.00414690716161108 -0.0024259398963138476 0.00407367117814434 -0.0032588365969581138 -0.0014248970036552574 0.0013332659487704972 0.0028620118903262266 -0.005732405951808697 0.00519538252447087 0.0002212792179619 0.0055106703583295644 0.005695775526325964 -0.00429409232534448 -0.000419339644459543 0.0023340812305764095 0.0008075834142557468 -0.0005492629327873829 0.007661964829414658 -0.00816261966286707 1.5978573581610156e-16 0.006398057260651311 -0.0035659832191073876 -0.011956465598966322 0.0019087064230544543 0.004445166245445612 0.004904195137307126 -0.004315343633865542 -0.0033093645624814915 -0.0074035904624591194 0.005990640096853057 -0.011167161234419003 -0.0031599089961357072 -0.008503401922444162 0.0004222175623583711 0.0037708152469423948 -0.004806409110150336 0.007004282544358189 -0.00646881204456992 0.0036547622800483623 -0.01830370308197585 0.0034922124861721383 0.012703064534076523 0.003212233788776263 0.007429494682827814 0.005276534278553298 -0.008372571547269721 0.006561586861928932 0.004899780688088684 -0.007021558839067909 0.006479060343376786 -0.003142834799915117 -0.01974781482268541 -0.0005349375895179556 -0.0024663687100945457 -0.0030301069881561137 0.008386112719403158 -0.00025534989329049104 -0.007710090158957764 0.00835209223567212 0.02383758374117766 -0.00930531995263492 0.001113483354142945 0.01155928638884724 -0.02671503746295274 -0.012257858896187475 0.0017770737736832669 -0.008018015774747343 0.007325635681891683 -0.006505673765129695 0.00042220052438691005 -0.009164824202081359 -0.0039303397829479995 -0.012038399263494901 -0.00562622410864721 -0.022566855046335158 -0.009126693927118653 -0.015897576385378517 0.016314203585621558 -0.016800912901216918 -0.0013207955932323092 0.0029550850962154337 0.00686772300976786 -0.00654611466847689 0.0011248067931391673 -0.015829152530206662 -0.01287715459048459 -0.026651944508826256 0.017925333176421615 0.004083531110490956 -0.0004795931464564726 -0.004393794340689025 -0.012054727337574995 -0.02305554473641914 0.003977479765674038 -0.006048615537416043 0.0016972453335350303 -0.0032258979989722492 -0.009181223993978003 -0.006303508844718204 0.020721127580599612
10055 0.00017278609184404276 -0.001694550617385063 0.0008514104466333905 0.0003057490913093324 0.003573712995610208 -0.002432978964230167 8.981994448136218e-06 0.001478862373883042 0.0011819769518292822 -0.0012888859612092646 -0.0013229591296202413 -0.0011474001314336713 -0.0018727784989892096 -0.004013809904955633 0.006689051898238405 0.004483487928694586 -0.0022290430798905855 -0.00046198030749758145 0.006001741895022759 -0.007437894468081623 0.007112781184526632 -0.007520660262803963 0.0036134746663409297 0.004821308503463145 0.02574276666241232 0.006069566432143499 0.01919317786380667 -0.005915035116520188 0.004761232345818698 -0.004099445414131963 0.017057953306227086 -0.006547312245320299 -0.005932375922441721 0.014932664811801284 0.009588630585880763 -0.0025758941203089755 0.008917855135954006 -0.005002476141641822 0.011316010116850269 0.00028654406803921804 0.003295062356517752 -0.0030588635827843726 0.011820061110563397 0.0018967595827440115 -0.006570046253207138 -0.0051279725282266635 1.4478793173083234e-05 -6.433054802783114e-16 0.002003193716650983 -0.0018369426682482623 -0.016266104908334286 -0.010583642103376954 0.0025882166035889943 0.005942262956863131 -0.011666160783434727 0.016347937489540346 -0.023439190458826812 0.01999379762339993 0.008822294269909927 0.0017240802054784383 0.006564290709301196 -0.011532541315392001 -0.0016640304489801382 0.006447349567759827 0.001999127266176778 0.01533911058303473 0.015653636598835518 0.016797392903321082 -0.010230532780726522 -0.014116229466398492 -0.011378096430788019 -0.023788107449773284 -0.0028372054587570673 -0.006946223093274029 0.0037994346232990157 -0.01050353751901702 -0.007761425030655034 0.02259830195577895 0.03553890094755409 -0.01728234934208033 -0.005550976596136017 -0.0043330775755953685 0.017677624262064946 0.002137008858555545 0.004598319512585381 0.016687387193086108 -0.0030966256830607837 0.04484835976537491 -0.009222800349245733 -0.008855346498675186 0.012028769629312054 0.0008288294360823667 -0.01925842296321315 -0.002197692775804184 -0.004759177640092025 -0.005405985703114393 0.019380821600381147 -0.0016816509100071092 -0.004976281615032003 -0.003620781031305591 -0.028654296830772558 0.020052152427367628 0.031797264481387345 -0.02389788288143871 -0.006105171894411073 -0.005744181091851023 -0.01217250325418821 0.004492460292006039 0.00384526328157017 -0.008752899205916964 0.01791321030739549 -0.03496574273814736 -0.004951963437491036 -0.011078762157728364 -0.022723080678636327 -0.020906309303260897 -0.0035148591958687474 0.0067537210128443236 -0.026043438115023458 0.015457558905942923 0.00675342197116878 -0.011526845641563484 0.019402266817664496 -0.00010177961937684911 0.02364169017628259 0.019766819820183353 -0.006911280167201163 0.015237591446463099
9171 -0.0015880310329695081 0.0006140423395758046 0.0005474382603567006 0.0007905359282641386 0.0020505313029417667 -0.0026473621051381195 0.0006602987350772857 0.0010876612506686306 -0.00019806943981931613 -0.00016288026487456855 6.029615353721918e-05 -0.0005832488443340089 -0.0005140402639030601 -0.00047771511032571143 0.0040700669676665925 -0.003715895064825821 0.0007124839634757935 0.0031432876868748827 -0.0010535323480556904 -0.00433266062274123 -0.004158078322067136 -6.74212075680317e-06 -0.0007670451410655226 -0.0029800075408287587 -0.0007668297407656175 -0.0036120710129505813 -0.005018246641450865 -0.002191091569887424 0.002891758553049389 0.0030431500280890277 -0.006623926977940541 -0.004923924894089732 -0.0007516802340727953 0.0042718304869051255 -0.004477540900058923 -0.0041344518855294 0.0019853599471694773 0.00509391304528652 -0.0028651747837228924 0.005740694982848076 -0.0057077703881393115 0.0024146982444440577 -0.002984933122984777 -0.0030302076856051556 -0.002312360148589384 -0.0037245741064516956 -0.007856935506886618 9.953241877757552e-17 -0.004946901240422639 0.0027629209940454756 0.0036999344225615402 -0.0050950583488680945 -0.010567518494489489 -0.002352012363697241 -0.006655270074487591 -0.008575263240410413 -0.012065086343582372 -0.005825036654105752 0.006334046235337754 -0.016121136958266294 0.0004320083005572217 -0.0019857964845099814 0.021204940980448624 0.016154223971673036 -0.009267770947978777 -0.005604793484736966 0.00995083956276849 -0.00625946695262179 -0.016735258065749936 0.0003172642694588441 0.011030162260571477 0.005992851605257155 0.0003912066843455933 0.00715568468671972 0.01619962291883496 0.013083969540833393 0.015893526017328328 0.021617149823412674 -0.018354392540596343 -0.013779520998294586 0.016692208643279756 0.018440914324561172 0.009845440356079024 0.011042486689097101 0.00069623150045588 -0.0038243403055379394 0.03766022339073734 -1.014170808629112e-05 -0.029130323458233333 -0.013165016468945117 -0.023686647137240724 0.036920656933572216 0.013086570435725003 0.027309626298845875 0.015262321004603011 0.004639103380825556 -0.02155231493688471 -0.009168889975202524 -0.030688298029051864 0.02231370001985842 0.0059121429270758055 -0.01596333683568791 -0.023119812532719382 0.0026473643466208676 -0.005863234508471824 -0.021046218110010565 -0.010274919911326626 0.0308155143511683 -0.02062613347474973 0.0039368821612859595 0.016854718205834483 0.007200652769778666 -0.018679511938082267 0.046409643457583714 -0.01627825484210476 -0.017377054142022067 0.01655802150533355 -0.012221552758697376 0.0006957774623374785 0.01936467342500219 0.005215682094393703 -0.010150961997303164 0.021630869465852638 -0.009183738461426111 -0.02465066423913773 -0.04291694007289956 0.015505740745189062 -0.03905135759266565
9999 9.112450317064366e-05 0.0006670153114747515 0.0007640805248819965 0.0004845483539056937 0.0027191756894116162 -0.0034155587828410537 0.0006073361782725796 0.0007899010776356551 0.000635025034567729 -0.0005881258307179946 -7.215824935948789e-05 -0.0011600458247297196 -0.00031872851926213384 0.0011996438645774405 -0.003764570080508449 0.0015549289371964308 -0.0006009700811811981 -0.0019828197788952415 -0.001780276136969042 0.002306367561164963 0.0020569178413615253 0.003215663825747598 -0.014256530697116495 -0.00032225154021776675 0.0028149913341453474 0.0008048044603637181 0.0018542054340933013 -0.0011351434342260712 0.0030618205582836865 -0.0017546107940473582 0.004105533220263823 -0.0036829586102743337 -0.0021922942279120916 -0.0003218999226989193 0.0024974642846818944 -0.005945793389333555 0.0016668070985994968 -0.0004551321031979194 0.0019693413263251742 0.0027687527545236855 -0.0030039930039198587 0.002391391739610384 -0.0006596623976980973 0.0014520063348284365 -0.0005709681951832789 0.000701967561772639 -0.007590145032699012 5.755255763212082e-16 -0.0005029441820278971 -0.0004448508943767837 -0.0007417857906665519 -0.005725300383173679 -0.00653982357552819 0.0020311597954230445 -0.004260403024990114 -0.007276842150879528 -0.00442665128339967 -0.0023537411872887777 -0.0017148997449545358 -0.0014981246897606227 -0.0018062752511981022 -0.009120577705813595 0.004230934564894702 0.00028355265848863494 0.0008351786047496105 -0.0035070937764493347 -0.00922043226170926 -0.008303709774701908 0.010006937278722339 0.0034566792220405065 0.0075010291889822 -0.009081655270430856 0.000374105776639435 0.005919474752288108 0.00011025177451139789 -0.0008607700714492666 -0.010034204755917327 0.00044636773895202997 -0.0040753040978822085 -0.004466732673225393 -0.012648793337868097 -0.0006725913177195954 -0.005113041729743775 0.007807745359933558 0.006989958585112977 0.0033458603056964833 0.010029746959651179 0.001051380730366238 -0.007469520935909082 0.012115665982228404 -0.0036708863990896983 -0.001824313835836845 -0.003864920977910254 -0.0008273972749000439 -0.008647712174955437 0.011387689656635927 -0.0036006192814308263 0.005833140469732027 0.0077864755781792425 0.002724850582353093 0.00499803730349122 0.003732965243334518 -0.022465057442249383 -0.006634828672741505 -0.024813086211282174 -0.013529667987365464 -0.014854321703739 0.0040749512045721425 -0.016459097342932497 0.005232722583164409 0.008816307734091925 0.007443730642567313 -0.014033398374314615 -0.006826181432675009 -0.002033208194977062 0.0052120544776820075 -0.0037918503804538696 0.002906888897180393 -0.010283281500634693 -0.008633418835051941 -0.005271720652458085 -0.018240187076969668 -0.006463244253892566 -0.020870442981258494 -0.011111418982810322 0.010387801896668944 -0.004336558500423089 -0.002573260246085643
9568 0.00016161966092852474 0.0009939931765366953 0.0002975615238484047 0.0026900761745742813 0.0036047992440108386 -0.007582495573105821 -0.0004868035144953595 0.0027176090783500124 -0.003580427330332372 -0.004016463524893502 0.0011380809200362736 -0.003314267767511701 -0.00285654126488887 0.002441806312737208 -0.013412942711949035 0.0003174616261688836 -0.0005927447454784014 -0.005625999100966353 -0.005030909423542213 -0.003793545780224249 -0.001338287858886035 -0.0070262535452997295 0.00117942009822204 0.0015357486939083257 -0.0007537382566464535 -0.0004536560985853146 0.0023058223997168836 0.00016431021682858585 0.0008561369448050713 0.003220749167260519 -0.00012272105018127795 -0.0045119819315661575 0.0008274436434575486 -0.0005688809736861939 -0.00440627697116526 3.838324998450759e-05 0.003745946597758929 0.0012172787758460775 0.0008430163422400325 -0.0066431304002217174 -0.00022295675316484019 -0.0007874854590675842 0.0017260913394135308 -0.0036991141808974705 -0.006521199483339724 -0.01100306836871793 -0.0091960694669889 -6.4956702211480914e-18 -0.000541283937205141 0.0023509244697911044 -0.0022013454798511336 0.005511014176798401 -0.007551876325702156 0.008098389448744 -0.0006240040114571078 -0.0031581972765843186 -0.012432062245409572 0.019602672769778527 0.00275848766787138 0.004824924652832088 -0.0021234291514728412 0.00743450006032259 -0.0038747404759485334 -0.003934870021122696 0.002937806161762378 0.0036992945623126666 0.003515720684666485 0.008804181958149368 -0.010838347272479404 -0.00460689345821662 -0.0009052418111578456 0.002442563054912132 0.007490839277120195 -0.01479999173775463 0.007102128484526826 -0.00171075888503171 0.0001421824227545246 0.003529990606456041 0.027062000004353572 0.0006222920499331975 -0.009275261945862815 0.001721886987500614 -0.007189532639633509 -0.01746234063476054 -0.006070296754080423 0.0036550442318141556 -0.01671789418918937 -0.010748659625721715 0.013166123959086595 0.0004968205655188579 -0.02265473994127273 0.0027228889602348635 0.017709493407933 0.0009956798158885908 0.008216390645847763 -0.0067230229734847454 0.00408302919404943 0.0012722498611668805 -0.017533756553527166 -0.009971878098220267 0.009573568948255303 -0.004511155958113328 -0.022971315720857935 -0.016291554395994116 0.001993171378762703 -0.0074234928446612084 -0.018286978845310917 0.011432713977710847 -0.004782143841605108 -0.014540392333580014 0.014662271954291236 -0.03953558861506288 -0.017813253591322322 0.0011968529314887288 -0.00020600199848854557 0.005901035808278422 0.014266490402041325 -0.002974472709312555 -0.030317952057069723 0.028362300622888303 0.015894806005908514 -0.010713532649443266 -0.0026525876871907536 -0.0009698773437732753 0.00027402295541685665 -0.0020304658553171586 0.05006000449115537 0.022420934234888848
9701 0.00014114566653827037 -0.0003175148523287783 0.0005538272474105618 -0.005451661220891255 -0.00181124919606508 0.016347160026762723 0.0096816479915075 -0.00022883294912207162 0.003989559682976881 -0.010079057092233952 0.018286214712827615 0.0029505396903163794 0.003242610441747865 0.0011252003798651853 0.01690512191644774 -0.0011770918543190154 0.0039291577328894375 0.0014375323663572066 -0.0026052105498353523 -0.0017319587613043143 0.0011182952215249948 -0.00032164033313246534 0.004917154729409014 -0.0016669583397457154 0.010442335403606737 0.002280353929026772 0.011680810630249965 0.005830466156076467 -0.008787127449110496 -0.0050541849383427305 0.01047121071090888 -0.008890487855421812 0.009464732227693423 0.022300575907566334 -0.004071270069255613 -0.0016358539374426032 0.008625436194374274 0.01599390627216069 -0.0008833049643974835 -0.003472967747898562 -0.0008941045526327524 -0.009829636582828115 0.007351429599814834 0.007181945432728926 -0.004796597357187211 0.007022420459726231 0.013156074194778536 -2.1163430229550385e-15 -0.019887515347139305 0.003550864753290433 0.0003951313413034781 -0.003504281352063151 -0.016304846893663384 0.024728506116202448 -0.027916881805179136 0.003070875850920057 0.016713680253942882 0.012910388791317305 0.012254599558579854 -0.032750550351020834 -0.02622764018287617 0.016389062752034667 -0.017049977862455466 -0.013033359222950926 0.04946902409520179 0.04267932354608254 0.005742740126731638 0.010396779945697246 -0.024234126958479544 -0.028146104079529787 0.05952118590223115 0.02563721539342105 -0.06373512986218145 0.024762364116947766 -0.04714562853923669 0.02641733895259099 -0.0006999682274612772 0.010790842561527752 -0.04826636313816315 -0.04082956572367663 -0.029308557788178643 0.016436992901233096 -0.004812196286665021 -0.021720804397078967 -0.0022606935614656906 0.06067660072995585 -0.02582309514705786 -0.006911388851338746 0.05397652411921304 -0.034751995657340176 0.004207431649387824 -0.019687137751006053 -0.028912849280141296 -0.018844880306132617 -0.003459235329177264 0.040582354229749165 0.04726274343138671 0.01671545281546768 0.0017970565003195597 -0.02596325103670698 0.025944306450221492 -0.016658003285623866 0.006188043658847254 0.005116907378828193 -0.07090499682692825 1.596159431141599e-06 0.017255443678741652 -0.008331922156867044 0.010952222176930763 -0.06705161831025445 -0.023177848634214192 0.015396816794184096 0.006450955203308568 -0.02643478546711221 0.01722550493875076 0.026352788307353044 -0.03148692266331543 0.03444372607718583 0.033992228892467446 0.02287718846921595 -0.03792753955950085 0.0022201972424125984 0.0009219305033267254 0.004176403381856953 -0.014474713659735428 -0.02833888649842653 -0.02739912395501336 -0.022835636231278218
10094 0.00011499429533310563 0.000730721895714817 0.0003249423871436348 0.0013465760045577113 0.00356594704334975 -0.001735109788063487 0.00039339018708220777 0.0005967283798057633 -0.0032970888890800046 -0.0008082411255792165 0.002065965628966924 0.001695635243998646 -0.0012343165957273694 0.0016305144839471306 -0.0010874303661730675 0.0014551979917410247 0.0005708046039621365 0.002154962523424671 -0.0004086804358255783 -0.003805915579852674 0.005883343788655467 0.004539069624551461 0.0010939987813766779 -0.0011684308195408447 -0.0012823953951673487 -0.0029727255548036243 -0.0017386502093974555 -0.0009653666511084359 -0.0012219027393031087 -0.0016486385380371893 0.001859681802751226 0.002228490318920165 -0.003278471869211789 -0.0029974081196755347 0.005164884290721722 -0.0029803170812603245 -0.0040950512889935285 -0.008616132850960065 -0.01018592593124707 -0.0056172162652543475 0.0017748106301733134 -0.0014492898049478528 -0.0005008062708094066 -0.0013802141759994102 0.009574759395198577 -0.0018340787867642944 0.007913717592045615 1.894684324374879e-16 0.003311230358198111 -0.009231939038108134 -0.006960685378710636 -0.0004745047758907272 -0.006177717876013199 0.004117378356776685 -0.006688512466717733 -0.0037596198727025782 0.016341333001763533 -0.014114424495152449 0.005140507740690903 0.003828096285578231 0.01820861382436945 0.0018341388035262153 -0.014041651032000894 -0.006291643327252263 -0.004869259706559946 0.008502051437437555 0.0018475405533184446 0.0027738668261476068 0.014243655734108218 0.00400036682149051 0.0001098778267046526 -0.004964103872990676 0.003603878511614857 0.01584151867921093 -0.002901603657690763 0.01473321761704947 0.0009108881826624889 0.0004631665136137286 -0.004038592123011133 -0.0036072637943642656 -0.004636033694675863 0.0035936450636613083 0.004205383936937617 -0.005684202786374359 -0.02215921724475167 -0.0018748786328777335 0.00817742911349514 0.0021414653743551003 0.0015853635562443136 0.009907473241622273 -0.0043193089640630134 0.011908202085694562 0.006547190305750646 -0.011440928439802241 0.0030354760736437535 -0.0012954938447917003 -0.007399049943627404 -0.0020614330493117857 -0.015309982757152996 0.0017661646328103137 0.01758988797559175 0.0020028908688243608 -0.006950129527438947 -0.008922262241843776 -0.02427356107231588 -0.01779475647436999 -0.005975810470425009 -0.010112569298677302 0.004545144472587484 0.0031915233685033927 0.002727094897454662 -0.0025079706102853617 -0.00018110417050083705 6.677797956990761e-05 0.011181254036897915 -0.0053436112379050904 0.014351871643707124 0.002352899913513009 -0.003968758959928038 -0.02246721515769969 0.018091703602697098 -0.0029681704469294414 0.008433087049634117 0.01466394896889471 0.02412706649103056 0.008509933496757533 0.012154149636503015 0.017780324536709396
10096 0.00012057171735146207 0.00033648544471086403 0.00030943042754564046 -0.0010919443566658707 0.0017017710405750155 0.0023771530060061386 -0.00027441192511268265 0.0009148025675970459 -0.0017032171130203337 0.0008854195179663901 -0.00010901693420439982 0.0006044369241157995 -0.0002004164619268172 0.00012670401082564311 -0.0005176227228769557 0.004258504222563444 0.002229056905870517 0.008696965988573398 0.001511691469839751 -0.0006423666736055829 0.009241021300179886 0.011473859520013332 0.004930810617671848 -0.003914453455945734 0.0038020072178388685 -0.0002542495196545359 -0.004588013971968254 -0.0040324352582956115 -0.00488047805210785 -0.001492925779090281 -0.006235609281983419 0.006722618312877251 0.002218714169933006 -0.0028826452393349565 0.006687170513556073 0.006776648101088485 0.0023885819841943413 -0.0034596073926454265 0.002127602512464121 -0.0013667497866376305 0.004712662483280363 0.00659951138714618 0.001045139337859069 -0.0035519775008830377 -0.0013728898593195723 0.0029625924175815466 -0.005105534726714832 6.728697332446511e-16 0.013285160958855185 -0.005214534395082007 -0.002432326242083325 -0.008652503388071681 -0.0021623056166162223 -0.0048888205900949975 0.0030051632988159693 -0.005306308569956672 0.008375589431200285 -0.0075995618046376286 0.0089621838736141 0.005651798619403386 -0.007479858499187558 0.009025665513301327 -0.0056732578206829835 -0.00023253580310127601 0.0029759495992729298 0.008957584797873301 0.0015888457370991746 -0.009805296843026957 0.010060611669114034 0.008480339635444294 -0.0043681890705236205 -0.0012885768172146263 -0.0033780100298554908 0.011591765000828796 -0.0021529828735690495 0.006455283602531299 -0.003483226464146568 0.022694288421051114 -0.004817476311637673 -0.0041256470632141905 -0.001752041680447521 -2.7164566863653375e-05 0.007171461151866731 0.010421075399133362 -0.004265308624611849 0.009154813258387958 0.0022857333057315836 -0.009401773356484722 0.015193620830509886 0.00175728644282911 -0.013566431647061263 0.0033743227782977794 0.0020005825697025624 -0.0230530168742496 0.004461237913623914 0.013370295514603553 0.011474673497725152 0.0031945370965292814 -0.031855077754456215 0.008172492174799427 -0.002138446624474803 0.015596483924307016 -0.014633922202871602 -0.040451782002074936 0.0064506011813343775 0.005783758674297648 0.008155621885309858 -0.007270339762840199 -0.0017076755532176313 0.006897404867476055 -0.008793576813055355 0.008590659499203533 -0.02547686153367492 0.010432528202550782 0.0026117598821040547 0.03475001908595392 0.015230911112694794 -0.0034896085752497774 -0.0015354183866835448 -0.029485552615760538 0.020514046690550344 0.023649523391632097 0.00779350420360408 0.010019455303987004 0.004627987193151663 0.01013453737717746 0.021617963606267623 0.007040712909200023
9790 0.00014712762015981656 0.00038540064892112017 0.0008509725019060392 0.0007883399191027869 0.005486418988375446 -0.0029188047008135353 0.0004227873605334737 -0.014211899449232283 -0.002001123387042539 0.00022240522957531135 0.0012867001653110186 -0.0007920003265478648 -0.0011794214866349942 0.0005689549571785734 -0.0008823453200847443 0.0006762910392959786 0.00076671461473318 0.0016411196041156485 0.0033764360370245306 0.00210456068283407 0.0008599318779493966 -0.0006215650673119318 -0.0018762803153504106 -0.003568457795276165 0.0031564443977064186 -0.0029469298663768128 -0.0026712036340291487 0.00046198585172178516 0.003150294826973372 0.002349648456450124 0.010092570020921067 0.005197030603190543 -0.003881985015897128 -0.004366039626598784 0.0018260402854100334 -0.0048174673393762725 0.0028218436482349983 -0.00678894498400853 0.006291851664009947 0.0019287137999514379 -0.001723928433259218 -0.001134679217845824 0.002993749046905625 0.0005967003566247136 -0.0008670512899458904 0.003615971057240288 -0.004626662933861485 3.475575539761787e-16 -0.0010645841056890995 -0.004696206271459668 -0.010049306672334302 0.004200782646582254 -0.008670609248595794 -0.000723705443713902 -0.006969161595154204 0.004549770492383013 -0.003305091664698573 -0.007850434130074054 -0.019062246801788092 -0.003772402188214016 -0.0010405694236153692 -0.0004632327023911271 -0.002036841430936624 -0.00342830137509811 0.021739942682399805 0.004402659025785383 0.0050454673365899 -0.014689707362079894 0.009491949961292863 0.014638803629568936 0.005711501129589138 0.0015650987822863052 -0.0033078665632507776 -0.023147994971103626 -0.006221018356061569 -0.004484721454050796 0.010691061326678334 0.000627340873729714 0.008942533657893907 -0.030427344223670917 -0.01261677364118844 0.002851521626022521 0.008911574161416904 0.01384406842187242 0.013572659628105013 -0.0027430483045128937 0.009285508378727434 0.015798289204393624 -0.011640623659324832 -0.009510974623936663 -0.013027163113425949 0.008170790811161451 0.002079461534847973 -0.00585747654712384 -0.012918550275240463 0.0003673659241563129 -0.0019510364386630195 -0.012507347039770005 0.0036424481553980702 0.006988243179551034 -0.005181864987239108 -0.03823061357204232 -0.013848350120515654 0.018349426215379053 0.0011653606954568107 0.01423739069776549 -0.01876276794147364 0.011470882303541685 0.008675284869434792 0.01518778427071443 0.01644716268816171 -0.02098581326262408 -0.011299877191567302 0.01420339350297869 -0.02282686695239008 0.023421163076945195 -0.012094342658291873 -0.02228447518370466 -0.004652896600696638 0.0034695995227467234 -0.010884784927892884 -0.023070234508627184 -0.00771795637388087 -0.003530953227004398 0.019841803674011404 -0.004864553218231661 0.003057617817801797 -0.008287299379359977
9723 0.00015947448032689802 0.0009925867950404462 0.000727962700254085 -0.0008162546270932164 0.004227956262147708 -0.0001464086790169617 -0.001352834856024943 0.002225319462101188 -0.0041702433058703045 0.0013053083077139713 0.0005109778825230974 0.0003902753881701334 -0.003146801593776029 0.0027461575873458295 -0.006970385729413898 0.010022192566382218 0.0008437808972949812 0.00584824746511428 -0.004007711356489381 -0.0027082880413167435 0.011313045882387202 0.008294719039952377 0.0035203508006549054 0.009128067619404141 -0.007462563893213208 0.002366717246340798 0.004513161104915683 0.005094911266474447 -0.009985436620169886 -0.008895344086574448 -0.0004265189691530694 0.004409722951527966 0.005213926779599185 -0.008131542596702549 0.005504142360876635 -0.009358544031007273 -0.003051059535839563 -0.0012807803003519024 -0.014940697660505946 0.007200166634472379 -0.0060908830075926635 0.00648000907619006 -0.010029206023608746 -0.004131284993608233 0.01507164658803958 0.00592180497417273 -0.009376567731591335 1.1275377000691537e-15 0.0008272769105235142 -0.0076656872644964005 -0.006153952172817724 -0.004702934640914955 -0.006811467197741002 0.0036344139036794264 0.0005802194631994236 -0.01053570291137268 0.005334690615489815 -0.0022112920138274675 -0.0015770451645478291 0.017663620735908204 -0.00336576243700591 0.004662185029330528 0.0013291549251818122 -0.0054771451152145715 -0.01783069103462347 0.004274282467251361 0.0012741412856262084 -0.009803433045432387 0.013298655246950031 -0.00015360699226718184 0.02243251999630663 0.003577991785680717 0.0035829494157175786 0.0028610361082307603 0.015104285100545255 0.021242583811687612 -0.016312437142192607 -0.001739994630879965 0.015033693645935686 -0.0014136858638002143 -0.01646529843358991 0.017762873436939046 -0.0063073633247068646 -0.0010304300865144746 -0.029910845074462858 0.01267588667429473 0.014293224114900582 -0.007525238810836863 -0.02481890872168077 -0.004047595475884843 -0.008846202550107981 0.01399707909805802 -0.009743658429163554 -0.0008590062937248465 -0.010514792085599226 -0.00632275507703766 -0.013792217215526916 0.0018592060896613584 -0.004266479226630014 0.005503886194829508 0.013859633758539686 0.008338854772951357 -0.001593148048188989 -0.0006767551238338145 -0.016222422512692125 -0.033826423136558745 -0.025686839653771977 0.03835212654889598 -0.029704639810183318 0.010464864904966687 -0.02528647724988875 -0.019989564892275963 -0.0011722275703138043 -0.004220904031374957 0.03160085854652242 -0.008498846744580594 -0.0007547944707576355 0.006985050336997557 -0.0026805220775121727 -0.013732559058017632 0.02409255883059627 -0.01420949760437732 0.0027379463199437167 0.012096947104206793 0.0270949318125997 0.002888110275223487 -0.011877432672200434 -0.024826645052741368
9724 0.00017494302019055013 0.0010409209446209787 9.001721251467857e-05 -0.0013212903937676727 0.003824292726883615 -0.0005949621970361598 -0.0017878216758416185 0.0022790681413458985 -0.006656272503909408 0.0007077270067482425 0.001746741802896974 -0.00018212602187933277 -0.0027787275031529754 0.0032244072220340143 -0.00958729881091068 0.010985940115356049 0.0004917433796791983 0.007998052446706708 -0.003794120542306786 -0.0016893574723381322 0.012227001610067003 0.01060179058428021 0.002622504616740202 0.008931156182971618 -0.005408594853427639 0.00046524246714980814 -0.0024358911285939098 0.0022390486513949068 -0.01120129337741926 -0.006630794169591058 -0.003080143104674593 0.006391218515117942 0.004728993655422883 -0.010412797647066608 0.004100836517329044 -0.00714831784774016 -0.00644359327067899 -0.004277207104599185 -0.015011197254714045 0.0058695925663268846 -0.0035529005156531733 0.007255742066232208 -0.00983126199272713 -0.0016344954467423563 0.015033308470575485 0.006432935569377125 -0.006200843285016182 8.959867129281154e-16 0.01220764549197682 -0.007149560709573859 0.009168700172402304 -0.0025814610805712473 -0.008517097323939442 0.006796908341682174 -0.005241103129993197 -0.013885793654210336 0.0043461431600313035 0.0035412565211315533 0.001983120469301751 0.010290702335056728 -0.0006508025440677097 0.011062041514992715 0.013028709205489002 -0.006587757099544343 -0.014125287880321793 0.0174783334224824 0.008856775084082988 -0.005053019129107022 0.011134779906544745 0.007678676119533355 0.0238124917216857 0.003682131640930686 -0.0022814664828659176 0.007482241427127069 0.007658975746310481 0.0106682354642834 -0.019137309980199496 0.004614268658955723 -0.00039718503735085406 -0.0013800362384183658 -0.02356847351005716 0.011286944887982084 0.004115975252018458 0.008983444543160307 -0.015072142505473656 0.01381960509384295 0.025030288223320766 -0.0027052721317387817 -0.016133356534454836 -0.006585323415206353 5.7062482970852476e-05 0.01711901588996917 -0.0018736708656064594 -0.008272041895664488 -0.01813043989784559 -0.011712845050740132 0.0016798261745994076 0.0018161417024787883 0.0009465966092185521 -0.0031795065661787327 0.00237792172441932 0.017894886690933046 -0.0018473797205072506 -0.005817700820285519 -0.0020746030648872765 -0.05020720974240823 -0.017791783098685607 0.013512452935330644 -0.028039913071236575 -0.0006425902239059527 -0.019898270401539752 -0.02159014455991079 -0.007150800023001961 -0.0009655911729089258 0.011986931748341971 -0.007890136792853995 0.002046380811433676 0.0030678387103621257 -0.010016320201297387 -0.01616578729463177 0.01489966761991931 -0.01428979080751484 0.00704895964816494 0.027013130968739113 0.02092242554677851 0.009630918074440338 -0.017288339542042466 -0.02255921299894333
9469 0.00017665825876188093 0.0009508538144602241 0.0009368699517909074 0.0012915471088373938 0.00449062025698313 -0.005873131760827758 -0.00022135727538374116 0.0008891360814131858 -0.001947339888998976 -0.00362071735606754 0.0017582380365873712 -0.0013395284059274702 -0.000773656022297412 -0.0002730791562757849 0.004886811152293657 -0.0038035474891528085 -0.0006098507389271066 -0.0028413563318079927 0.005898925913576808 -0.0028193697653797357 -0.00619471843268 -0.009928149658604531 -0.0034469749657411895 -0.0009504379816801243 0.009470554874020673 -8.358387880324808e-05 -0.001143852080772612 0.00032493687615894575 0.0005858775756374615 0.006140148940662282 0.009943504190880498 -0.0033247769142926674 -0.007200366590056188 0.005862013126936326 -0.0008749693459307634 -0.007236901209947749 0.0015016068425395995 -0.0035804798989438054 0.004467257397893014 0.0026900079246043197 -0.0019364611704142819 -0.0007525814913860218 0.004232277129251319 0.0036858575336453725 -0.00624950034081568 -0.0024669256719044986 -0.004549340205789562 8.74967330700474e-16 -0.010782215861181577 0.010205153255123108 -0.00251469539249559 0.002479476966664967 -0.0079698948609483 -0.009678753471481574 -0.011183768310277339 0.001010923952934857 -0.01540760195862077 -0.0007825045367714866 -0.0025210222774945668 0.026583100987701967 -0.018024144467667202 -0.005286814442616313 -0.0180589105824537 -0.007172753000511491 0.007221080141353683 0.002803368933556857 0.0020660604328743967 0.0006765833029483 0.00041932426423860067 0.01689106523823328 0.006796728067891171 -0.025577049258569 -0.0007926866708838665 -0.029641822250946127 0.008232828553344132 -0.0032232701760253877 0.0035965771793543037 0.022574373124629933 0.012238410994508734 -0.006892726662953489 -0.033385667207115784 -0.027854742993302272 -0.011537508119836516 0.02133018373463665 0.03547410876125954 -0.005334001379818985 -0.031652725323049004 0.020900365280180067 0.007780301119335133 0.01087981855897724 0.003761766062058351 -0.009211214072276137 0.0018444719705410085 4.366362631372547e-05 0.01614461522398595 -0.005575943382795419 -0.01057945853727488 0.023504041961246582 -0.0005205573330922911 -0.0011778792831570642 0.007594083717505093 0.03335031550368948 0.0265534669046634 -0.00304011645983935 -0.020250502150493368 -0.020321840952505325 -0.004610118837446766 0.022536569450559072 0.010150942208619748 -0.0014362790141098467 -0.00944031341508401 0.015906888994048417 -0.018961057072672382 0.0023063642000111626 -0.01528443971671586 0.004670016527855012 -0.011937468743501082 -0.006968410955584912 0.013859703838916625 -0.011082540331475078 -0.02030777986141838 -0.013507986326305553 0.00174103449661135 -0.005361875582484173 -0.014779597149233738 -0.020669321401005965 -0.0008754990036388878 0.01563101489327506
9726 0.00016644212780611166 0.0007189300508228777 0.0009104224160283717 -0.00027811620740385144 0.0014935862789044875 -0.005199478310107014 0.0004932676458165533 -0.00011545980257621018 -0.004581830937664909 -0.0008016799187709695 0.0029356975951561606 0.001957123650701945 0.00041544415085145503 0.005169862211361814 0.0005157355629157506 0.0007366925368454326 0.0014545971710251398 0.000242106438795422 -0.004280042182296036 0.0033346317946099597 0.0064787649564227836 0.0018458929430616817 -0.011300948060907865 0.005481710008500891 -0.009076837995235922 0.004643327358473724 -0.004331024449503184 0.003606759338452383 -0.005745322135056868 -0.005467612833778226 -0.006605414376991893 -0.0001085943937903468 0.004206085003547386 -0.009230411078925098 -0.0015076715752612715 -0.0035027199450238266 -0.0025141688251217546 -0.0019790218115054454 -0.005490928222535018 -0.0005659910463820604 -0.0046362780177246895 0.00018234870823435065 -0.0005014798695382709 0.0029201639153630067 0.004109957855403251 0.01637411843247022 0.0008825887076499574 3.953650395761063e-16 -0.002216966975039547 -0.006613730625398846 -0.0005564418766007938 -0.010433733401996161 -0.007406738112876844 -0.0023581205929650703 0.008292528906077514 -0.001826605472415616 0.012228423901501412 -0.001752309699433135 -0.018812137004644874 0.005290482789427834 0.010280075578946453 0.005048548456043044 0.02873327649961422 -0.005930205343772415 -0.005357330562087125 -0.0018761724302987512 0.015123747733704163 -0.015907416103954027 0.004291086759359798 0.02088969455029895 0.021896605541227788 -0.015680769152413614 -0.004020536223658817 0.006609476496192125 0.004862794140278463 0.012571298711709289 -0.015766198140415712 -0.010149597497397843 0.0027600335566926315 -0.004272371549589654 -0.015880451547851886 -0.0033837237417695203 0.013342838889575428 0.018674010120032804 -0.02260817424476241 0.01356167502411218 0.027142118320931417 -0.010011059205156632 -0.03519304758683809 0.023318879492904492 -0.01061903311068451 4.753704814095798e-05 -0.01336987840053888 -0.007469733395967899 -0.040048857244377324 0.007153773623950513 -0.00011567447358222329 -0.014030090933574033 0.005414138536409239 0.008701335183105788 0.012369001040620118 0.007495055271684634 -0.01239288832696485 -0.010393200854451948 -0.047396509669739344 -0.026073143305735215 -0.007811413514184665 0.0004988358570287633 -0.011379988995922059 0.0033564488311151916 -0.01550500921246676 0.012636631974868981 -0.007071189220315447 -0.01321744827022224 0.00893344596712645 0.010830898383052547 -0.02285426024312085 -0.006188233102906667 0.0046989106708786 0.004257608093480042 -0.009707528026301003 0.012973517917464024 0.004043576717223495 0.001979591728455987 0.005857244652750836 0.004992998586047819 -0.004410078266821918 -0.03632227858799713
9727 -4.829983879169485e-06 0.0006331804316143057 3.319102928386841e-05 0.00041387261806010274 0.002795703345084069 -0.0021853563546293 0.00041682700215143976 0.00022299021029343675 -0.0017750354030665126 6.057043373941092e-05 0.0007162216892396383 -0.0008674837804459214 -0.00024823735020165386 0.0016804790887736804 -0.0043249492727267976 0.004679867315971345 -0.0002741368345745625 0.000639327567766312 0.0024856214423377826 0.0011633678089982991 0.005526531734665984 0.006197051673551811 0.0020718445695276934 -0.006312179459116729 -0.0029446099929525413 -0.0015391651844195813 -0.00483266671488766 -0.0010198648673072066 0.003215387355756328 -0.001843189837896414 -0.006629066844763322 -0.00025052515001605105 -0.0010962623922362192 0.0025644800766281314 0.0003245000301722908 -0.003738716016521281 -0.0003851921304189583 -0.0008627373727484028 0.004904466631550291 0.004265099124231477 -0.0011341566077284263 -0.0008619863732752951 -0.0007980119860619589 -0.0029803951162474755 -0.0011137747705060258 0.001106145302238787 -0.005238967655503266 7.841416583301921e-16 0.0004967511113397666 0.003107991292916701 0.004061210221126765 -0.008001021121409366 -0.007680392192281803 -0.0011348147831419548 -0.0079831954878838 -0.005377574488340448 -0.002945776885923729 -0.008600706476778118 -0.003203583612840918 0.007070761674378501 0.001383573649512456 -0.0052182387654663084 -0.006512596767592199 -0.001716779643166338 0.0016039953297571497 -0.0025732877869836675 -0.0031455882058894695 -0.007348577206200328 0.0022645558816278616 0.010593439846910068 0.0024489894782496547 -0.009706376752647036 -0.0026565873009102466 -0.0063979406565852805 -0.005241796371981957 0.0032126679229907223 -0.01562819647290413 -0.006666093677430945 -0.007370261381766454 -0.00793956148787821 -0.0065815439027209835 -0.008213225124411413 -0.001491417774539224 0.009761880419446405 0.0028345437740450634 -0.006881822179990545 0.017556503970893207 0.010214242073521066 -0.014496580034281496 0.0040225370984310165 -0.002198785272087381 0.0022372979690505274 -0.0013892380955608595 -0.0008300736623250247 0.0012040766409367628 0.007382116342327596 -0.003718087588946498 -0.010586728226125542 -0.009668468983704024 0.01619152543512322 0.007674670239363169 0.009049932478377806 -0.006692847706572911 -0.0019448571988148898 -0.00866892234022034 -0.018533412302452937 -0.015362415437072644 -0.0014035224297355934 -0.016258202871749908 -0.00466628568542813 -0.0022617708430820093 0.01009756170744673 -0.013256396200384168 0.011915029211245721 -0.009963608033169112 -0.0032424970085593733 -0.00861503037720975 0.00044546818052243616 -0.004023411171087756 0.003413195950605922 -0.005200839043253792 -0.0058528111592255645 0.011006685017350283 -0.011875540001209085 -0.01356344777117246 -0.0030460120600702793 0.0023099506247904887 -0.006677283984523885
