591 128
14515 0.00017047859693686097 -1.9139390889448703e-05 -0.15997104203693385 -0.0007217240509777635 0.0003063346357825167 0.003890420685582641 -0.0002946060831030607 -0.007389379767145501 -0.0038296215214832087 -0.001519411838284586 0.0006528526923443951 -0.00012990180406363021 -0.0012236198321977144 -0.0023329096294172906 -0.0008869750251637201 0.001289088292564652 0.0030456898155811376 -0.005687411889591631 0.0014677373914821097 0.0032740568608472303 0.0001978905862586981 0.0046833801405162506 -0.0006792243560632793 -0.0027444685550910937 -0.0043501953709443215 -0.0005495645984162667 0.0005137586187566435 0.0001767506445267432 -0.0012649233680550127 -0.0012968316754954701 0.002887228725177109 -0.00013955322623437842 -0.0011614698779352484 -0.002273499210185196 -0.0034997256385426658 -0.0020960437267342653 -0.004974913139021713 -0.0011041917289062568 0.0014575708131808745 0.002031989774389589 0.0006829771567524281 -0.0011796347464881943 0.0011194116360684141 -0.00019821023515176488 0.0025943809591163713 0.0007963173658281389 -0.0012527131458342103 -0.001136663561156356 0.0024576619884377096 6.145559669604917e-17 0.000984131971198158 0.004140910201461897 -9.265274431757693e-05 0.0007666442685517767 -0.000356776051916655 0.003389652493194306 0.0030135588470438946 -0.000111574737059726 -0.0015917152894683192 -0.001592394693564895 0.0016397731993019026 -0.0002069231685196065 0.003304323741644934 8.177698549204719e-05 -0.0018851710847413155 -0.0007256546306279536 -0.0007146753007577551 0.0003356452059386824 -0.004582867064081403 -0.0007930389861089405 -0.0035199439820208273 0.000709178292998374 0.0002894785210005223 -0.0011560165709746442 0.004201173477358999 -0.0022358540786134294 -0.0004506498996341975 -0.0011057678737383578 0.003305927680004617 -0.003792022738613257 -0.0022473812832346355 0.001873675802439985 0.0020843290129986592 0.0029909285765763625 -0.0011528328319794807 -0.0004583302536749302 -0.006993526257072872 0.004526599449996938 -0.0018260110529865418 -0.0011708051176780412 -0.0048236527208456205 -0.0006434652023018905 0.001633750481385171 -0.001247082749576478 0.00428111730057937 0.004459197346751616 -0.009399027583997367 0.0021242482830419263 0.0038243655743903904 -0.004887003945311326 -0.001845624300432814 0.00045762372224418985 0.0008290015213349779 -0.006770087421474332 -0.006117617936251582 0.0017920374020275267 -0.0025183646987714478 0.002499847627931183 0.0010896311806874663 0.001994709753331593 0.00045473547184310767 -0.0037415131056209544 -0.006564488185480037 -0.002118358407400933 -0.002326833233018646 0.004522264016181952 -0.0011423098759032236 0.008181580738680808 -0.0051221091177291785 0.0003396197059870933 0.007804629862946364 0.0056167625694434386 -0.002089469317919824 0.0005711930014039743 -0.002375601180922157 -0.0037034247337564847 -0.003085944375906417 0.004494068075130643
15113 0.00014490932923474852 -1.595781079450608e-05 -0.09952882502855293 -0.00040689902912084425 0.0001495808358535338 0.0017605173435559724 -0.00012492136914004005 -0.0027874028630562567 -0.0014123152826347395 -0.0005103426404735794 0.00020960848461429175 -4.03223994033996e-05 -0.0003566269299601399 -0.0006609802564052976 -0.00025018246074285565 0.00034820158160720616 0.0007814339369145292 -0.0013619850429048425 0.0003461470246098944 0.0007587861736335635 4.180821023974945e-05 0.000953629015197586 -0.00012887135893342226 -0.0004913921934335321 -0.0007303968494593554 -8.86555596918357e-05 7.046636355133399e-05 2.267258810227759e-05 -0.00015604640591594998 -0.00015162382186965248 0.0003353966704232102 -1.541894111358841e-05 -0.00011327108733790612 -0.00021278217277897985 -0.00028683521792032186 -0.00015015854954252478 -0.00035242261016280697 -6.769565987639613e-05 7.983245049488146e-05 0.00010597234666264941 3.322573651492169e-05 -4.9588665521319945e-05 4.6150571824595314e-05 -6.233080965677125e-06 7.583202947871721e-05 1.711403798245478e-05 -2.465430811595718e-05 -1.1626287848409393e-05 1.9792574787630076e-05 3.064223578927125e-17 -6.277970731849688e-06 -3.785278410003646e-05 1.55016225365849e-06 -2.0705686399801156e-05 1.0749096922776564e-05 -0.00016830256629721716 -0.0001557543914041974 6.942323081280993e-06 0.00010179067314374296 0.00011053413417468896 -0.0001188476634042462 1.770269902021482e-05 -0.0003038018616861004 -7.66110130557296e-06 0.00018811400039304787 7.405337495809081e-05 7.542493914688996e-05 -3.9318076098469166e-05 0.0005495169995781251 9.924655397528689e-05 0.0004431717314324749 -9.72002458223188e-05 -4.041699411169545e-05 0.00016501291783503863 -0.0006357019196390988 0.00034796833836967114 7.072176349732987e-05 0.0001864862066339127 -0.000588131476194394 0.0006922856412313305 0.0004194572908936157 -0.00036566260010004897 -0.00041329935982294255 -0.0006203110579666773 0.00024662286560448024 9.93238272483563e-05 0.00154026955555029 -0.0010206329757346012 0.0004205415726237392 0.00027798707426851613 0.0011548251872108013 0.00015589052259721369 -0.0004059106461746715 0.00031182843560754233 -0.0010943548209977898 -0.0011838725309061605 0.0025047000146465165 -0.0005696722942800734 -0.0010781342408189795 0.0013835712074196352 0.000525809017116269 -0.0001317315449688293 -0.00023983556172883612 0.0020005904097495837 0.00182835348961954 -0.0005487850167967091 0.0007775370299616272 -0.0007832857449480793 -0.0003460216568970796 -0.0006378938574315177 -0.00014742194216094018 0.0012267197523432307 0.0021681897730452377 0.0007073875183745317 0.0007937875419248978 -0.0015530947928282077 0.0003994581271770196 -0.0028965801002731957 0.0018450670156417849 -0.00012389119940496595 -0.00286987393089365 -0.0020823391163233384 0.0007819580415550726 -0.00021707603439973612 0.000910176115801259 0.0014244750478566237 0.001199017175281393 -0.0017759202970636016
14516 0.00025250592590513174 0.00020773423167883386 2.90378256604661e-06 -0.000802450538449433 -0.0019135240211773307 -0.01829075409118673 -0.0012822942018575463 0.004664295777596359 0.01140296135001049 -0.002108658463535772 -0.00823901136126218 0.01123130757284511 -0.0035596202799949486 0.006168770505827906 0.01046808490145599 -0.02108371629138174 -0.017821301875612237 0.04321376254920383 0.0064518143532496285 -0.0005525807678341125 0.017599671753672472 -0.02648217200225362 -0.06876248989919603 -0.09964509771230078 -0.06552525339609282 -0.03827033842370623 0.018485553818037046 0.008035064983009077 0.020717476192669646 0.014931257985162767 -0.0023786934435673195 0.006478555628285836 -0.006172965737144204 0.007787199018956019 -0.0008096103903455086 0.0002772520744462201 -0.003745186755354925 -0.003242111487178064 -0.0019822232406767988 -0.0010969430633679946 0.0008964725112810204 0.00013215891681486202 -0.00046289900155623795 0.0004221408710148377 0.0030861955937214916 0.001263159906048427 0.0009172477175305528 0.0002569938931432508 0.0005017438668989079 2.1135550372009773e-16 -0.00011929809561287468 0.0001977274917800108 -0.0011152551271799704 0.001616290085635266 0.0017496685956377997 0.0010432871659168726 0.0009519858361150775 0.002392768828094225 0.0032301186281939115 0.0007825704002795611 0.0015995495654421927 -0.0004969579008839796 0.0004013334821847953 0.0016291999404915952 0.004463416537628429 0.001935817398758093 0.0017406451613054179 0.002274253409340721 0.0032546615023242016 -0.00018403376915940807 0.0037303850306237537 0.0032943957005359026 -0.0033527765528353235 0.0029479467390147924 -0.00016352824886759417 -0.0005724997257308067 0.0015865712574563177 -0.003857100486762575 0.004365352905362087 0.007374205501237945 -0.001302055654301298 0.010978891223249783 -0.004041089510290695 0.0003568530823250685 -0.002361513086779338 -0.005744425529221279 -0.0020001155720511432 0.003687164354472917 -0.010227152100480441 -0.0005211681608494487 -0.005530720894817765 -0.006886243801920851 0.011515905674413606 -0.0025824111413249875 0.003048088210854938 0.02450144807405679 0.00664567452430348 -0.008156374979889995 0.011722379927560624 0.0004848624826759778 -0.0013699936208083916 0.009705138467655701 -0.0027039294805676294 -0.0019036111477781995 -0.0026850178974021834 0.011149581752312444 0.009572032776359264 0.006280161363036184 0.01271518812624995 0.0012577275564217589 0.0032761008079640213 -0.0031152022649363286 -0.007723223747942858 -0.0032759848475549624 -0.005158506580845586 -0.00844622924851084 0.004503150742747289 0.0096264031899015 -0.005707768737059404 -0.0030674681329125844 -0.0021855151641410656 0.0007174780565298181 -0.021432981560744732 -0.0035355562204129284 -0.002541848493257374 -0.009571895114444312 0.006092292093333119 -0.002362560768032215
14658 0.0004638724813211186 0.0003887662114560103 -0.00010926396113756835 -0.001129241941403635 -0.0016396030833897358 -0.017440201460645115 -0.0015630616221931958 0.006212731466107731 0.020948194082316733 0.005267761394460455 -0.006047405682636785 -0.0003461212824638402 -0.0038172577671261223 0.002260242724163568 0.00491668512620369 -0.0020973505706837025 -0.010755735481557973 0.020688219445078204 -0.003721635220440725 -0.006153000599117059 0.003213603044476892 -0.01977597415599801 -0.017802546734861008 -0.007299120674154379 0.007431378089956309 0.006920930874487782 -0.006948237160247519 0.00931215847983143 -0.012108783129573883 -0.021208751678531337 -0.0015961932246489289 -0.002665594692858838 0.006065733160668331 0.007758480191322312 0.008021048891902414 -1.760918346107336e-05 0.01513767615343028 0.003851858888931369 -0.00305832880355733 -0.004338908856699564 -0.010914335917236591 -0.004543664594605529 0.004909903943455973 -0.0015754235822147186 -0.032553774385063274 -0.005338839827091107 -0.0067491124010121 -0.013828352504246471 -0.017490042453275845 5.404889002590937e-16 -0.001338157376955826 -0.0013291810190257905 -0.013132477754301451 0.01872316021021013 0.0061819000468742264 0.004024106543365788 0.009855844928481364 0.01461630761064294 -0.0010299539964199174 0.0034271454111828906 0.005056608283091329 -0.013834914946446371 0.0067624954551425065 0.004434933886546489 -0.005357241445856938 -0.008334349890940297 0.011596605289979502 -0.007402920138507713 0.010202917355375785 -0.0022690923502288805 0.023474473294083763 -0.0006536703697849794 -0.009957978928896155 0.0005787692375861873 -0.014083084676706926 -0.0072811422521256415 0.009444367605251072 -0.017698769058243607 -0.003406157390232996 0.010542028813338152 -0.018156498612972936 0.013085076493283854 -0.001395952762090067 0.00673881728128348 0.021215614199020003 0.010247052086736657 0.011376262173195727 0.023784355802334237 -0.021280152368235036 -0.019882691798698494 0.01377343067069003 -0.02234818821871506 0.00884502569533071 0.009927897676531926 0.0006012923668188863 0.04535842955980644 -0.01442362802404755 -0.009785888616503086 0.0016599266102308497 0.008349395636612623 -0.003161245968462668 0.014325437590971074 -0.009900642598671522 -0.012221862302813032 -0.006652370647993935 0.012874924901587238 0.027658883789044214 -0.0001288657162983023 0.004804478678510042 -0.002804075845790716 -0.012760847797421487 0.018618989545809785 -0.005291179195529655 0.006288508853983834 0.005689394530484638 -0.023130115220077272 -0.0013268031336221024 -0.0006454306766219153 0.006501363061036802 -0.022236177971879153 -0.0016912161588469924 0.0016036560863832495 -0.007457595133083689 -0.012000702141542552 -0.040072293030914 -0.005025978743591278 -0.0027817864303992246 0.03266054049014037
14691 0.000600317028511374 0.0004994197803689475 0.00010217358310684056 -0.001787602461225129 0.0005281705319231682 -0.00871460224176492 -0.0008987243545802933 0.0027235963392431657 0.023287112058953317 0.010068184654352438 -0.0077500722355237925 0.004535664307166217 -0.004018836571141068 0.011831787337166461 0.00835247047617023 -0.005968553653403288 -0.004283299460683519 0.018632274253264105 -0.005592500494202922 -0.010494904035744528 0.01328655509456901 -0.013571303426582039 -0.009399397587576094 -0.002965141202471888 0.00706950710752914 -0.002314826126425321 -0.016250992850440852 -0.003381140052326232 -0.00900401966864145 -0.016870228205609746 -0.005103951363159522 0.0017671814623426265 0.006033917951471922 0.004561554446893518 0.003361170109507423 -0.010540030166638474 0.01295581226777792 0.0038743355195687756 -0.007501556712879324 -0.0032203732191171354 -0.015111884838624712 0.004613111639551382 0.008496156753781051 0.002789237465511844 -0.021786135711836168 -0.0031629048510738215 -0.005522637696406977 -0.014941184479170491 -0.015899208190477205 -2.8860996967063916e-16 0.0005731261207019275 0.0058723451655643705 -0.03294383444654379 0.01115215976913863 0.00829372118591059 0.012217908940532127 0.0034362609273949924 -0.0021175702435446385 0.004721667892338587 0.002641877469782399 -0.0075607864338126315 -0.013205098845901011 0.011476428749948059 0.014303232177739567 0.0160352161666459 0.002309372315855126 -0.02092685178452051 -0.00045770331655518523 0.001960877404306475 0.008043876965237742 0.01820090225560411 0.010725539014116887 -0.004495206598745297 -0.01700453848358032 0.004219249673880482 -0.0045934073683311346 0.021348730701333425 0.021788777231087974 -0.003288039734534058 0.0030652044448252437 -0.017768299131429573 0.01020977153633531 -0.021246198922510593 0.026320030647954264 -0.029260407457280986 -0.037437604596396515 -0.02064935369797702 0.004298206929435091 0.017258032167729528 0.007326906513023411 0.011332477534866143 -0.013335883974064891 0.011960101341336137 -0.008937986059588739 -0.008834059921044128 0.0074025316001046495 -0.011053985791037895 -0.008268308208921092 0.019853768992869354 -0.008705678870599481 -0.0018917942138437609 -0.01899459359452724 0.003059110660957618 -0.009358255929331386 -0.042369605549400384 -0.01821370433448627 -0.0081491722763048 0.04813073537406573 -0.03046880022334882 -0.00819514560282721 -0.023199932622657626 -0.00652786376135796 -0.011756678116127892 0.028116729821528266 -0.006710558213652068 0.0033731975544532603 0.010420754116108377 0.024624104570810098 -0.012916082028404873 -0.025204533728933266 -0.0058583926512299255 -0.02878636596623226 -0.04078944670895854 -0.06004062854409314 -0.025964555411682844 -0.008102126919131404 -0.023088884563363585 -0.01068993687863619
14825 0.0004079667670953992 0.00034001162719823983 -0.0002671614803689428 -0.0014937892171947935 -1.9189072466063405e-05 -0.008454005895584418 -0.001649583158486266 0.00431066527515237 0.019052566635426264 0.007511364443330245 -0.004701101821129518 -0.001002671220149768 -0.004566674183283543 -0.005609698857826118 0.015797102543848484 -0.003845334555080726 -0.017035346269843907 0.02880302611631602 -0.022830693108970165 -0.011778492881182873 0.016925844748633557 -0.0067408373651472705 -0.009180872939499938 -0.005467211883021828 0.006355179278670706 -0.0008612001572433577 -0.0155401114004225 -0.0051224426602627035 -0.020517272858975436 -0.005033832774971113 0.0027664662583459384 0.002226804136611159 -0.002262810370131597 0.01121981984314267 0.0027826370813690674 -0.013029170002259241 0.009082398885239698 0.0072182538142127215 -0.002888901998056545 -0.009602713718240933 -0.015468144264567874 -0.0021337617640098667 -0.006081841526938543 -0.003091500087171779 -0.040874058127964324 -0.009107314475454419 -0.001126908881070823 0.004221102251600871 -0.026001794063012534 1.295228257472778e-16 0.0075763412850457885 -0.012484093007549454 -0.02889338889912682 0.003100939262092546 -0.015779999721203742 -0.01604198578423651 -0.006336632105604996 -0.0028289257483016367 -0.004445279670160102 0.02515161220280165 0.007673281143651717 0.02092905743552787 0.026783827619396107 0.004281293138040442 0.010485248101752593 -0.008268316270846164 0.001909234950464083 -0.017415601058255934 -0.014472785320052056 -0.0037418672850123165 0.009735361917999083 -0.0071209864665217485 -0.002726586248653821 -0.011410736874017878 0.004166243189311955 -0.010775950483508443 0.00022978106093381683 0.010970948110280626 -0.008131638736351691 -0.03256637872406031 0.007752408808745678 0.03302717690318938 0.024736359200557768 0.015566068589230733 0.005381571368839584 0.0019657150013698186 -0.019909637591182888 0.021909202439893128 0.012161200889156202 0.0024356382355163447 0.04431082211398089 0.026911793873686956 0.026795578415274482 -0.0010671696216970855 -0.02256219839729916 -0.02753288188221502 -0.016664403716541407 0.0027437108705425247 0.015048542596873143 -0.0057928328808956 0.006123092705627677 -0.03711831172926451 -0.00417910297925667 0.01717863685422533 -0.0031312799726534147 0.0007481622266769057 -0.015547563861328812 -0.00187965487275007 0.027084805961478834 0.014662059039933022 -0.03669367403093546 -0.004022964683035853 0.015112776162126782 -0.012456997075611832 0.016405457421773594 0.025486274412537528 0.022819256958557493 0.021590183641524895 -0.02276724890926838 -0.026588154306024882 0.021799360295452878 0.04715188292916371 -0.0776657868816901 0.0004805068955158948 0.009472584599681108 -0.018427373261150255 -0.021832298822016677 -0.03743634711528948
14538 0.0004787394037647377 0.0004713323395527547 0.0009006758643063154 -0.0019340777107424156 -0.0016330594359265083 0.0036127132564873284 0.0017412990172567663 -0.0056368122483674375 -0.008922201609773152 -0.0048702221267506295 -0.0020796801989407675 -0.0017294118709130614 0.003997040292984827 0.006060188078178707 -0.0057867220913700975 -0.01137262948368284 -0.00010217034044124756 0.003972214978514938 0.0025822099719212768 -0.004071220247507096 0.007307818183883411 -0.003526077583147578 -0.009780716242604414 -0.018745486803835556 0.002386736532481848 0.004136227239552883 -0.0002723312232684986 0.011361118957700627 0.0020594184912653937 -0.001060481350381213 -0.010192327852935744 -0.022494846098031995 0.006677139547508466 -0.022106416453818153 0.008241527570487085 -0.013331734276805722 0.008424730201503661 -0.00428607226615016 0.03888222161780167 0.010650310236993967 0.015390950489679223 -0.026893399701545043 0.015806370855027646 -0.01669428734199123 -0.014243912951922415 -0.00302454857468916 -0.038903674546732034 0.014053872681686841 0.007389424872018983 1.9427397664592737e-15 -0.009010992614242935 0.05452275513035015 -0.013928762543297217 0.01891537165585232 0.009945038182995816 0.0629410980205305 0.04439394681277882 0.04033730992976399 -0.009572989427891561 -0.01614021719980041 0.03377334204573907 -0.007495657434384305 -0.011258797550271505 0.020189317971594917 0.03379631234870013 -0.00772318355731303 -0.0047372918938353645 0.018795376191172292 -0.02684132120499455 0.01161105559719716 -0.006139582709639878 0.0016906611129250354 -0.0014914929908128299 0.004191472326800805 -0.018659956629449994 0.009346811384471337 -0.0030812847091352008 -0.002130461497460068 0.016851846536278383 0.017844010487808246 -0.0009723897851561375 0.005286467956247149 0.00534797133982639 0.002496320484066697 -0.00805804459924967 -0.010543873484414584 -0.004131878408879819 0.006931728563364532 0.009462413667660274 0.0013430093334432479 -0.033995906798414195 0.031081924191765944 -0.0009445596826317666 -0.03821749933881398 -0.036072515037546826 0.007532447963574189 0.03709930367924238 -0.05455540282295912 0.032538462451481905 0.024799895517389935 -0.0009407934842332701 0.0268755830845749 0.018216560660595515 0.0021777315206264448 -0.03562813821862565 0.009610956004189966 -0.003270443192163542 -0.027704343101072105 0.008374114167018097 -0.00267344501865456 -0.008650243985271498 -0.013997391984245622 -0.01571596335707743 -0.0026969120540005003 -0.007125260942294429 0.006050358963084534 0.011061142081270951 -0.018551037592086754 0.006728204689315623 -0.02512053230551356 -0.0056064541412700905 -0.004184432857051755 -0.004508986702207961 0.007548487100751795 0.0015459800379215587 0.005415097084284131 -0.00801548689608281 0.008863906041024732
14668 0.000275693819585104 0.00038690155166007834 -0.0001938799147874365 -0.0014076359870036402 -0.00117304841936034 -0.020832586593413624 -0.0035901631445732765 0.00394970917288 0.018655771204572374 0.006992743153291719 -0.002953051121295463 0.0026382877314869097 -0.004119919977482757 0.006436683841715036 0.008083137099040755 -0.008568412796253429 -0.010084877010633148 0.02358994350610186 -0.0023829211221154368 -0.007181850769826213 0.0038241622555561755 -0.008249665474336584 -0.01856414088732706 -0.00853279179604752 0.012991504181682142 0.0034500234230682193 -0.008378812188478897 -8.675489646496155e-05 -0.011174553549121289 -0.013470551435114851 0.002653631999429934 -0.006397995914423045 0.009064496233197342 0.007779668396380079 0.0004278327647928412 -0.0017174919459283242 0.013310368132530169 0.004885707895920728 -0.0029431809745370276 -0.0057130772355303 -0.010149573651080391 -0.0030368596113133713 -0.009279395441487657 0.0037187197028061363 -0.024093486893218236 -0.00438624711068016 -0.0007316456471799646 -0.0033725989668748867 -0.019003300227902937 2.9509986079125873e-16 0.006033082219221903 -0.006203215628804973 -0.0107790290470026 0.012381635989424891 -0.002293364416047337 -0.0061783052584775495 -0.008714293927704064 -0.005119837646549713 0.007998968826569619 0.01078001500486033 -0.0003393662543310569 0.009821471452987751 0.0021484557733928143 0.007298023627752785 0.016341827882612934 -0.003408041642508114 0.007092518391158459 -0.003422493302033894 -0.0026488711145750033 0.004486149722422018 0.018619459783060347 0.012799125505306841 -0.002230671405215503 0.011668797309091776 0.002435386375912435 0.0014744469605000364 -0.0003071896619358869 -0.005139590241128333 0.012049473589314505 0.010398646489726632 0.004058906080255492 0.039841544178214235 0.0009187748487518005 0.0002854277161657824 -0.0050617931413530545 -0.011798803456791344 0.008447650445318628 0.008660062612589633 -0.02486483979084422 -0.0023080132923977382 -0.00525457613071822 -0.00010763526153774655 0.031441037569470885 -0.006385927589723794 0.029930264549219276 0.05333378134529786 -0.005955546181527667 -0.029549887709932544 0.018512115380975788 -0.002510372869679991 -0.012618023764142975 0.018808874619595992 0.0039336775462895405 -0.015301140462910869 -0.01331899599189062 0.026444263598334492 0.015519855345748844 0.01271983967603187 0.01708279784029006 0.012659098839503835 0.011679775108559293 -0.010741013249842996 -0.026674666133522613 -0.018965464155938506 0.0035625382992267515 -0.007453784080773539 -0.001123928510917276 0.038795390186315 -0.024014757954078574 -0.04048063234385697 -0.004779258055628676 -0.018448069962312394 -0.015626179916969924 0.026897203394026646 0.00564641654376608 -0.0008479952883772637 0.014557754525820862 0.00936019720830289
14611 0.00035756819925654014 0.00023540799328652942 1.3261396993534188e-06 0.0017066354037371752 -0.00015569771171093148 -0.01123615186568255 -0.0006228780730973767 0.009477833695060927 0.011228101089627346 -0.011806816232303499 -0.0005229607248710029 0.019865051060640213 -0.009458482319862167 0.0037550399868627074 0.0028969434652220513 -0.009701613251971249 -0.005649705216899198 0.012922638753858493 0.01556257208407907 0.003159514379032552 0.0005743296675601681 -0.005578648154438313 -0.010736206259381653 -0.015819857949824344 0.004877899468671264 -0.008843028749559653 -0.006673440485580673 -0.03743431037987511 0.012578037785518437 0.01855676290623595 -0.011786435439838854 -0.012348178394219558 -0.0027438159028468838 -0.012554068206795464 -0.016980806153309786 0.009759877153288497 -0.016421149344903848 0.01062906818082324 0.009105732713255973 0.0023618306321440442 0.028130560818313374 0.013095812804669196 -0.004123051948495616 0.011831615723053348 -0.0060409454878167495 -0.03426628294972729 0.0033949461377554852 -0.014110116805609788 -0.023240952776642856 8.331704775731645e-16 -0.010415394123573282 -0.012904740676241136 -0.019563095792331564 0.023624536308819468 0.0391219254379518 -0.008527197917481796 -0.009461989354014723 0.018060878989340987 0.014689217800938808 0.0020452041497248477 0.005085520798098418 -0.005494275269494461 0.010771243376694472 -0.006650594365395817 0.008609426927598989 0.035868283440332806 -0.017486911878454362 0.020467689116971822 0.040837702894350764 -0.008307230214223827 -0.028907540987502523 0.008175281857576858 0.011354244901250301 0.026887855926748607 0.008010088906860523 0.002617877662295213 0.01644354148747556 -0.015105181279962993 0.02436215336951523 0.025651681572768627 0.004522853478382276 0.025597802648729646 -0.02893527424985917 -0.006646328188254576 -0.02143499270173675 -0.02375399796547136 -0.01703749198969387 -0.02312124730800816 -0.041171627228024935 -0.013981885138226121 -0.030358601996358127 -0.017673338291181423 0.03388537367791949 -0.027802084488718685 0.0015015407519157285 0.037525031761564354 0.032403289947639434 0.005463624659436935 0.019250539757198763 -0.00831182725354668 0.017647748646309625 0.015889525529792864 -0.009157535123971024 -0.03210830776769269 0.0018870548959535457 -0.007921163904495486 0.03351269061436898 0.023645244015023062 -0.01563681415478867 -0.017236367834205405 0.02363664987527746 -0.04368272183078975 -0.011006618118857997 0.04060202826115834 -0.035199799464539334 0.011378998005149054 0.032520874451765595 0.0002793253338905099 0.03214171323683608 0.02660115377007236 -0.028885534987465267 -0.005257450361948475 -0.023486681807771876 -0.03616099787044428 0.025222596362698052 -0.0328425803382446 0.03472530294632206 0.006496906847925797
14934 0.0003586758194838716 0.00022749094969989902 0.0004430403772445043 -0.0007456921312718438 -0.0025952706583425513 0.0007941354685203007 0.0014842934032491422 0.0033738191355631585 0.0011426694716075044 -0.014765805878506705 -0.022779461027330777 0.012000340449346834 0.014179979385563885 0.007960295593006988 -0.01604411686808172 -0.0001743460416359315 -0.002795736496288024 0.008056259338520997 -0.00418501868916256 0.014757109945272648 0.009230410289258752 -0.012943808499191798 -0.0059327614220572806 -0.0220579101955272 -0.011762627319655126 0.0036424412145229885 -0.0008221022466908684 -0.0013390623904789658 -0.007889790160064452 -0.0037360167148820004 0.0025793835735917663 -0.0028492407712809057 0.013939550333856103 -0.03227134231229391 0.019635461960766317 -0.02827743068738943 0.010455525438763 -0.015516685139696892 0.022086037794113042 0.020066191791427365 0.007072655085738305 -0.016660419212965613 0.01876736441982233 -0.019102404376433825 -0.014104672611639701 -0.010859328270809428 -0.030119439525613925 -0.007479348457779999 0.00319085334777757 1.1633176288665885e-15 -0.0362307715166304 0.026487868666554365 -0.005267889805514209 0.007311619957642558 0.02126312448649056 0.04472869624929079 0.03392391143529225 0.03559996277295781 0.037312485951818915 -0.02317677850049704 0.009507238614231145 -0.003919317374432645 -0.001266427849921625 0.029989475393490738 0.020548933867299907 -0.045408961203399024 0.013520929526507155 0.03747417020754088 0.0069814149038236765 -0.020568013150261362 0.03286359767624654 -0.006454274604122132 -0.002834135588947579 0.008249391181463363 0.001497902239864808 -0.0031448235275353667 -0.0068077843127025564 -0.007063805671643605 -0.0034901985735751114 0.004878225440528638 0.015460555531602178 0.0002631786299042423 -0.009265539855931655 -0.022255258932840576 0.01871218069320768 -0.00020661845929584603 0.011269546483609368 -0.005790480715608536 -0.01740821558821484 0.010425462887549997 -0.002206421719444866 -0.03112275302740882 -0.003878865715076854 -0.013132649843581902 -0.018358068891832346 0.01299303023838549 0.023019404147616298 -0.0025437217215754236 0.03943345169672955 -0.01415705160834703 -0.002914910713600186 -0.01777772442370209 -0.015128084111519901 0.019893505591854186 -0.012220566079212172 0.05460893704494128 0.02528645817547777 0.04581600409027425 0.07436266728997902 -0.013826429028242875 -0.029089352550493615 0.02695974581411622 0.03413292456933884 -0.02993128290772352 -0.008046344080153691 -0.03524174336362248 -0.013430154340490363 0.0027261608860603553 -0.006615554859939619 -0.006256884964884133 0.034268493535642944 0.04329853698060591 -0.009758824098843554 0.018208580482116054 0.017913884372939885 -0.009543432463274404 0.015295853797299705 -0.027998924800438738
14713 0.00012127449247731993 0.0001017155246663232 1.9053772037319858e-06 -0.0005810682850586084 -0.0015998469611418736 -0.016501075205540203 -0.001234573719621085 0.005047992520189959 0.012623105838609486 -0.002562974396463299 -0.010476249134901432 0.014771462999298247 -0.004986093515803005 0.0088885806431407 0.015151169009984825 -0.0318656999986085 -0.028356798972145596 0.07366968270389815 0.01116847798734321 -0.0009733901545519833 0.03400889345917134 -0.05309552633815638 -0.14795607833865734 -0.22720104190593332 -0.1593246432180578 -0.09684996104911058 0.05502171229602982 0.02557252878984243 0.06856013571990047 0.052135908347628296 -0.008359596073022344 0.023938001964057855 -0.025840869500920467 0.033967627746169834 -0.004032756256973904 0.0015799722272995254 -0.021583386742548862 -0.0215891718566706 -0.014774988158084848 -0.008586920213209242 0.00752303207696763 0.0012834707642213935 -0.004583775609417441 0.005480309491132077 0.04310512321576853 0.023994759555072995 0.019026978619827512 0.01025741778744659 0.02543468159304366 -9.496450162981752e-16 0.007634699358338601 -0.008830583815864807 0.027213207494253495 -0.024431376976332842 -0.02370848964794396 -0.008578131077842678 -0.007519591322779713 -0.015699512543244816 -0.020620550189829966 -0.0046025879914842775 -0.009009801298808994 0.0023714480147488024 -0.0017820583826716598 -0.00709967800590153 -0.01826086911626859 -0.007744152177415559 -0.006733307160932906 -0.007925951652027413 -0.0110811881626156 0.0006003451375720145 -0.012095998831319775 -0.009812692915514617 0.009803503753580564 -0.008431214208527304 0.00044119872948761735 0.001501769862585995 -0.004127339123201315 0.009336897289396129 -0.010017576310126106 -0.016490173304608505 0.0028480193437605394 -0.022966602937708632 0.008320020304894395 -0.000702441798477267 0.004506586674480236 0.010821714143825507 0.0037074810874189556 -0.006676046329137999 0.018128987825992215 0.000896111932052071 0.009431177163881345 0.011604117619871523 -0.018922467161826412 0.004216278768050615 -0.004868003457486483 -0.03767626791779311 -0.010181004942908092 0.01241657271351924 -0.016975662363647344 -0.0006991721643785538 0.001963171270500877 -0.013764006048598154 0.0038155880896014174 0.0026298968103944695 0.0036676994926303835 -0.014863728886295762 -0.012656863415616572 -0.008182546702327733 -0.016346448328016152 -0.0016056180514346999 -0.004125516573446009 0.003878935314274428 0.009546113004284703 0.004005053366541222 0.0061731857230972265 0.010040265323204688 -0.005257188267432611 -0.011100437609817108 0.006468855116382633 0.003432866058481556 0.0024264295762939595 -0.0007900737021527322 0.023380807872837542 0.0037979839117717328 0.002708458174259294 0.01015946836716483 -0.0064012941112653555 0.0024407513524321777
14682 0.00032878929171722954 0.00024167994367372552 -0.0003132021527443843 -0.001051058211007253 -0.0005398825694716599 -0.012736682248548282 -0.0007668949675323439 0.0038981350831476993 0.013151289568623568 0.0027206184383219735 -0.00307240807795522 0.00770081771724553 -0.004895283099659635 0.007372380447524883 0.00860654604043039 -0.00966603198629946 -0.01044228920530384 0.024676028213647734 -0.003907168030575817 -0.005400041316938844 -0.0012631357294947759 -0.01149915923405621 -0.0203242392206752 -0.007583886208806821 0.008041877703410161 0.0025647418708160197 -0.008820081626419833 0.0015985663552258462 -0.0038802882724395657 -0.008663082843126516 0.000806961703324579 -0.0005990632306015078 0.0036454434127879743 0.01789421434145591 0.006941040606231113 0.003067908770345649 0.0027635780920120512 0.00544342452972802 -0.0054008513256563586 -0.0017106659766425612 -0.0025786278386225486 0.005009146758810551 -0.006767912906152721 0.005190986366534486 -0.010839863641278303 -0.0021986556761252186 0.003193679140247109 -0.004039789067670782 -0.008467583815390187 4.2278421596856354e-16 0.008742924177461054 -0.0051010950613619025 -0.009807906234905562 0.01668202387116899 0.014315323234482655 -0.004522482889031584 0.00031009664687949056 -0.004798905349923488 0.015280938572843867 0.006565420997094111 -0.004877980134695017 0.01007861727821506 -0.00971335894747801 -0.006103001922619371 0.022100066085981702 0.016686761163577386 0.00887431547822294 -0.0020363775311648485 0.008986294641858116 0.008943634258151693 0.010722100186604478 0.014055867520911676 -0.016696163974022724 0.008085625698967126 -0.00417360995084118 0.0063923223648079865 -0.028167151791990818 -0.030396319436342027 0.015000809383781507 0.02428861395747681 -0.014509867665989067 0.012793153729434932 -0.028473806360913886 0.0017797819244295679 -0.01667427181115862 -0.00655561463407534 0.033206154225697344 0.011587933891587437 -0.04997615825508471 0.013564629965760713 -0.029263262717252554 -0.03257015414366109 0.013961257084382632 0.02484165641975673 0.036499045549308134 0.07906636187142455 0.007397018575113514 -0.015998368568651385 0.004771948042912621 -0.0011277797883438865 0.007146995639016832 0.05933816861356442 -0.0012153038574009927 -0.011374020598227605 0.032842982935806245 0.00845546607960779 -0.012385694100968986 0.00038375627670645437 0.004871642257868593 -0.018330038051917394 0.026459229317928924 0.0013299488483607483 -0.014324893276225919 -0.014550788409967595 0.023066117835869922 0.008698286905925745 0.0030152211776554375 -0.004476877624016617 -0.005955711485599236 0.02495632527473429 -0.04944146965483428 0.003606610498111077 -0.04272461249720108 -0.005944205499554429 -0.05967094272134488 0.0011512096283828575 -0.003065947408735841 0.025046171298963013
14939 0.0004455512527913406 0.0003045300967418019 6.286951011850603e-05 -0.0014037930750563942 -0.008381709007002525 -0.07715849968934402 -0.003949855443632651 0.0003449899601622031 -0.021469461437379028 -0.009481926656692688 -0.006913005364177985 0.0113432982551415 -0.004717411773715794 -0.007152630985907553 0.021580094932057696 -0.040360329717430685 -0.010656138132320305 0.006336289742239775 0.04469245545388164 0.01783110545290364 0.0006640996257632538 0.027425780333508995 0.00969973283261618 0.00936133134829879 -0.03287933792315331 -0.0016294793964635587 0.023986537065389762 0.011219275070190101 -0.030525864116025973 -0.020473531462964066 0.022758004661583075 0.0017942872418067182 0.006211235828187344 -0.050483493999578626 -0.014415483147886604 0.0382261987140221 0.016385548700888947 0.03178942535051798 -0.0008425472438718882 0.014596376726942535 -0.02240527416757981 0.01581228451615211 0.003957985149042833 -0.004604504470358452 0.016079033353819945 -0.010518190904666472 -0.0003118014485677258 0.005765941295404807 -0.0012748229888623487 5.232360765301059e-16 -0.0003860398667492814 0.003407906771454581 0.00445786185873391 -0.005232782507718629 0.005157373291539264 -0.013064591963554898 -0.0032671571228261014 0.0017554741138514935 0.00266213969270198 0.007243112475382407 -0.0014234175725824723 -0.0037526451881195297 -8.403155645494181e-05 -0.020354472950405923 -0.012559228836856992 0.011525984570233431 0.014700044379852057 -0.0029887333895086735 0.013326474862862803 0.004985226838066324 0.0030121747357772697 0.020918562608779362 -0.04305457990242544 -0.001552554956315386 0.010306627380816686 -0.01955327861517113 0.01663212574042144 0.0024014584471369134 0.012754517436219097 0.02730319801344897 -0.011729955369078142 0.01471163705206522 0.012984119772485607 -0.007487706589407879 -0.01126149471398817 0.0010288028790371203 -0.02252482614451987 0.0074584855606849325 -0.005838836927829686 -0.005554198115767728 -0.010106339398638692 -0.009759683675113 0.016142922445407916 -0.012440779084915752 0.011422490447022962 0.044334240070680646 0.0103755815795004 -0.021247332095027723 -0.002161877955481825 0.0028356980931549913 -0.026473908013346252 0.010911098138457509 -0.01056496793813946 0.005646845851053014 -0.02984563837087451 0.035138407946158016 0.019933886908597806 -0.012200424265183052 0.031119831497396572 0.04088831733592389 0.029169787938478218 -0.0027186908954759006 -0.01613525453478032 -0.007082191041268294 -0.025545602217417356 -0.05269268274712699 -0.013599627128544222 0.00918531967682532 -0.003506151675275496 0.012954756295030186 0.025410966883027585 -0.033442208085986795 0.00362590485486931 -0.016667699430555395 0.04223089955164434 0.007350119613945535 -0.007879769878812 -0.026545855735788215
14525 0.00038449242413055983 0.00031547622179187526 -0.00026945336206717 -0.0013767362099781 -0.003420768860535591 -0.0175384796402166 -0.0016020961841556926 0.005085390262554129 0.01623716349049397 0.0013741524464645442 0.0023441280832629777 0.008173563203726763 -0.002197511150359766 0.004608485024384668 0.008890719887627772 -0.014367543603777372 -0.008413827671419604 0.023044660175815187 -0.002285805990159139 -0.0015059923778653608 -0.000247352736945614 -0.010092018869451876 -0.013740821296275605 -0.0062557474887504905 -0.004238712747204605 0.010573223643562127 -0.012025560823325242 -0.0031902375968053064 -0.008174826754052723 -0.011729760194179406 0.004694003829593464 -0.0010280044580739287 0.006546279341082085 0.000822692652678304 -0.003405399693475226 0.00194180545300241 -0.004549689224463967 0.010562312811320144 0.002791391181717394 0.000815074663216649 -0.00530943214352271 -0.0004922259083909964 -0.0028710771326737063 -0.0032107854112410255 -0.019705797936152677 -0.0005266193788369157 -0.008514920700938119 -0.004993425282849834 -0.002802989473485442 4.606720718300662e-16 0.0037395314344496984 0.0062784215003327615 -0.00630391071676247 0.013513111831740556 0.019434251449927324 -0.007904063550385065 -0.010641878052928242 -0.0038469778043878746 0.031789698818845934 0.004832876471393564 0.011511997230306367 -0.01457759790859046 -0.022848568861015692 0.0082152580053383 0.009786384845170673 0.043188570042528705 0.01881908871056213 0.003368833917030594 0.011909257564461396 0.0018432685100280535 0.005195159242267156 0.010953907532803094 0.007415934877404583 0.01457608976417382 -0.004084331230442295 0.014967591609912798 0.013226698591192628 -0.007395857521302354 0.005261238766338568 0.022849623249335184 0.003696045538907683 0.016352223480665787 -0.008001692265055562 0.0036370765392729795 0.007859923571458781 -0.015104636579903985 -0.0190149622063238 0.005636756886668302 0.008906485905579378 -0.0010547498811004025 -0.023020614424721527 -0.0024250727272660433 0.008663933010282994 0.026051203573263428 0.02492263920048601 0.026931152263034636 0.013058649530322389 0.011942512433376505 -0.00041629473271110045 0.019387450197977423 -0.005421433161275529 0.02944393250495124 0.004824048218459936 0.014702605720666862 0.042736958694113376 -0.006009002621379445 0.014668928590300079 -0.021178038919262957 0.0009260745805387316 0.013265329962372589 0.03256257713312694 0.0017873692940448716 -0.0385345788127513 -0.016467633563112257 -0.017107162122262085 -0.018489862893843828 -0.0037428369271249235 0.027750846404994315 -0.033152618868855004 0.01515432175878214 0.0020104044513091614 -0.015182064619353258 0.015269766681555812 0.03542989802894426 -0.007280546094957229 -0.02003384378550801 0.038371902427465916 0.0004401563444223039
14517 0.00013011897645275587 9.108991239710487e-05 5.95008924263969e-05 0.0028010604721350374 0.0004675777974179516 0.004425537496038264 0.0007193632429699255 0.02290325640641614 -0.005980586753303574 -0.0025762982463112104 0.004129491702460596 0.002234183235733379 -0.012140285487044 -0.0034001307947385435 -0.0008420980273883507 -0.0021723300338846556 0.01247043235496477 -0.010050596739816136 0.0006699199878295081 0.0038575371038061727 -0.003198743054694793 0.010641239274311019 0.0044239657376210755 -0.007328044864879646 -0.00026948272443969826 0.0017319290211686782 0.018522003682943218 0.01937619708717035 -0.007973777176619552 0.034657840348252866 0.02034658350861244 0.029862297949294896 0.06311194362402234 0.02708303828424928 -0.003778479641717864 -0.010140159643525298 -0.004243703902814596 0.015630366602916265 0.01640483709175143 -0.008748775606509291 -0.006210454890555377 -0.010252486816854681 0.007956355989550669 0.006065084173997453 -0.009635932715328243 -0.023401387878246027 0.0037523838434084826 0.0011840354283479165 -0.0221710382083055 6.941728386194787e-17 0.0060063021026828065 0.004473576085482986 0.010647982983477097 -0.001905467902233574 0.005797813455417119 0.014761714424622107 -0.009668008998514405 0.009694838191373624 0.004642412668770632 -0.010551956824431214 -0.01878198199590309 -0.008327408479458223 0.011064883535425016 -0.0028753430361257238 -0.010066764586730429 -0.005209794578222635 -0.01081193962733267 -0.022790713607250632 -0.007728433428016393 -0.01193898034747009 0.01115665660221575 -0.0016273995865539515 -0.006435177195122761 -0.005896915181073387 0.008060629492749162 0.0008982747455581922 -0.0024510978487652523 -0.009927880729444106 -0.0038130878747603993 0.013757705433628949 -0.0018171117516162026 -0.011953799943718842 0.006958605206556312 -0.0007202970993562289 -0.0004039097041269639 -0.0001728308391637976 -0.012184405590009929 0.007281873803137686 -0.005820614355868054 -0.004459090685502072 -0.009787870095702823 0.00409915609948182 0.015957678938081164 -0.0007404367264499269 0.032837540220326235 -0.002801982342911052 0.009670310359198547 0.0037309913146322733 0.012188807704185898 -0.003608156236528083 0.009967200985438194 -0.014735344772954842 0.0014419926783897027 -0.003002819713263985 -0.0011007943188254493 -0.01396700721535293 0.0126127186910476 -0.0049924886752370605 0.001005357702470545 -0.013032480283057613 -0.015350930315271329 0.014864699407057688 -0.005097384815471159 0.005561317851473847 -0.011321472410612167 0.00048359578498209486 0.005077011645221448 0.008776070932765265 -0.005082478928143891 0.022078291422851507 -0.016394509267659986 0.0034008914269152432 0.026572112130736604 -0.004588887550001513 -0.004459139538704714 0.05116198764002269 -0.009965578830505289 -0.0060683876753491765
14845 0.00039147155346877104 0.0002486832346576437 0.0006836217474695549 -0.0009237320543220846 0.0020043404043361295 0.008271516972326915 0.002984763656523526 -0.0037914502011969727 -0.011007438459501707 -0.008056729766000645 -0.0010491339073950444 -0.007723823516376984 -0.00010940578188656161 -0.0027160966201123914 -0.002900241421375836 -0.017124818859685493 0.00993818017628474 -0.008001305738788834 0.009313613033625294 -0.0016336377098040273 0.008910511086322686 0.005829339139110654 0.007691010099483954 -0.005890219867569168 -0.0006872139957609132 0.002411774151953752 0.003886501014382128 -0.000804641001600121 0.011013239627629581 0.0019482383749068572 0.0019799216303391506 0.021472964842882036 0.015514432900556813 0.0016004244316206021 -0.010525115031171877 -0.015907288332029694 0.012594483108519823 0.007070447512771269 0.0042992343250367665 -0.019104152072397577 0.000569744434220909 0.013056869639699799 -0.003525954100917634 0.002531561368683043 0.015068153591535328 -0.019480014152586683 0.019057291812519053 -0.013207613909243788 -0.01444228608021715 3.8839094567861164e-16 -0.007257712001460254 0.019904580780520306 0.0069489952344129954 0.004939694356813779 0.00038369395060799407 -0.022171285896303856 0.0006264273734855527 0.034015863751441 0.03087632086331212 -0.016076160339090605 -0.01742171620950602 -0.01812526337342868 0.022468538355318278 -0.028483265817098535 -0.004206216690064171 -0.007490382459204004 0.0021538329517274586 -0.014061200949591473 0.011915499616179463 -0.007306072041134752 0.007601530929358342 -0.025993377742729612 0.0022341389419192033 0.007889782747454503 -0.0032745971404465946 -0.006489971780737106 -0.014675814082030282 -0.044312096446203375 0.0012311153750917472 -0.0013349890037130914 -0.0030574727067143276 -0.011685345432372906 0.04005606344408221 -0.002363549889359161 0.004426104072832153 -0.012601617529289939 0.0021221497445421894 0.009827329402113944 -0.018567782402901484 0.018172799909577545 0.0068226294809476135 -0.013680251415013396 0.01849483654242663 -0.021604629526825587 0.06578318636883136 -0.008247783825841928 -0.0031960001531317023 -0.01661507459336461 0.002103199178213244 0.018328655349261726 0.006264827531270772 -0.000994328967086838 0.007007230002215675 -0.0020076715505043816 -0.007222511999777825 -0.025796772228078843 0.012680691585062768 -0.010994610315629405 -0.02732098803205898 0.018810998500980263 -0.07139203172224379 -0.041351140511484495 0.033897212660249504 0.005665058889067052 -0.002777926373321761 -0.018556068534795408 0.005390242269056117 0.015600032863956254 -0.006261800668524338 0.01345744621747678 0.008592587454115078 -0.019528444864240605 0.03444529971907936 -0.004793741624584697 -0.03492878435394977 0.06894941887378696 -0.02270617932833201 0.011280261697523209
14798 0.00032387419651494525 0.0002557223576617663 0.0001728993810093757 -0.0002996756170354806 0.0017158090607872192 0.004474573111359102 -0.0003722410502409945 0.007609751288101946 0.009433829583116594 -0.01975828442589081 0.008134658919347445 0.006024905715477613 0.0011669059197109985 -0.014732756954261683 0.0009133562149786168 0.0022706674382680057 0.005246555565549746 -0.007234392298588187 0.013779827227944047 0.00524519757138275 -0.0079250204581278 0.0029452532106985607 0.009859871212785747 -0.018273564358265246 0.018227495242108725 0.006149370768594994 0.02175270054818085 0.014205554289669369 -0.006936564988144707 0.023969842267862865 -0.004315012565830161 -0.02757293503387764 0.026205827810292404 0.0005286973278248764 -0.010678798698884487 -0.028016348551297077 -0.0035484488404205912 0.00582215238398236 -0.0031144846294533512 -0.023690525866585658 -0.00969968108508494 0.00586537302334532 0.006270971755807532 0.002012747561329115 -0.004590399867721898 -0.017884774819672627 0.019493481879484822 0.001424221756953398 0.0021379484224570756 -7.652179895514298e-16 -0.008641141638151176 -0.005010425820098226 -0.020982213426376645 -0.027355238645435338 0.014028073021509688 0.018162544420009225 -0.007263030972059342 0.008679522726686734 -0.013936413533251864 -0.02947273177610537 -0.032235010251294056 0.008501849759198423 0.016604556783538036 -3.370842679280091e-05 -0.040318227989576697 -0.010703218147823964 0.006984452845967825 -0.042755160358397944 -0.04449705521194807 -0.0115220197816758 0.04143004201839025 0.00257714619504259 -0.004156533259862383 0.007395767593670171 0.007110415721341714 0.0164905259524424 -0.02461374546159158 0.007858262629277904 0.00027974384135136075 0.024297772687362402 0.030666953474791037 -0.037342024351012686 -0.00607532502963221 -0.000988812646256903 -0.022934356505879664 0.0061980152448556725 -0.03648473944116319 -0.011193378577116631 -0.008899644172272717 -0.0014793165916987235 -0.019498365721394708 0.020121899905177112 0.013041139458124932 0.007483742828981025 0.07017660716456156 -0.024471541308951458 0.05507555103346663 0.01655226136230139 0.012979333080399271 -0.002014652935661703 0.032031843185436455 -0.008874919510929167 -0.04392974662616449 0.008108331031602752 -0.011364610396955153 -0.007613980503227787 0.025662621256873713 -0.012499584416405708 0.01562977515520279 -0.01817780161162929 -0.007537270712250147 0.061759126551552 -0.05974948637325596 0.011869806778746588 -0.017531952167205284 0.02253110017503455 -0.0017209604815788784 0.009514716451069745 0.0005754128327420257 0.05518119087164575 -0.04059003818522304 0.009619564085899528 0.0636680104895448 0.005538738937753814 -0.00627557238202541 0.06596575786190385 -0.011499651450749111 -0.043198041548304686
14607 0.0002493638684632662 0.00016481187222901813 -0.00019796454518141162 0.012663149882507194 -0.00022997502961208952 0.010472852781473212 0.0015145469234581956 0.08341631637640634 -0.022861510236072045 0.007461641822294802 0.010227328548821748 0.008090984032868587 -0.04363472708563228 -0.0010466151310557377 -0.002058444063203881 -0.00023699157566502434 0.034429182137869725 -0.0253417668378749 -0.011405292464048632 0.01046493087137958 -0.010066280000561426 0.030184629691619454 0.0041043218983377915 -0.008844784108569356 -0.012275184601371609 0.0003016195729825111 0.041646865077980925 0.051113769022653466 -0.02570314485528383 0.08953977794370106 0.06396397576747985 0.09759996536446575 0.16482060334067106 0.07994942355870788 0.0010965140432882146 -0.0035146428161711143 -0.01661547354532859 0.038044591629305416 0.047192091346183795 -0.00011665331831602425 -0.011866599959829386 -0.03974201258025711 0.02044858183030444 0.014534359551945736 -0.031927133378625364 -0.043927062901973866 -0.011880600897707549 0.009131813218768223 -0.055178178512874945 4.731337064443795e-16 0.02564496540146678 0.005162782017055542 0.038652019239655305 0.010046320085017118 0.006147675076830444 0.038069120509285646 -0.020741569195836505 0.0018460297061972844 0.005057419080847319 0.00037963914453437403 -0.01796378872825982 -0.01704434276658095 0.0052720922627200704 0.007496615605601567 0.003365079587796865 -0.0020602114244145722 -0.032098122990364374 -0.02029196149987061 0.0039828668331687985 -0.017419035418798103 -0.003935530078308081 0.007824816469016147 -0.013625929502404644 -0.022665483753833628 0.015824745161020316 -0.005238133311063445 0.01775745878586061 -0.00494415903306677 -0.009396938602119662 0.015799261067131472 -0.022274546177003786 0.00375064967833988 -0.0013485735524941212 0.00028725183553453916 0.011664004308151505 0.0020929465296950058 -0.00355708802868134 0.01762974794971881 0.0030005322803970578 -0.01767981896953172 -0.011301581323040466 0.002535499600775109 0.014938352550888592 0.004731472659317195 -0.012103617796221518 0.014391040912076955 -0.014485751689299543 0.005316502945535733 0.014513043159789503 -0.015185761479761561 -0.004370529311131402 -0.022499170826974977 0.027568467192235723 -0.009997453822019095 0.008927224460113821 -0.008388389377832 0.0008066124268417445 0.004320118561990551 0.005805350883947394 -0.022193336240736803 0.013077518275984159 0.00870896203718447 0.011830241949659816 -0.00042362728673522957 -0.007686011473086429 -0.0041551550900382084 0.0073875832727152676 0.0013808781414532134 -0.006064303982431245 -0.004115797677492846 -0.006595645671326202 0.00966926559310971 -0.013230407822264536 -0.008907259139724896 0.014435886770519298 0.008269226189056896 0.002383174059684303 0.012045913554528923
14518 6.843737208793255e-05 6.723320538305937e-05 0.00020035354029167567 -0.0004629344051629928 0.0007376259201122269 0.004369360988154753 0.0013499372672040124 -0.004488445762552794 -0.005971633410746357 -0.002238341286907369 -4.740283000177309e-05 -0.004702517315026621 -0.0004186918726369412 -0.00461962160554808 0.0011146824725015879 -0.013105281692360103 0.010122848989331943 -0.00185785794221909 -0.0024150144664593543 0.00017029955176191876 0.013260592351067649 -0.00028386763320506096 0.0031152357199492314 0.0029574823075735356 -0.008501666018634304 0.0013611266967336448 -0.001550701434377493 0.002282615465667609 0.0010374623205975857 -0.008538542204320194 4.8350173500558724e-05 0.006198199467206544 -0.0004724894670681502 0.014370760117564302 -0.010454068245725038 -0.009809723960423898 0.01675156822155163 -0.0011693385849638456 -0.014275744644151236 -0.024974060175343205 -0.00585554282925786 0.007872934208892114 -0.009051388003466741 0.008195311410115516 0.017462043757792374 -0.03000921948905815 0.029773783425255666 -0.013127329892061527 -0.025771798622157383 1.130305743447563e-15 -0.0062770742930890605 0.033330309731275806 0.013169093798423123 -0.00019905526128608306 -0.022115238884944835 -0.03451062536912243 0.0074480119934864164 0.044806395278259206 -0.013609653966304864 -0.07094937715812567 -0.022906064521660538 -0.05425244901547351 0.020554795004370782 -0.019967061245923966 0.09587286023169392 0.011178080397975548 0.0914617788675332 -0.02607145980695267 0.02342684035629311 0.002848258270437574 -0.03324718242605644 0.039908199543174615 0.05909414486533071 0.07617564331319901 0.03089849952609454 0.024151424824886726 0.035800403659729224 -0.04702013495768444 -0.01817578675124311 -0.03153834575977557 0.04382811451775828 -0.043042556910033315 -0.0007388779149808452 -0.02264802098719227 -0.046573960063058646 0.07160202071025343 -0.000629413856240914 0.10513550612773152 0.05066156429872407 0.060801441926977624 0.0186493161714482 -0.061557520326909566 0.06316939947847233 -0.034840825727119586 -0.013056288229004816 -0.023139544954602027 -0.02832839550436374 -0.002744257275207088 -0.01862147844034388 -0.017158493315489312 -0.004653756403558832 0.017223358127354798 0.00019910380407352348 0.019940183110049248 -0.02127165718860972 -0.006877354189423166 0.005559915713842504 0.0034937505353544326 0.0028895924217729667 -0.015577213856444432 0.026954941551250465 0.028872996260689412 -0.0023262857251813377 0.0035644578771665157 -0.02634342593061981 -0.005195270699352391 -0.03654915853637646 0.024614305732780214 0.02473670508678053 -0.01022245739695807 -0.005720056540517817 -0.015889354430534745 0.0029079520012355664 -0.01885310642516036 0.0020786093311360968 -0.02525586492807596 -0.01712330784083646 0.003239951739423211
14808 0.0001899152261041235 0.00018493514627633792 0.00048751058075671114 -0.0010858965837376004 0.0016467044367998102 0.009519917060319273 0.0028835236687897317 -0.009272348623095974 -0.012260842793820422 -0.004485238765697886 -9.393336590453032e-05 -0.009243315787764063 -0.000811080932164978 -0.008892739495849582 0.002143639023737072 -0.0249678146215826 0.01908010901757237 -0.0034541488289766896 -0.004476846945614757 0.00031465154254516693 0.024093223084785908 -0.0005125030638269396 0.005559448687366244 0.00523052134945029 -0.014893640820102435 0.0023710547352344753 -0.002645089984835736 0.0038631249936674655 0.001748172225013636 -0.014305285677039732 8.095020095523359e-05 0.010324538145833386 -0.0007778527331279295 0.023573630361913508 -0.016966315233728928 -0.015768724675331466 0.02690737277649837 -0.001861542391230346 -0.022586459822928364 -0.0394147613364351 -0.009210608307693288 0.012305836717156998 -0.014136831500434896 0.012679541800761696 0.026958671519862937 -0.045981243001406616 0.045539629788585806 -0.0198924028728264 -0.03896902446270297 1.2419829878937964e-15 -0.009355547408823337 0.04953844731441158 0.019423144840156593 -0.000290518703649185 -0.03217341268791529 -0.04919566271167706 0.010594597421677825 0.06302772594189637 -0.01910896873161587 -0.09903676910203137 -0.031868814363544815 -0.07441656205762931 0.027997458922402345 -0.027144734975446037 0.1294591122019375 0.015056028548304849 0.12271371730488362 -0.03452610398708516 0.03092670376675299 0.0037377103788195937 -0.043591890448218776 0.0516575498655168 0.07626512961724342 0.09795319033360055 0.03933462465793064 0.030589069498944667 0.045273217567892175 -0.05863538235910616 -0.022413414182910974 -0.038670883752688776 0.05347187590979871 -0.05196369403789353 -0.0008885499110101027 -0.026926317666636466 -0.05491575050421335 0.08412793626651988 -0.0007361855529115102 0.12214518773203965 0.05849084182664483 0.06954781406155155 0.02127675703857747 -0.06996622696014687 0.07121213361195397 -0.03919350890058415 -0.014578188307932604 -0.02549433897752576 -0.031168953869291992 -0.0030124702237572043 -0.020057792557572316 -0.018451067736108655 -0.004991887155588876 0.018398164498309062 0.00021225265714726002 0.021071657831543005 -0.022371394516004596 -0.007156898893742928 0.005764964333182454 0.003598562726763507 0.0029579666259375416 -0.015893599060432532 0.02732451747249544 0.029109727950644895 -0.002336902577517007 0.0035612573506958465 -0.026034746520612023 -0.005116564782256891 -0.03565224319506316 0.023849906087831923 0.02373921235562359 -0.009740050837610783 -0.005425065014103415 -0.01499788523901904 0.0027295304124361746 -0.017532265406289986 0.0019233318110610316 -0.023312278329976968 -0.015705290533659974 0.002939430647577398
14519 0.0003087659308046986 6.768205383869146e-05 0.0005102231397849575 -0.0010567902564537618 0.0008255021069280701 0.0081841777937498 0.0028499933548571865 -0.00475457574780921 -0.01347545006268686 -0.0021256477431873966 0.0044789499645903575 -0.00903919549865639 0.0006448551829464251 0.0008783264925888396 -0.004404899042555737 -0.022346313205268607 0.0077493158817511 0.01055877254518883 -0.011144000002539314 -0.008059240681860555 0.014613004484825255 -0.013613913165695882 0.024509002202574775 0.0009030852980767729 -0.00992634892811461 -0.005862772506248738 -0.001446040663735156 -0.004150171070553353 -0.017054384040581683 -0.007399053017996985 -0.007111195973360417 -0.006797607652323951 -0.00744533379383249 0.016437085122105607 0.0035725288065887304 -0.01645949128997606 -0.012193743269253949 -0.002317775216157044 0.004932832087631349 0.012401012336124178 -0.0003358586672001362 0.00910322604287475 -0.00021365831296011548 0.006396634091670496 0.010933506726710424 -0.023288924485259443 -0.0017228454669343557 -0.007931599816173779 0.02062647564616432 -6.682239310507038e-16 0.026337590122834965 -0.025540530585536382 0.01901304255337339 0.011193389727732463 -0.017325056539390152 -0.014040896454933203 -0.0007037363088892621 -0.017352461705855905 0.022721664503572492 0.012181559573200537 -0.008050281394491907 0.007076989574895647 -0.006666930308350906 -0.0009852499190564476 -0.03361352356859207 0.00442338353839569 -0.015601736408013229 0.022438037260826445 -0.05942078672578095 -0.027359182858890767 0.008443561071925102 0.02053535372404296 -0.008604294590674922 -0.006304744282027306 -0.007290652345907056 0.0036236790429274644 -0.02364855964240473 0.012321231267582847 -0.019847925587067557 -0.04466025163789815 -0.001039943534214345 -0.030475328211071927 -0.07483756276628618 -0.034748748839366746 -0.021522802108926934 0.016838234009718758 -0.012231842004224447 -0.002964051028790008 -0.013646450042075878 -0.0012100393297070017 -0.042811602277556544 -0.02932670955549 -0.016752680221118994 0.022705654751296784 -0.02385305001831318 0.02048135505662893 0.014711787479822701 0.015874942566183818 0.006646438653777858 -0.0642568273961403 0.004757810375147134 0.034084178620804366 0.02779099878661844 0.04789999017003885 -0.04891229089647884 0.011352726858887763 0.01025423954690684 0.0010934470925305583 0.04103529165940358 -0.016986429467704522 -0.013322528645447522 -0.025809285786326682 -0.022788382437239806 0.00178457962506796 0.047342087009322645 -0.007625927575742726 -0.0032744638683638075 0.017925460820110036 0.01790829374464448 -0.0015466983105681038 -0.007483748539817925 -0.045600944203037334 -0.04659708554170265 -0.05934282383079972 0.011890896693913806 -0.0014195936153592057 0.011224255090514489 0.036489963580435776
14979 0.0004210320647994061 0.00031403551777439264 0.0007156597206100388 -0.0013562340245038772 0.0016712261038507271 0.011487350191631256 0.0030825646095286913 -0.006155205023567415 -0.00921872139015829 -0.002913301881089663 -0.001596936955893142 -0.003948723922984959 0.002786601904399845 -0.007387135491635278 0.003142678203006802 -0.010366075854951813 0.013383043411740887 -0.0009572222836586221 0.007924377419065468 -0.002336068576157478 0.011775315246976144 -0.010263233166678746 0.006901599258879705 -0.006033997556956413 -0.0025745374281158683 -0.004501928481679807 -0.0021169126689866585 -0.032192170873600906 -0.014040195314612246 0.005720491514816881 0.003693666546559696 -0.009584875690423727 -0.0004147393542713326 -0.010191825648922508 0.00968694227600636 -0.023038393349065663 -0.01401164031770858 -8.242076543234428e-05 0.022616818852236254 0.02089839312255858 0.004704755759699884 -0.008615852686683646 -0.021364003776623793 -0.005158570671589799 0.0035384144121607267 -0.009898188273275686 -0.009876003502497144 0.0075618359804098395 -0.021439615038479926 -1.2645508088729608e-15 0.025802951410418017 0.009811052079259216 -0.015775900069136355 0.0017901831186883212 0.013853191074071233 0.01071562964845789 -0.010643131713108472 -0.009624085040744901 -0.005717117941583064 -0.005840632554104931 -0.05849652262891414 0.0008423218644786351 -0.01615763565355524 -0.015992997195198835 -0.016746839757201797 -0.0456307158616667 0.01203005014834292 0.022661365106643083 -0.03299500143050276 -0.054316978189647154 0.012622503388990687 -0.00407813099733523 -0.011070457024012046 -0.01908430603218893 -0.014655997817630734 -0.014775482695110937 -0.016742542262434774 -0.007352479293435963 -0.030055189717046966 -0.009956327168240249 0.00780947439674587 -0.011763121891791026 0.009290027778124718 -0.05252553489954934 -0.015078032457002488 -0.0011732384079771799 0.004838439306552635 -0.010940362709170728 0.021021019338410725 0.017684858975318803 0.01040711061694856 -0.0013418685294896847 -0.013581475049439403 -0.032535349224224325 0.031366802890395645 -0.02824538773107979 0.049876990721096845 -0.01816079173291977 -0.01748769710909956 -0.023290353841335164 0.02821387052793736 -0.021416443880297318 -0.03530202079432258 0.015220489147885374 -0.005171241967774438 -0.002274695033332238 0.026225589201237205 -0.022075178102393213 0.008254428447437753 0.003946625521181873 -0.0019533053305966675 -0.03275390667345429 -0.036471582949077146 -0.028916082658756705 0.01589912411292216 -0.01403953654580883 0.005830945761677416 0.0318403098944169 0.016330939954081802 -0.012902921871970459 -0.0008333637407986787 -0.022755391037318985 -0.01131752883720347 -0.053132662662093884 0.003221013283032425 -0.03806067390943659 -0.021487959964311073 0.04390171639106387
14550 0.00017499846136878616 0.0001534381325196533 0.0003374201189284337 -0.0008678376141303592 0.0008944462176430815 0.004814875308562713 0.002617272363424386 -0.007289903629857434 -0.007477504644802476 -0.0036267429489310198 0.0028820697106832303 -0.012973888270453805 -0.0013840889271783902 -0.0028165166633738704 -0.00277320735735038 -0.021786825652560845 0.015765421740015113 0.005676314419607653 -0.01390229072067634 -0.0027413804125620465 0.025661011708296922 -0.007899843399767828 0.006147067299778226 0.014306622314216793 -0.012557434261085102 -0.004517578205753533 -0.0031925530716034553 0.0054017219591144545 0.0002173171177223319 -0.012556742403381371 -0.005984741788820911 0.0058155895626049265 -0.009956226454795448 0.016310150619961616 -0.007695494576577266 -0.02415321553353945 0.011456032758707043 0.009742000581191883 -0.003572104328696865 -0.011351828804702877 -0.005766477438436721 0.008538954974720092 -0.004882582205771986 0.014114369264107154 0.007801262720494086 -0.04007509254613591 0.02344041237511847 -0.016625943817881836 0.011084973210608414 -7.133688015354746e-16 0.016103453386305235 -0.01895939101771868 0.035784522490371964 0.013444121236189606 -0.017403717285972193 -0.02128736612608807 -0.01362186669902096 -0.007567569601533535 0.030327624245558387 -0.019288057462404487 0.028496804113312114 -0.01003971163002895 0.019429387766359475 0.017213893466981475 -0.07308266248340227 0.02567366255302283 -0.056186728348166945 0.05946741978423773 -0.050811794623087506 0.006152005541821183 0.029965752693894097 -0.008910573254469478 -0.013882083767201665 0.01762441449207081 -0.0033984589007549047 -0.02094290609175305 -0.03865864801252453 0.04497637646780462 0.013095211050085227 -0.02593395879097652 -0.03239181265682134 0.008441761234779393 -0.11912270328592102 -0.02403074251793104 -0.009890872167969656 0.0029439819309070516 -0.021713321970031906 -0.0003240333527441208 0.031060388735737215 0.018318288996726845 -0.006881342614202077 -0.04262890996492873 0.04385487833283179 -0.010241271463330915 -0.05063048868819109 0.019319232083045663 -0.0028121560187028957 0.02206286475163053 -0.022267077220488846 -0.0522011098138189 -0.03985316690901668 -0.0015205183551847599 0.014793172511557416 0.03545867073453147 -0.016068104501820505 0.015887921355473417 -0.0037166661628264 -0.024906073607047607 0.05759276958445372 -0.07596409523125824 -0.009913215797636165 -0.0016110017662805604 -0.02809936914160919 0.00997221995198863 -0.005924616998356206 -0.02135492737493868 0.033325197193110896 -0.0038991769998839567 -0.012066488392396806 0.022517190400595886 0.010916263684952611 -0.03799462366698854 0.010628016879256326 -0.01905682223229505 -0.005276716427049607 -0.016282422676069816 0.042632337116217556 0.0383420738991096
14982 0.0004686917153030132 0.0004124267598598082 0.0008621488394666494 -0.0017940919912963274 0.0016786856719924563 0.010774238315261607 0.0025709659929954885 -0.007999280105620345 -0.008043309672481586 0.0002178833876885876 -0.00032414316308050704 -0.004678666079315981 0.0015983584572740771 -0.006184377489477898 0.009838475277131973 -0.013302655721226938 0.012404843562498059 -0.003683907625355784 0.003370566624438947 -0.004260005215456531 0.009911918571761604 -0.006026839062942465 0.00764079127480621 -0.006006187321087501 0.0024534146126725044 -0.005013656841364012 -0.00028478799762361804 -0.023917954725222124 -0.012079088375862575 0.0014244002088666283 0.0008807866869410467 0.0005055318246122739 -0.004969888759571975 -0.004753904608803183 -0.010049237265590117 -0.029121934338600657 -0.012255442936177535 -0.004269746994781304 0.00765491873043588 0.03292841126122079 0.005794054144488314 0.000796229089561745 -0.01548793793612125 -0.008926196554287315 -0.005820306374158289 -0.006797992535215727 -0.009879749073726974 0.0005091442887298748 -0.0027854178956126154 -1.4649710729857283e-15 0.027463196441426706 -0.01462336967550643 -0.024289526869169423 -0.0030143405429706926 0.007356778980025587 0.0050077266621558125 -0.016485435550652665 -0.011332892895758385 -0.015557772383190439 -0.009454633614625335 -0.05758777254655461 0.009492965637689133 0.001989898155903231 -0.008790939944452052 -0.02060401275618891 -0.03173355553434964 -0.007041265630710223 0.002562036843063897 -0.021931955007609867 -0.05195304451542771 0.00026769662543840836 0.011765337287332447 -0.01401850310810193 -0.03155443535654942 -0.00011814662656904638 0.0022581155746573597 0.01776244956936287 0.005052981872489172 -0.012773884146411204 -0.012169677091260826 0.023847735785736606 -0.01796079649373111 0.010466767790228374 -0.014360914729989654 0.0351298421283201 0.01321221741523672 0.008082650314128774 -0.006517462538711123 0.012154601986127627 0.033861393832371946 0.00489278519153845 0.025290888662003873 -0.011665289246365826 -0.02266053847388491 0.02811740883190712 -0.008934253912692735 -0.010745101691213305 -0.016124971685085192 0.0036536347327660824 -0.005561107580904411 0.014478912196813997 -0.012478686236022083 -0.0012886590170825465 0.0059025189017046275 -0.01580952884523052 0.008366382920349505 0.024733642403213466 -0.012037007545345308 -0.008385887478083932 0.032527709066091315 0.03524990919394111 -0.012535276923364473 -0.01333631676346182 0.01738067590866388 0.011504200023731632 0.0033558565426755884 -0.00430121358297458 0.010367663473971311 0.010721167945839162 -0.0029817794918050975 -0.025048730072255936 -0.018672817868402244 -0.011805828370448244 0.02139318170233224 -0.014772483688516176 0.0026682995130256045 -0.020184815597206987 0.02916466720038168
15114 0.00020517360249424247 0.0001346059080015282 -0.0002761607040047916 -0.0007302848354427944 0.000680041664910779 0.0012415346923237622 0.0008708246639700101 -0.0007914118985536217 0.0020811146512666693 0.0024872031814605544 0.0004290678270211084 -0.0024799028109956695 -0.0031353884831810826 0.004721084081719169 0.0041515257714309405 -0.01001783202530473 0.002855251401575538 0.008583959475543686 -0.012423340902994467 -0.0001933359615464918 -0.0010927181457758431 -0.004292228042216409 0.002853364138684568 0.0026768423055372513 0.0017038942088047622 0.0009990676901944701 -0.002618559781616592 0.003410842008348712 -0.010290133370948572 -0.0030257103350675293 0.0003407975947057955 -0.003664981541832493 -0.0034002946335484306 0.014016140300284061 0.019599799665268508 0.015074858301086305 -0.015585764069564818 0.006373427515195219 -0.00044399802480854603 0.0004124833752481209 -0.002483868965274163 0.012735819017274216 -0.002122897124981474 0.0011508364756646525 -0.004736633955041192 0.0028286984352695506 0.004340824820050066 -0.0004600201934579004 0.006882455126213541 3.6157506802485776e-16 0.0038935667120301868 -0.0009804315401011434 -0.0032206640413957274 0.003374097403541222 -0.001255007444695768 -0.008406371652971123 -0.002202980745851229 -0.004301596459259767 0.009914432667167818 0.006472570025474252 0.0046325797538826555 0.023348569987326696 -0.011216927285839956 0.003300967507140985 0.002853977777071307 0.0024041070942549653 0.0029289779443491077 -0.004959477507004824 -0.02412332501632311 -0.003797951174451026 0.0011553909708026482 0.018956580194451574 0.00026193070425901147 0.009132743646602668 0.007455456681671275 0.009017986249398181 -0.01907406563004269 -0.010677748994100768 -0.00036072413120259375 0.00012033152071925737 0.008676827431673086 -0.015453668707346418 -0.019563355595951196 -0.028890221012029906 -0.020880188258340853 0.02064551823058036 0.013688890506145988 -0.0026357642130920844 -0.015870592290075203 -0.012939414811620078 -0.026775967628475866 -0.017651737775746683 -0.042314140103500354 0.02666250894410173 -0.01762948005891514 0.022172562201471475 0.0064135330613940365 0.016524151054566612 0.002221382223879528 -0.0016683242292942345 0.007231000213175908 0.018290396449529563 0.007596495521266804 0.024220616984156573 -0.007081694106934656 0.00357886975856068 0.004567411168789559 0.01076080664590288 -0.004305071602358892 -0.032629317306852215 -0.004757447242359031 -0.006796221342248027 0.026804009885443937 -0.016900082158999834 0.02233351159366343 -0.011400448116981342 -0.0018671416348442923 -0.022149957227793865 0.028925857360288083 0.02832095584293279 -0.02874621092012278 -0.04295780367150069 -0.018131606458962855 -0.0005759443575737223 0.000927822171797751 0.001581720268465422 -0.0023813882344809064 -0.011862704573161693
14988 0.00021559787855554197 0.00025525729308212324 0.0004773131782144107 -0.0012024200337437362 0.0005484785775866905 0.005478899480710378 0.0005810633676016085 -0.003419075563140493 -0.0004149788360836129 0.0016579128508379724 0.0004529869941684706 -0.0035452146712408395 0.0019449219426725553 -0.004673304073516523 0.006377869633243406 -0.005188155698949064 0.0068301915005736236 0.0003725815443219468 0.0012561740928481615 -0.0015410895267334002 0.008622864147639022 -0.00532263885438526 0.0049876201050156905 -0.0030617614841272137 -0.004400660541235085 -0.0055541334089837585 -0.009594634571650391 -0.01703406038967043 -0.017133020297720833 -0.002342408010112301 0.0040249230228314795 0.0009970987879026824 -0.0011511687346242592 0.0034833228556404366 -0.000923889585463319 -0.01907174940874638 -0.0012329370575978721 0.002778489423163531 -0.002560774828349944 0.008877624828003096 -0.01004392625367854 -0.00522866904194768 -0.007655790871692752 -0.009521640198580308 -0.012768038745457944 -0.0031232320625137738 -0.0014187411584800822 0.0069393243670507875 -0.006814802533382363 -1.0404515297181026e-15 0.015178072127828129 -0.0012004289944031652 -0.010754879215684514 0.0005384133787788011 -0.012130798792957866 -0.00711766793320135 -0.004934221381584243 -0.005659934397464736 0.0018950748683156486 -0.002334522836919341 -0.0338083436780993 0.008443198930315726 0.0006564419084989731 -0.014347498766757148 -0.01446319584931043 -0.03531677920033533 0.001164013736279003 0.0028686076297848124 -0.022232961789923535 -0.021097647317694805 -0.008824405402359887 0.012158830142119373 -0.010429048421568447 -0.026284256534743672 -0.001959352313804271 -0.023806507257395398 -0.0028594191790604806 0.0344473150545306 -0.04575036667514426 -0.03868529776783196 0.03359077878519138 -0.012511366020144002 -0.014018655875138947 0.005221077679833202 0.01862608024572231 0.026680585037689244 0.0073469859157832135 0.011694372208569457 0.02366840738039453 0.018678288369306004 -0.00393111162939759 0.06733898014524864 0.009645669752643945 0.004554866357858561 0.03860519183916162 0.013438200403558573 -0.019666504758659983 -0.004280227552301176 -0.010963314833588023 -0.02497530136691615 -0.00481143151831822 0.013935173253834022 -0.017851877435505873 0.000869358018509677 -0.019909753325079257 0.002183221202064306 0.007957502539113563 -0.007379432073441068 0.007505331426816384 0.011694918401359023 0.00830789259721848 -0.03219490719202177 0.009186953877658121 0.0016815147652307037 0.021123232244032192 -0.013416294264685099 -0.008716247186182802 0.05508759621257527 0.02719629612327816 0.018751253107516477 -0.005857275052258048 0.002744527104479466 -0.05496487213004635 -0.05472133252756065 0.014616682500462962 -0.05982279542401287 0.016348444125586205 -0.026736841688774455
14996 0.00036737907751541605 0.00039906135983466985 0.0008943068188613854 -0.0018057732561381965 0.0022028667113088624 0.012042504397878488 0.004172891049546899 -0.013888026948216736 -0.017851228042597585 -0.0024560001093752756 0.005185851575511207 -0.009791014557863369 -0.0009743054839558328 -0.003958387038388473 -0.00467951122309876 -0.01581106238311202 0.011797404129490483 -0.0015164407334413517 -0.006312296649534808 -0.003932529286260953 0.016583475643677074 -0.0010534043261207784 -0.0028415040171343724 0.006450371212111655 -0.011701145784180302 0.001456889765738447 0.002540282020019079 0.008011987193521987 -0.0005722924390843988 -0.00640434657962275 -0.001583174110592967 0.0016952940142132976 -0.0043782754386382326 0.002870715453092714 -0.007733761505727286 -0.012646699858696332 0.010655943268428312 0.0030586293645528057 -0.0033710639727261146 -0.0007379949737762497 0.007812714933972195 -0.0040767955689221865 -0.006346709142785884 0.003276671839744857 0.00026656971277934973 -0.011227796376177535 0.01270001392421907 -0.005258825545817183 -0.004030838610509109 3.3184702103338506e-16 -0.008609961859389547 0.0010236764615037077 -0.009990403465426087 0.003434007950557072 -0.009348015038658458 0.014532931991571914 0.016239038853550054 -0.013872926949265242 -0.025133083272008642 0.02196267530475753 0.00657175951009216 -0.004701976227094744 -0.02948249765973529 0.012466195417081511 0.012756663166759611 -0.01180218595542165 0.005715286048971371 -0.008228787485883167 -0.004920367240448655 -0.0033795967760306073 -0.007885366591624452 -0.017826526692156727 -0.012770798308796877 -0.014366535957993677 0.004951748013136572 -0.016330471240007142 0.013389095900052406 -0.0009827539685417143 0.001698665341137018 0.018525514499952753 -0.01987482081687571 0.020350223521311203 -0.022682375641954845 -0.0037867306489022573 0.006511114949212295 0.0012804946529745033 0.03953653916923249 -0.02448593001820984 0.008799620293174203 0.007671135003490294 -0.023810558669857675 0.01815478428580332 0.013233022803855111 0.009044802185817444 -0.017566253168717655 -0.019421814678464964 0.024875557732931257 0.017795135727079345 0.029638474341088662 0.0011246541542341032 -0.021216966312945326 0.0036540600360240633 -0.017235917141074798 -0.04651644368498475 -0.023256361617626148 -0.009178173652095608 0.02901399128844023 0.04339146562886239 0.04305795204919595 0.019342242159004767 0.012875071738208826 -0.019354824597353815 -0.013942260802811106 -0.026450512355579263 0.001999500159508295 0.028488068270903336 -0.011065464242262988 0.0165693058377698 0.001840194853098932 0.016445003585679657 0.012450498715998142 0.0021659163772897757 0.012500969528601878 -0.0062678524877716225 0.005695694216185993 0.021753670110697832 -0.0004260867056564115 0.005634863164628731
14747 0.0003188924040210694 0.00026997108268580745 0.0005582985639570821 -0.0009143276681141447 0.0018274984106923463 0.009223846874442124 0.0025936936253622644 -0.008001212946876102 -0.006736789946853403 -0.005180425247505053 0.0017876554826890617 -0.01111097493359375 -0.0077985275292266915 0.003417304665984172 0.0042662308063837985 -0.027568255168432924 0.017869245521084796 0.002718788928068193 -0.017311075188347673 0.005662946231353737 0.003939250663279586 0.0044540292301018585 0.006828303001500518 -0.004036226024394328 -0.0028889881693039206 0.0015325778732030832 0.006115599031479095 0.0091464173834376 -0.02121135174707038 -0.0032408101448681793 0.004383653087269107 -0.03366355986701051 -0.013483448242949416 0.024713448572959235 0.08322571633376956 0.0659194033604416 -0.07429488643752603 -0.0023159718705493613 0.02421242349702375 -0.011929602220595931 -0.008565707487710695 0.04052117749296068 0.0037138086230698013 -0.0026112606435011614 0.00039852913243297085 -0.0030672627979873635 -0.008591200846338439 -0.025234151303169864 0.0005127955254760213 5.648856889695188e-16 0.00018749757153949814 0.02534280461060199 -0.007493883172269022 -0.006294496020043924 -0.01647547150695458 -0.0021673585475623144 -0.010340048150204595 0.005131296892463442 0.014473202685647743 -0.0028876207853563668 0.01101386146759038 0.033266866710825266 -0.01681332192819082 0.014745001608134212 0.008484523167500445 0.006697265679807413 -3.434243596343921e-05 -0.016620557116667548 -0.027214314412567425 0.00011131728563084308 -0.004876109090012431 0.03997903344087034 0.02229862077914756 0.012505209624291592 0.03974927769418875 -0.012901225174044777 -0.01076979671320274 -0.008913959719538586 0.0006933887523594941 -0.003209172172698621 0.02771296929598465 -0.010823937140107443 -0.022136771996179985 -0.036324999278331535 -0.04342293487206103 0.0015149893293748668 0.02655518328836027 0.007049189988964258 -0.04177853481950436 -0.018677569826632556 -0.03722390818720744 0.005947963880224789 -0.04208811031194697 0.022055600367832003 0.005059409395734371 -0.013536754162082207 0.039342113238966185 0.013688551493698119 0.019124204763333347 0.0024349192207631476 -0.0066848370496595064 -0.014927639469478574 0.03214818009606478 0.006907262553275773 -0.0027865603495552077 -0.001359509407001362 -0.035663611245370215 0.002647924982430748 0.001361294922866497 0.003002076903003538 -0.007870627039480025 -0.028856933151657143 0.03370087499286453 -0.016531338847869677 -0.01732224238169054 -0.012534585646171005 -0.01530809988329184 -0.02453790923479248 0.02080290447890775 0.027506560513617325 0.004533164823925333 -0.01680557815398378 -0.02994749060042719 -0.0009757830066725489 -0.012633095284115606 -0.02103988537053164 0.006068736794077024 -0.006995387861817288
14623 0.00015423239479937792 0.000126087304888138 0.000308832563690288 -0.0007765201532992736 0.0009156663270409965 0.005708407092144506 0.001773336624842192 -0.005239960400908744 -0.006595795252142453 -0.0018403330125291483 0.0032497857494287853 -0.002819552643805237 0.00028832685601531244 -0.0016933210788756593 0.0015352263779821556 -0.012174640842984575 0.008890211691411017 0.002231567740087096 -0.0028843459723032422 -0.001208503346511605 0.009264205319873755 -0.003561375105971302 0.005556787039473231 0.000253863299739652 -0.00269347780192385 -0.000991816816397549 0.0021974536239623816 -0.005992959387871958 -0.007314494174467118 -0.002179489780468879 0.0009676008273707029 -0.004711868138793902 -0.0038797886688555524 0.004766633044513783 -0.0006870376983385054 -0.006964710153867235 -0.004653267668253242 0.0008177064977920348 -0.002510198235190535 0.000969393019371235 0.006627965324848877 0.0019229459752350684 0.0006191785902839582 0.006498882527797527 0.002110695687049356 -0.007591922257653933 -0.00309218917050524 0.001321319407523916 0.000969427206601675 -9.397140611606697e-16 0.012635325439176361 -0.004634850484417088 0.001156023610264509 0.009077623658744996 0.004672571198719731 0.0006190046215497188 0.008260073012497555 -0.008640651072537548 0.0005869065001691082 0.007726486687983366 -0.029253847087038376 0.0054136807737810225 -0.018438707766548698 -0.0035281320921523025 0.003949365292320337 -0.00786622279187286 -0.0033042276768983536 0.01733289379418889 -0.025150747809315453 -0.017537493639967455 -0.00260426209730015 0.011460924265217286 -0.024011132908189552 -0.030720754266682724 -0.01402931884193147 -0.002832929757305796 -0.020051429012086418 0.011574776696027914 0.0037399025480682174 -0.009451817385471009 -0.006639961365355321 -0.03486564771322653 -0.014852124599143618 7.579473379328495e-05 -0.01628166274400851 0.010293457494369626 0.026555362294470034 -0.0001381478484282738 -0.008768726299392357 0.0020957540884158385 -0.02073741927331064 -0.013037190474771958 -0.010077908586570846 0.011590430959283204 0.03271831062541598 -0.02087854898004709 0.027740367776597677 -0.0077073443657557075 0.0036596353037634285 -0.021211109235438216 0.017097058573867684 0.010865032381116317 0.032558996392531694 0.023691688775173476 -0.003788320500651556 -0.0011061678631297887 -0.00973896021441974 0.0009135427854469118 0.007091127381534296 0.013673818108677512 0.013991910898006613 0.02021258575082939 -0.004832299877176589 -0.021100188057693182 0.025279504075683374 0.007199714077810514 -0.013296121957011051 0.0186382508033556 0.030785839401755073 -0.01643179668016897 0.024562360368062534 -0.01595635823136708 -0.001551373041634525 -0.05129686345856785 0.00782341996800789 -0.01085057134461727 0.011213812656531935 0.032641755886842976
14755 0.00016862627388385977 0.00013735398284036934 0.0003227067686433202 -0.0004476843535708163 -9.309826849163795e-05 0.0021188030455201808 0.002070064008118536 -0.006375054590250236 -0.011215146628145245 -0.0025264848527330845 0.0035309391447130843 -0.0076136515651981694 -0.0006749277676739287 -0.0005547051750568235 -0.005510458101126147 -0.013629705266533676 0.008260758013534769 -0.0007777660414261922 -0.008604467519221472 -0.0033164461751176042 0.016849571378580515 -0.004731265893691119 0.0037739589353957257 0.0062663704060050745 -0.004549482235280447 -0.0028191677501348327 -0.0001751916487782266 0.0025355525760538153 0.0047255099973497715 -0.007014807327042522 -0.008022759977706968 -0.00019736398871074496 -0.005914386558078896 0.004621185928988534 -0.0019250532356777164 -0.013911583826030211 0.006740721640021926 -0.005914550872232138 0.010920962955209891 0.012680419933532104 -0.007635193419500885 -0.0014242677818411386 0.005275421245795751 0.009985313982163938 -0.012198921837355126 -0.02904719740838637 -0.0038947058112350336 -0.006103460190538432 0.034305456990485705 -7.180781267992928e-16 0.02374838569294371 -0.05711447462630264 0.04154557555664525 -0.011824634123564496 -0.015258569868109417 -0.008925932384289416 -0.017073993515782124 -0.018932309193397136 0.016434823384598136 -0.012513002628345796 0.02544831935607983 -0.0030428731767693797 -0.0029033167334605197 0.016105632654969226 -0.04196636464690552 0.02820252266685986 -0.03321321900384303 0.044264254485381654 -0.0322718624635061 -0.0011953580610120052 0.016826583034371716 -0.0005518127306736333 0.006605089583796034 0.004409569981273125 0.004050013662991263 -0.04020648085562111 -0.020188811154541852 0.053848864475960614 0.03015631112638021 -0.02241678229214408 -0.0067573135912793215 0.00986091702975256 -0.12878960837838338 -0.013141477514728519 -0.0034349773254069385 0.018618110578505966 -0.03593316362800923 0.05227957248008661 0.043860310120002494 0.013059185699308674 -0.02567046029139378 -0.08425188855121356 0.053340699631607355 -0.005215599855409347 -0.015819743263840873 0.019286774549571617 0.011407857326695777 0.035238313992098445 -0.02355308713316662 -0.0539042326746974 0.01415682640188412 0.0018349697964666414 -0.025823417194216765 0.017074580117589767 -0.026963013113115195 -0.008165390683737561 0.00431694359302459 -0.06995783446255514 0.004491504691721845 -0.0068035686914285545 0.007410482009906195 -0.019112362749011323 0.010649142761563589 -0.014374283081971348 -0.01959299499253648 -0.0046843136194252835 -0.036689186000557074 -0.015263335006691808 0.05134608753100684 -0.035420623061756036 -0.06961777417369451 0.026374760867576875 -0.03925083104824657 -0.018986000893581195 0.014031755364583164 0.10534530133186046 0.04544533175931682 0.06833907244974038
14885 0.00016586813194590245 0.0002568012600767348 0.00047959907387858016 -0.0012974532228033726 0.0014125967806036916 0.0022682141416478143 -0.0013390436857283793 0.0011538835586787858 0.004377240654738947 -0.0051100676405831935 -0.012662510982884637 0.0044826148481663585 -0.0009687962168339138 -0.0021458835089563986 0.005136371774289419 -0.001164135981095314 -0.0038198404296986986 0.0018312523267507155 -0.0001576645991895612 0.0033087647612035113 -0.011906203408202585 -0.008559598099723738 0.0018279919712205388 -0.005666827260188015 0.007880583510149183 0.00312149598349923 -0.0056422662621094825 0.009527438003298748 -0.006420602340917873 -0.014977488358396344 -0.003755810148515382 0.000987356293039498 0.0010576045409912344 0.01734694230525181 -0.0026926966789773588 0.008440446178919295 -0.006858221711064075 -0.000992991041465766 0.016656253861650254 0.018611353324488655 0.015580941337586732 -0.011268360259810546 -0.0022833814105664894 0.0074773305740216895 0.03040434216444715 0.007148417353374065 -0.010888660963475636 0.007950805529958497 0.009583487253146889 -4.545221015766939e-16 0.015725474021679117 0.0005104694390409986 -0.01988861275964996 0.009075495803160055 0.04902823394426248 -0.021956887352024182 0.014649540878653179 -0.029959718868815707 -0.0012657150345652074 0.0038965269067864896 0.008365088829434379 -0.02792248140725513 -0.03007095593270364 0.014210601719009614 -0.02278015104193107 -0.005570076153549589 0.032195628629523756 0.000487918486654349 -0.011921947819334321 0.03724161829847826 0.008523741302168868 -0.018438103519172678 0.012731722043037488 0.03642378136263022 0.019214136205853563 0.01548019304240367 0.007877677612241722 -0.025476909061617238 0.006005790341449648 -0.03038354246072143 -0.059723154326475854 -0.05273864141293745 -0.00669912614809748 0.017912927952842717 0.03450936153266867 0.019129985899736218 -0.03163392573731093 0.04708690149235047 -0.05064671548228426 -0.010327522680152839 -0.023005700607346552 0.017491262028638644 -0.022773422803929712 -0.010769066586173921 -0.009002627854672693 0.1298818255737027 -0.0030765896093677358 -0.028474737630726 -0.005064013965094659 -0.06735429510500143 -0.03643861282666428 0.08053851316784626 -0.0015133763985546742 0.03852364614845456 0.03240885772497622 -0.09716019175255784 -0.06922585062603798 -0.002036053251982946 0.03333448000334222 -0.006902825038231841 -0.0645019277220022 0.004635893742377663 -0.03768677437667515 -0.06380395385331711 0.03724712487224034 0.09484396339633035 -0.004915849428638838 0.02913544943889326 0.03051738248642457 -0.08499251356275869 -0.02027399691187328 -0.00586107880685525 0.004789571920726807 0.03407771412870124 0.005410747161836969 0.01614083609792251 0.0526561242366999 0.015552935378823178
14633 0.00035346411287738875 0.00031340724107718494 0.000726529708481368 -0.001731696256058299 0.0015001977256876376 0.009199529724410366 0.003630976502648689 -0.010776724857480846 -0.01311757899113722 -0.001434076357372994 0.001368019156776607 -0.006279619372290468 -0.0031897619411896967 -0.00309190915899172 0.006003409648086934 -0.022724379536657673 0.015610445970019867 0.00011536268274602502 -0.011032755381897633 0.0035858020775152485 0.011274969760109615 -0.004136429686510681 0.004957533180635605 0.0032156628528380027 -0.005187981184025693 -0.0016075105072451991 -0.004679552678849305 -0.0029264542769424527 -0.005252556640117891 -0.007121965104421996 -0.0017575389959584725 0.0018962219023780102 -0.007491704529917269 0.009400049034097004 -0.003948450030232536 -0.009111609060811083 -0.014813532044314301 0.002803156610472932 -0.00250801920678031 0.019505496024801377 0.004684383045556 0.01657787868599878 -0.0025987903977428626 -0.0005858112861692145 -0.005321857677088589 -0.014278107798203786 0.0085686762043572 -0.008166741957732614 0.03344104540983398 8.363395665758109e-17 0.0143334992097907 -0.015236999822207683 0.009280327166988562 0.004736289763420875 0.004837653893369404 0.014984849445980258 -0.004157961393168815 -0.0045624222203431075 0.002942318055716011 0.012395036291168242 -0.007663550983562364 0.0055706859329566 -0.024871519612766 0.02186796719949071 -0.012405323323982398 -0.012129633785031128 0.00025022978701330173 -0.013963304384335913 -0.02231375231711745 -0.016215580443599543 0.006294042385186557 -0.0026276368753009502 -0.010946308875921532 -0.010482081729840782 -0.004538628489059532 0.00278607672865081 -0.005229301798649767 -0.008757567567629462 -0.008507534048905564 0.027728658519329527 -0.02741161244855395 -0.002164101461779264 0.03490845549126736 -0.05282398819142558 -0.00809065064889497 0.011667224131020065 -0.017174154301495492 -0.0002427913928403849 -0.011208676090553878 0.01471113743082372 0.01689023398527787 0.002280091560960053 -0.011723562741264675 -0.015720975223009803 -0.024310498489281476 0.014072670462120174 -0.026833881354659084 0.0230534879800365 -0.04464946871643907 -0.001997586313971938 -0.0004736807179196776 -0.03178755057978511 -0.015297677450757389 0.030419548554341303 0.02523017920136334 0.005274101664110589 0.0419384154578265 -0.032052973080012474 0.004893428257614161 -0.005550340662077923 -0.008721610157721028 0.009102785036120335 0.0035252835943671637 0.000714392758375456 -0.060620703974075235 0.008839803374418519 0.069801858929709 0.04678443831917253 -0.03347117777654799 -0.004164149073101084 0.015307227985826302 -0.02700872385808957 -0.02404269957079212 0.0006522280105212931 -0.011695389876992547 -0.02645755087797455 0.01799350168779833 0.07243644899341935
14767 0.00017764237490585974 0.00013957511754322642 0.0003220735332934887 0.00020301995944903728 0.0008421324013424644 0.004464722148029991 0.0007790177319653092 -0.002580529650851977 -0.003790009961025603 -0.002092757198675344 0.001993103590498619 -0.0036387229673485767 -0.00680113293496694 -0.0010699733957349614 0.002326051717130458 -0.01523796607441865 0.009733300365043253 0.006659684383797877 -0.011469625506642192 -0.00010310362320185154 0.008249633727222608 -0.0020879347616575305 0.008173090876860736 0.0019261210515107102 -0.004480038417742208 -0.0011505335256244524 -0.0038608929258721557 0.0030478795591805615 -0.011951298530840206 -0.0045079320803536336 -0.0009429163727528811 -0.0011642931160872432 -0.008251684212435679 0.014262330865008312 0.012236058562068653 8.57453098271864e-05 -0.016715015689811805 0.0067644556254096875 -0.006499137285330628 -0.0012803961166270895 -0.002545686551545384 0.013245812149782684 0.0020248624139724003 -0.0006450317199463708 -0.0009123403227820283 -0.0007430670330163392 0.004373612167141907 -0.003084995007546464 0.00584596450006061 2.908604919178412e-18 0.0005885890954904063 0.005408516015157846 -0.007117871209217717 0.012096567700029032 0.0008571434526779526 0.010137309090290116 -0.01713145325547008 -0.013631710379151677 0.010688734241871873 0.011352883163853748 0.008958000893619537 0.05653826471726903 -0.003327906152678472 -0.005629682754839943 -0.01191684316338783 0.01962178740812419 2.316053554360566e-05 -0.009965063055650737 -0.034336393160342454 0.0053717017856285436 -0.023579811809727708 0.02637541173960276 0.0037878603589300243 -0.003785667575224304 0.01623506539850848 0.0015849577320496838 -0.03319499266092962 -0.030127650543304258 0.004092621673014068 -0.04017231592930122 0.052932309246672964 -0.003169793577000347 -0.02633688861821934 -0.029260950292294502 -0.058429059849827755 0.032480360195844535 -0.026601781415577272 0.002986271378436453 -0.027719067390504972 -0.012081585616015194 -0.013251802415020426 -0.017638774945406135 -0.07756443755651297 0.0475320427418581 -0.037417008730777114 0.02544895582289861 -0.033304537838172166 0.054914017153256015 0.04534512281299674 -0.019485859297442277 -0.0030109420326934313 0.03855525707730596 0.021247947522328597 -0.02228332267467051 -0.036174135941739634 0.006700450697952445 0.02815150233709429 0.014350051481129288 0.00810266240515237 0.0028744343450629204 0.010404501456890774 -0.030184483902385116 0.02452862385386655 -0.0023938151922013 0.06868303325775879 -0.025481437060364015 -0.014593626899642897 -0.04855762877394064 0.006851957609595224 -0.020693354482978602 -0.011125189863114605 -0.009146341251312567 -0.00028004615422002086 0.02964644269787553 -0.02691549908173213 -0.03300163260283969 -0.042384707657973975 -0.013124824988532766
14776 0.00021902693753016848 0.00013491580218301464 0.00037602334292998174 -0.001088173528687901 0.0008727677400160702 0.0023628482280134864 0.0015466228312309284 -0.005297359027295791 -0.0061179809689290215 -0.0052918617905761385 -0.004177442825165267 0.000648167855874909 0.008375926005441434 0.007853278906916112 -0.005486485613122899 -0.007063323505791788 0.005676205970611284 -0.01546566141114746 0.0010159229336921562 -0.05632370060822059 -0.008033967379348759 0.005560650810635742 0.008578230422965322 -0.0028583922349501695 -0.021769301875457378 0.007989933619521779 0.014133210533874119 -0.0070149259923172015 -0.004817524934711296 0.005876338317303784 0.0022647410127379147 -0.005783183540500072 0.0037399241135529213 -0.00770463779734949 7.510060894352495e-05 -0.015129281503046115 0.000373158333096922 -0.007515090734115763 0.011641306059302832 0.014753219252823996 0.01782132570294444 -0.011038806707373908 -0.006596315269952209 0.0017810044689911847 0.010616143119458979 -0.011273177044667041 -0.0014689416903275493 -0.013494047088527987 -0.007758025215503876 -6.412591628061504e-16 -0.00936363631022462 -0.007771172086929769 -0.008649954772008597 0.02507514426499469 -0.010513434520190993 -0.006949947487452971 0.006274627325699342 -0.013219539928159033 0.03340389176554581 0.010552576816736235 -0.034699250230857494 -0.00037037505579618564 -0.03154260395584485 -0.0336453924848158 -0.0170684320982601 0.01922740159418693 0.007578848341334396 0.004605258506309186 -0.026638367047640762 -0.013767477393138203 0.02964398043147293 -0.012681778995999808 0.0018090189104472802 -0.008121616688253808 -0.015566226661804903 0.022265176188149008 -0.025543600767595404 -0.062161741691656835 -0.0037231927355298143 -0.035079216996100754 -0.000997862529479303 -0.015665563461637947 -0.022204524787166995 0.03116195719966544 0.03814400978762485 0.04050989958760289 -0.014478481146293782 0.014542979449519768 -0.007896841314265149 -0.0257664485734235 -0.008071858158988386 -0.014552877254828414 -0.005134796686410516 0.017297605558889206 -0.010081790955905709 -0.0268233355479411 0.01806583468615564 -0.014214574117602286 -0.001954937696957396 -0.002357752720042547 0.02924911469561728 -0.018856555531068298 0.010196166095592981 0.012877930486674365 -0.020688437461176122 0.03271610588464391 -0.016050618774783663 -0.013728645489456034 -0.023998579142850047 -0.009171731490122561 -0.04153174626591267 -0.03631221484557625 -0.012722782488001917 0.05355539618651818 0.026730599781252088 -0.039200149818009435 -0.011232618466689243 0.007738989422628569 -0.01485524590676494 -0.0015320663772469463 -0.018527992538921394 -0.0020440952053163543 0.0008552254437729765 -0.013787858592241374 0.014841626275229657 0.005270339200304331 -0.02122785085738862 0.005235060166225947
14528 0.00028539245104871745 -0.0022398260643900787 -0.0004662768561044533 0.00034805889166501395 -0.004717568065069715 0.0029679668335167875 -0.0002650544599558254 0.029427701408758108 -0.021768097672790202 0.006802350168133121 0.013566856327197199 -0.010404690724031237 0.02241382222640344 0.013909652055322434 -0.025969085915431032 -0.007963530918545712 -0.04822713052385019 0.06535664019071476 -0.00853902155244451 -0.006383099055885927 -0.012468671539525624 -0.05851470955567153 0.12893403136839687 -0.02071157113105129 -0.006369848770798905 -0.03819972549471129 -0.005873020141363929 0.0012123975755084812 -0.05124890627642571 0.00899887374443703 -0.031776940898635544 -0.022945919240658672 0.008755229255942234 0.01960281685961871 -0.006880520862435746 -0.017967785016141085 -0.014796591198160665 -0.03968235137850129 -0.008015606851353232 0.0005136654943962219 0.014892933517893482 -0.013111130038643424 0.02343226049420901 -0.0060036660753039536 0.08017177899852986 -0.019216981027299886 -0.027540053500692104 0.03081401966954257 -0.003173322146209691 5.396054572127589e-16 -0.0033480365665771077 -0.006661490612773282 0.059527572300803994 -0.025766744115629268 -0.049443238777057745 -0.020732022522900125 0.045063008512044395 -0.015305777694588641 0.007216180434551581 0.03294128523187293 0.0269796062272519 0.0021236844340523668 0.028931135135814558 -0.007457822038188785 -0.019005846042179204 0.028144383711335836 -0.004395324591944071 -0.003962354188084375 -0.014960530181619061 -0.04781320053673935 -0.0415936870177765 -0.009248789290992463 0.02823005473675863 -0.008485493613126774 0.01348057938663722 0.011317366481854354 0.027906067974443588 -0.014808788468591782 -0.01214640158998158 0.03975400337205348 -0.029794490374787336 -0.0005050410472568314 0.003269043293097693 0.027063891288811714 -0.006176238942664226 0.005926637762886166 0.0029249343205861966 -0.008607956050941046 -0.009446488148878959 0.01842253903834468 -0.010926845575371553 -0.022070410582565914 -0.011183860440470119 -0.0037156766771534546 0.030350753449155637 0.01176191006456914 0.009069284880230453 -0.0001784157473541165 -0.01275496130338223 0.008838153950317607 -0.014734607309402783 0.028037171713516103 -0.005998647993718174 -0.0012346467723929357 0.004727373673002468 0.010748276343481513 0.005322519959359423 0.01253705436730436 0.007865309676754499 -0.01910929655423519 0.01396041051285887 -0.0211911371052626 -0.013410177381090021 0.011346407745246168 -0.00848858407704724 0.003465903276624311 -0.017763673535676542 0.03379150287913879 -0.027463788322017166 0.003578563707572933 -0.0038916304705840427 -0.008922792641890031 -0.025138593160086643 -0.019430065061524202 0.020907580818665557 0.0009766427731313255 -0.021920684706754904 -0.029959385423063305
14549 0.0002894452273609886 0.00026990165633616897 0.0006547752913901652 -0.0012952520583300762 0.002124735351159328 0.010320440413448654 0.003664193565488476 -0.011494307951250567 -0.012649682070148735 -0.004071386302573328 0.001359404422342993 -0.011260280565476294 -0.001988161780588375 -0.006739079251670788 0.0016571600875501917 -0.026788171273180308 0.02181818706233659 0.0034071040294708604 -0.011124827074223147 -0.0008892299107790965 0.026689855669835817 -0.006710656457129531 0.0049084367546409465 0.010140824384718439 -0.017312811138333817 -0.00016176904370278285 -0.008683790361160218 0.002794777434049845 -0.004730494756865501 -0.017058178089164773 -0.0004995412583612188 0.0050975368967051795 -0.00938812884785875 0.019956601811905887 -0.008062364322668093 -0.02082057161484217 0.015121628673501515 0.014724429181983304 -0.013255753894938523 -0.022449403930098182 -0.0006578692653453902 0.009646275131514427 -0.003321835997818353 0.019072013993975522 0.01636079875394884 -0.028950007172940814 0.027037871625404462 -0.01693586878025909 -0.011913437982082492 -8.021574206204376e-16 0.013271119044988624 0.005533857635546935 0.01976795444505675 0.02184884035393415 -0.007585007802959409 -0.01575604093644461 -0.0008791205836360913 -0.012626933471139346 0.016529062238094663 -0.0016963770858738347 0.022173746065744737 0.008047614510120156 0.005862229145349568 0.018013734625186652 -0.03677948978356266 0.006714490894579284 -0.020213898592998603 0.04095994783520628 -0.019081234891789478 0.01589612105671155 0.0161630283174536 0.009705403831666935 -0.008677035352242504 -0.008999655928602527 -0.004145630621027273 -0.01842276860394162 -0.01689989877275994 0.07083426100584804 0.01335724426355113 -0.01921588758314342 -0.041131084524853624 0.011035419277848903 -0.04629915835824587 0.03692411039734847 -0.012295959576094752 0.00513243258617968 -0.01633416110816746 -0.02659601640470124 -0.0015014531953898565 -0.0352246943157123 0.017471866209816937 0.0070231826405803425 0.02309098953892343 0.007601404894046477 -0.05376530309883906 -0.02158321115486111 0.0029869454185196417 0.01591969243345701 0.026693004335716346 0.00036381951879782743 -0.010218182248923475 0.01058438612729817 0.021691647445382982 -0.001219734485226627 -0.015515365291394908 0.04360509226243333 0.005115979723387195 0.04635011958869888 0.07665447488723366 -0.08015447034511454 -0.018056975875270276 0.012892816728863846 -0.06923267070920004 0.044634663254240745 0.007210010540571432 0.011240753713445881 0.05409486930396485 -0.017969392143967096 -0.07033010544766054 0.058023512422217 0.07894611174555755 -0.027524043886217875 0.02548333923657103 -0.012244500571038382 0.024231489656875348 -0.04695420063219227 0.019998629378803232 -0.00928337190502099
