1377 128
1554 2.669053368313293e-05 8.53905762396246e-06 3.86541214746067e-05 -0.0006192516396570786 0.002609558898653488 0.0004715483897346961 -4.001583195617406e-05 4.40149660969521e-05 0.00028125460592000974 0.00011278728021242846 -0.00019856682534808524 -0.0016217915814276177 -0.00044089363589094264 -0.0002022268573472606 -0.0010031622424620142 0.0007967626135983698 0.0003094963022338348 -0.0008567359480502496 0.0025189264428425364 0.0002950949084419841 0.0009639348829194523 -0.00036763530873225363 0.001334338242608142 -0.0006416802512109279 0.00354128243597432 0.0011118187923743698 -0.0005968797708376668 0.002373010708422305 -0.002627813154480714 0.00030503904534475237 0.004563219457131621 0.004031704041556681 0.002387428903838311 -0.0005465401822819809 -0.0025536489518037573 0.0008293870312155442 0.0007158625121425113 -0.00017647083988492799 0.003672705142555015 -0.002588790583026703 0.0017623996389807598 -0.002341347765402402 0.0001276299134592822 -0.0017652375623960412 0.0020675918204306402 -0.003805411102424355 -0.002320741709240212 -0.0002763367520141091 -0.00015999679200599085 -0.0027191587834564743 -0.002315366720216785 -0.004095492521325928 0.0002624940692827705 0.0023339024985547544 -0.0007638966769267105 -0.0012858546225536646 0.0016729473733358554 0.0007295616197004835 -0.0016563593466031278 -0.0005944532415345006 0.0014874136983425174 -0.0006550923957470534 -0.00496636212420691 0.0012330540059527885 -0.003288713172890518 -0.003170328032158106 -0.0013145942197506442 0.0005313696189539861 -0.0006851979192832853 -0.0025416430070220077 -0.0002454171938942887 0.0009621528828346147 0.009547304373871671 0.0070990623190988955 -0.0037267296612016184 0.0006712333076985111 0.002223969890715852 0.0035240912378292745 0.005985275443654203 0.003954172281061463 0.004969242362699876 -0.003961921818196019 -0.0007602390342532233 0.006635727311275382 0.0023055838894466777 0.0021392217496786227 0.011169881137336026 0.0026236014194838276 -0.009710323681836094 -0.00023074493638830819 0.005770913751384914 -0.009982450886251533 0.0028873058390985478 0.00024009669580903032 0.012224326297048801 -0.003410314766000346 0.005895725631458877 0.00572345667596048 0.0034424585560479583 -0.0027236701305720346 -0.010104362532451916 -0.01507982754125501 0.0040048680918888 -0.0017127999436831148 0.005219568892742708 0.004353273007832648 0.009576612939234994 0.0004210264056649451 0.00012751899398432277 0.005093764833729204 0.00012097477643090316 0.010535869234135025 0.012944881531669044 0.024489140021754736 -0.004188582497022538 -0.0015435195702308729 -0.007213843894072469 0.01927875537976934 0.028991813898097785 -0.005213276617405553 0.01708107937841866 0.012524556646522028 -0.007361859516862923 -0.014834790173149981 0.008151707546318745 0.0012598802306716338 -0.03306807897366392 0.008987165512360082
1874 0.00012057102860589655 3.6356882437811606e-05 0.00015835083231141727 -0.002194784559812424 0.009172731922659856 0.0016319843012279742 -0.00013540845400367496 0.0001486457554012703 0.0009431227816570534 0.00037585768879717224 -0.0006599604825269369 -0.005352144460748712 -0.0014493441283523517 -0.0006638022547271504 -0.0032603471725308184 0.002570413225485641 0.0009911754365855164 -0.0026963590592277067 0.007873727530328202 0.0009188715658941817 0.002991849423942553 -0.001138626801785942 0.004118832339029965 -0.0019742770307837982 0.01080552472928454 0.003363859125529332 -0.0017847035079170642 0.007050237515522677 -0.007586282708084932 0.0008754249659059046 0.013005301232518451 0.011418892124707414 0.006735648891570289 -0.001538934861025688 -0.007119704822818657 0.0023070521259375004 0.0019762294390282425 -0.0004862279599741674 0.009980633660453733 -0.00701161913553186 0.0047392595820563805 -0.006277404699096354 0.00034167941404327493 -0.0047078390539953534 0.0054984585021336544 -0.010097463219119944 -0.006117235346788252 -0.0007246830291608256 -0.00041888901486954085 -0.007094624252603234 -0.006015962153183321 -0.010570234474540013 0.0006750292450955707 0.0059872698399741605 -0.0019523310547270426 -0.003281734747271108 0.00424971182982254 0.0018416662123994449 -0.004169513836725443 -0.00149453945656584 0.003700377514595278 -0.0016132612571997113 -0.012167872275528487 0.0030024108109995267 -0.007954715836333767 -0.007594834795670054 -0.0031434166969061114 0.0012664701029065674 -0.0016224163435670368 -0.006015206708795804 -0.0005782378326652663 0.002259752901850349 0.022309123106389248 0.016390394287638135 -0.008572762788060097 0.001538893887450644 0.005086125223689062 0.007978509607476304 0.013538203204179358 0.008896715417594606 0.011080902315697869 -0.00880047792278338 -0.001685944601576708 0.014696436812544166 0.0050856648913009265 0.004707397213905271 0.0245408895835482 0.005726297228280281 -0.021108510314737025 -0.0005011016059162608 0.01248991840309526 -0.021386011852476884 0.00617206292895501 0.00051244952699938 0.026022236382339605 -0.007245224803838979 0.01249037507905707 0.012061711400162866 0.007220420316389586 -0.005710083579015906 -0.021082427512166907 -0.03137514631194513 0.008306249679802568 -0.0035400318131435563 0.010768499368970097 0.008942010933984723 0.019611572674362778 0.0008583764861090068 0.0002599132829677961 0.010271135430005006 0.0002427353781648041 0.02109794943716503 0.025884459312606627 0.04887466923850268 -0.00829675075636744 -0.003046327743582409 -0.014221034677310812 0.03786457293842347 0.05682215457308039 -0.01013442137060819 0.033164052952282114 0.024192488286502875 -0.014114020565206857 -0.028292965197711708 0.015480384581128246 0.0023877600946297056 -0.06245603207533253 0.016940679907083044
1555 0.00011822261274890224 0.00014117085568760923 0.0002844905843902567 0.001232023272330833 -0.005235621876661303 -0.0004277623149334457 0.0007517304375201326 -0.0034650299434403377 0.001753949929420681 0.0006298023619556831 0.000381868498174611 -0.0007604469724409167 -0.0003517433981737929 -0.0007617039828063471 0.0001398807115285789 0.000663615081121656 0.005543930340337594 0.001621178430225751 -0.008845337216557043 0.0023413060257469424 -0.0021849246457943485 0.0017193873174296908 -0.002097120963594046 0.0033554169352367144 -0.006629628482374131 -0.004936548186697173 0.007286128265734257 0.003145825071915195 0.0029799079492861887 -0.002654957883088831 4.6951905897530857e-05 0.0019265117130889 -0.00877440649040798 0.004201196422179792 -0.009263530438457453 0.004593438464050905 -0.0068275726556081264 -0.0006979343302252459 -0.00043446712046154185 -5.5804733777840515e-05 -0.004823236570996359 -0.0037969269723097474 0.001954868874154059 0.0070274757474316114 0.007177306218125393 -0.008818983726013285 -0.002724586247455391 -0.0021157798781843624 0.0022000794190936757 0.0023932092459548237 0.005880379863376762 -0.005704741327350114 -0.0029083629089694343 -0.0013477962390194924 0.014338864564776673 0.006570735938285545 0.005307589844085559 0.007673826690269697 0.0013249705381450014 -0.00884296433472429 -0.005088705340375463 -0.006370807680876032 -0.0026510660933140064 0.030970715181585635 -0.012021236728965299 -0.004742632622288803 0.0007076043891842102 0.015052843409516238 0.002194842192001962 0.009171358845836775 -0.010257593044379572 0.0061494253373987765 0.011680105989038476 -0.016581234057268003 0.004965023648352617 0.013285511239529675 -0.0019564590066481263 0.008137063984804259 0.028295361363496092 -0.014504696753547387 -0.006989798605399624 -0.001959160333219221 0.005770260732312361 -0.018047601023841963 0.000546518261032631 -0.00419152494221621 -0.0021814717924963094 0.02789287805229942 -0.004351865088893533 -0.03628876600780457 -0.00025232792182226826 -0.04422607738510623 0.004154868846240795 0.019699895318224372 -0.011406613130869934 0.0022212054403839827 0.010995444075351291 -0.011449786352525712 -0.012446372965257049 -0.0011076432466793778 -0.00605516216162065 -0.01907747444417622 0.009519094152380041 -9.71061636878956e-05 0.007649970955451509 0.02125367142336575 0.01153833722056718 0.052002604907965766 0.015851052646916185 -0.005212773470238415 0.027923504966852825 -0.04193105097075186 -0.015619854738791345 0.018202666535512203 0.0027337951298957493 -0.022592986754613447 0.02008516817744827 -0.0032638601598446123 -0.00493731602475762 0.014300135507263969 -0.026835761627774415 0.03485618282611589 -0.02384794760579379 0.011622339565628866 0.00875830321008644 0.0018326916248818119 -0.011609452026750634 -0.0095816160714997
2305 0.00024280203773125285 0.0003489632447925592 0.0006308727640594675 0.005874073490783935 -0.020381155916695686 -0.0016584670244367001 0.004178142896769802 -0.007019851811023033 0.0021913725702162375 0.0007274429051314474 0.0007805358924878237 -0.0003776624526617957 0.0018399405358259268 -0.0014531724989260487 0.00022785707365914712 0.00047402135011017477 0.010744703788424452 0.005005746706159309 -0.01659764211078334 0.00789604887111852 -0.0022546389363251916 0.002573213207298907 0.00043972190795580506 0.0044944206771331836 -0.02443053844691814 -0.0070554807823796535 -0.008038679759814411 0.0042068956134924985 -0.003967806176487971 -0.011430809189155502 0.002026693534120154 0.005797032742629911 -0.012377611418103009 -0.00108182137056502 -0.011563291274363003 0.006005127692458532 -0.008720929564222706 -0.003263699885821106 0.005182645195583845 -0.014818855726529615 0.009626562443478863 -0.005216670793124145 0.014895378941911753 0.003021151772574698 0.018349296828873245 -0.001399202754985843 0.0007844519555201812 0.004183796131043153 -0.002822088908600865 0.001913696943023108 0.00914030366575609 -0.0017395622260248855 -0.0009154118181197721 0.006746712915281876 -0.010410912810184428 0.0015990058054903486 0.003104326524881265 0.0004801904344306506 0.01244278723406533 0.0015330010939104666 -0.002860266185402714 -0.004435761320015203 0.009064837129617975 0.017852658527087683 -0.010300836958209799 -0.006251655967296516 -0.010869911735054805 0.00786350043614952 0.0009357808112242249 0.004055453940819426 0.002736463529175586 0.004609631985303083 0.021835390152953316 -0.003867824111428994 0.0016249651615724186 0.011096126291201294 0.012137733089442744 0.004893512992576095 0.009258135112589322 0.002403463040032108 -0.0028628556304219222 0.0027265403512747037 0.019907888418791535 -0.0015338555578065338 0.0019264246275606538 -0.007011837944747555 -0.008589414453227221 0.015591895551275391 -0.0005082123630551242 -0.012710383187352665 0.008566916733742547 -0.007454051386319467 0.003763481057183143 0.0015450781825066316 0.006248939917584167 -0.0028722068073760917 0.015312593378038466 0.00285503360524673 -0.008908359611608612 -0.0017085446571092587 0.0077365688814445025 -0.011487717715499982 0.012435354442515912 0.009012857276507552 -0.0007628554634425458 0.012673078344073465 0.007794263422938412 -0.0012681386658090843 0.02365679207315921 0.007322829050189104 -0.0025153195784236738 -0.009845745978990676 -0.008129163841575011 0.023992915443018722 0.0112415649874125 -0.0005582541690815889 -0.005463441839952139 0.0033538536499839655 -0.014710109378010023 -0.0007038296178940956 -0.012454378934072289 0.0012322502035842092 0.02364051017971739 0.03660566316604785 -0.0047286738966556205 -0.007951342975666884 -0.008769081469057928 -0.014416297243959712
2820 5.633969548546754e-05 -3.7298681026115694e-06 0.00016297970474509195 0.001067232407797726 -0.005372228843404196 -0.0003532613359551545 0.000348902264442568 -0.0034539306431668757 0.0014203150241463055 0.00019496504007251945 0.00046289427722520605 0.00024844368877915745 0.00048320596466957155 -0.0006563658665428528 0.0007953587945844675 0.00014087588064890964 0.0035680611084797633 0.0014820530631050324 -0.006199425297776196 0.0022960723228650595 -0.0025193932843100802 0.0020789767435835547 -0.003490950514078225 0.0014554918829085854 -0.006223268348337003 -0.0031272063604089045 -0.000490621002959024 0.0019720520330144694 -0.0011499314150154193 -0.0013739898952396746 -0.000989171209502357 0.0018161876529633307 -0.007725325761805529 -0.00015498624180625194 -0.0063906128879057215 0.003533340789966768 -0.007104680647099378 -0.001159531364906691 0.0004947271715179245 -0.006382294526004467 -0.0006399316621711658 -0.004676161644552323 0.0050556241938002795 0.004849437826733706 0.009431530158102261 -0.0011134250436870756 -0.003837895813018121 0.00032482646562384646 0.005052493818702302 0.005353335406273123 0.012213503912316891 -0.010559644331858038 -0.004267180845101132 -0.008418511928459504 0.015809536393418522 0.003474698751991267 0.005663164756618112 0.00893152439084856 0.0067389033906362595 -0.006807130847175149 -0.005078350872647332 -0.004766687582296258 0.00282510506986307 0.01801279421441545 -0.012672487563562162 -0.006368041400885676 -0.002457870128010972 0.012186314819115546 0.0029159799438521388 0.009603415358888801 0.0008025726656491266 0.004110953288264643 0.012548919740134008 -0.011013581816958395 0.0015018860977397235 0.017841556680916654 -0.0011271167930478753 0.012997926092677137 0.011816651547463359 -0.016127259288012525 0.002636682016820509 0.010164832955388434 0.020795024181855394 -0.0054350592604429015 0.001729303043499979 3.0859185702918297e-06 -0.006124953316180242 0.019903896418791128 0.0035528373112443177 -0.009684621125208393 0.01745657503628915 -0.0331323158657579 0.004327335641260686 0.014367391228870792 -0.008637637817357456 0.0075513874470073405 0.012958224061154355 -0.008943255899511705 -0.014408388202737163 0.0026578305494850537 -0.005811894788963166 -0.021458084335103027 -0.0014249906242078873 0.010831496199734005 0.011946808622152739 0.012245590455522693 0.017861134149201836 0.03383441692284164 0.035477881028237915 -0.004465121720399685 0.030604687504916014 -0.0645568601652026 -0.0004357416140137898 0.03120842473523271 0.015838357212466802 -0.03907945597189525 0.011297503064378059 -0.009531805863557015 -0.014496447345978384 0.03946423483018725 -0.033033690777520525 0.044189558354840584 -0.027224638896431536 0.011447151160125232 -0.0186221744176715 -0.0034437051421679363 -0.006959697550868725 -0.020614285976274318
1933 0.00021359695670532144 0.00024392471613577437 0.0003031362706247837 0.0023074732231069617 -0.004485048851644646 9.44518959508403e-05 0.0030152240221039753 0.0024505905695009766 0.00021508225193432246 -0.00114294698471429 -0.0008599808047947706 0.0017178370310386123 0.002778701005374368 -0.00025746872958422486 -0.0017354204104445346 0.0017189431863385615 0.0037855426071435514 -0.00018209575811861312 -0.004595960141035798 -0.0016683835746700933 -0.0016443947323413314 0.00242476638463472 -0.0004534343787086646 0.0038278551245997535 -0.0032697229754713696 -0.004326342503728306 -0.0002089615259605205 -0.0005301525591126167 -0.0018492816510762393 0.005317545563467594 -0.0005956747236204268 -0.003119695120876776 0.001313010464607722 0.004215841149710476 -0.0022823198575597113 -3.0402434114409423e-05 0.004325316127088272 -0.003170343838082444 0.0013252898742232054 0.0149242525656436 -0.008469295565378768 -0.0032364299483674057 -0.0040226503482835565 0.00038724876241171756 0.0036552722458157824 -0.0010612561066260552 -0.010307675463134675 0.0034036672553072766 0.006584391678585732 0.0012020029048541827 -0.0090651334057148 0.0007593185046716091 -0.0005739992284567086 0.00227471240862177 0.008196593135085884 0.0021700907843801073 -6.263887330572616e-05 0.013535824103420304 -0.0018372849854969753 -0.009180307000631422 0.0038331354215993697 -0.0007492248300564136 -0.00019638681283397054 -0.00038635214138429025 0.010350977769034741 0.013767710696192986 -0.00029486330442674583 -0.0024370988962159152 0.012575381940069625 -0.004377696546821479 0.010498540822738909 -0.005309568991253451 0.010504664661389993 -0.015298811958206034 0.0054837885101958325 -0.0033044164594610887 -0.011586125674709713 -0.0074249653922335256 0.016207647555251174 -0.0024411713609864727 -0.012001051708092608 0.0174615902634047 0.004620125661241849 -0.010956557256550056 -0.009125926415226186 -0.0035441564859306908 -0.01229966963210463 -0.00431166064747091 0.01517891932602085 -0.010702559004019929 -0.014086295854762664 0.006623284366657849 -0.014271174341693052 0.0028468127235599496 0.005404549734765832 -0.006439503414022046 -0.0013773770620921812 0.00722153487234988 -0.01233345060843708 0.006557605620140757 0.014966406521419411 0.01369923254169007 -0.0056176342414630065 -0.0025697074421327888 -0.008055262011761086 0.004338440497286635 0.010919147874692288 0.022705530914217203 -0.008918118395937886 -0.0026304980305361875 0.0035060284345487407 0.007230799697952366 -0.007249175223221808 -0.006443319298201283 -0.015617578419016514 -0.020763407346579915 -0.014785161930311473 0.021580490407009954 0.005418199219647376 -0.010260403347076261 0.004225187665605261 0.0006547997218691379 -0.018955175603359357 0.003654605391484356 -0.006748367065587501 -0.01009624696278705 -0.008270792125742594 -0.008696146060121689
1682 7.900988264647334e-05 0.00010975594339365955 0.0001608150431863612 -0.0010839130089659486 -0.005900134762189645 -0.00045851613898831127 0.0004067834777391692 -0.003584837307359746 0.0025541448490120056 0.0002855882608449179 0.00038271085074387885 -0.000947209343960333 0.00013074175836643644 -0.0008897793284258604 0.004017141480987508 -0.00033264197059097885 0.0035136711408301157 0.0013592490543969306 -0.006309681938384599 0.0022583022165084676 -0.0033542938975512308 0.0022499901458753455 -0.0037882488928680613 0.0015288029882603458 -0.007948986049264384 -0.0037336569541305 -0.002547037474243018 0.00288535921552902 -0.002120090245932338 -0.0021397788100366243 -0.0010684684749710243 0.0038952446128047106 -0.011846815643956767 -0.003869850336974573 -0.00660341353097798 0.0043455584270393885 -0.014129778502765903 -0.0004724422036584345 -0.0035568885454472766 -0.011934979691289723 0.0014930217571240093 -0.006934059900659859 0.013462287922318069 0.004814946180083387 0.013314785925074686 0.004538066342146114 -0.004237405183775756 0.0008152428310331378 0.015383219374444456 0.016574729702425236 0.04141413324539461 -0.0407035410302225 -0.00969355044917873 -0.03582630822953755 0.04710886017897214 0.009137355862604257 0.010304572220685853 0.004610801679455447 0.0006983687208480784 -0.02619154089256718 -0.012163448900770524 -0.0007226471144789291 0.004635970512862557 0.013357981436353293 -0.004746376939387207 -0.004857459953547788 -0.0009784852557472978 0.00694954200241579 0.006349428113887578 0.006790213498443527 -0.00040678505662456956 0.0011347746513032512 0.009122461039134012 -0.007485916846880118 0.00327916753029818 0.017121470461207683 0.0011076179449956596 0.011267685837195602 0.0062604959361729105 -0.007578837692103542 0.002674767856721923 0.01768571676868076 0.015104803217289126 0.0007945335780717062 0.006232907400560155 0.0015599145021380732 -0.0018553941245810764 0.01577677757850101 0.01125117470601205 0.005558150990534409 0.012592589366727419 -0.028208987564839284 0.012597576009372183 0.00446470983952592 -0.005656166670790456 0.015591010652192469 0.010749511924420717 -0.013818314754343548 -0.0027920302232445093 0.006997351032299385 -0.001038848627880692 -0.013106885139841583 0.002336967068003538 0.0075637837026144095 0.016006003319752847 0.007563489339020761 0.0044216601018355 0.030496328847182966 0.02174467069123868 -0.004246885869067857 0.03277803548206497 -0.05018766951279559 -0.002401772518958064 0.027292238611336703 0.015667725583104003 -0.0285537936957597 0.015224266887174386 0.0026823101288541706 -0.00856690316517555 0.03185642274017674 -0.021329461251219182 0.026570383712230732 -0.02672308877879358 0.00844329217851678 -0.019735303426394877 0.005683377841356534 -0.0023119492593588996 -0.006391948635631761
2115 0.0001862457761056565 0.00015516437133201866 0.00046630745182685935 0.0015699877343050789 -0.004469782744054849 -6.064974785921304e-05 -0.0023138733131919673 -0.009858009344439742 0.004197458216778041 -0.0013338651375062395 0.0017802056001911552 0.0023711956733716787 0.0011150584352648649 -0.0009647690307069591 -0.004021277092144007 0.0012910656542276465 0.008020439102775558 0.005665387521963044 -0.006620781440971767 0.003133594856646537 -0.002523021404688412 0.0023215591778139783 -0.006845306330146647 7.536825222794308e-05 -3.282208802257131e-05 -0.0038763229575840075 0.0007453862903004079 0.004187795172104331 -0.0005647578935278627 0.006863112031007489 -0.003870733716566536 0.004759156270328292 -0.009701552677214401 0.005277628984927867 -0.007484150297486835 0.0048435160264808505 -0.0066573201086075565 -0.00513169113355054 0.006485559892451783 0.0026882019888254524 -0.009230125109937783 -0.0017279735871666838 -0.009232473517718432 0.0073612898487373304 -0.0013531182918130194 -0.007218928110376279 0.0021022944099247797 0.005632463003825458 -0.005051644986063894 0.00027042332276052544 -0.00913790868574147 0.004909243188030322 -0.0031374817454054593 -0.005352228163207389 0.009237329004960385 0.0073893570765163515 -0.006906293694169 0.016012467952677342 0.0006335004207908667 0.003525195167585337 -0.0008980370882911946 -0.005364487409360823 0.0016619886203404874 0.012312001494319939 -0.005688214749780595 -0.003775621198813942 0.00013591730865195653 -0.00609734743714699 -0.002852421485819283 0.011588504491213306 0.009572336146909792 0.002930926214173956 0.000952179944617578 -0.0006588745108279322 -0.003259827035472412 0.0014034605797691422 -0.003790682421279234 -0.004684541279274734 0.006645765936832402 -0.00894511625444356 0.001397222582875461 -0.0016298681205438902 0.00442251078148093 -0.009573384672091172 0.00669666991074514 0.0013299334654952278 -0.005464683049719734 0.0023987575020820895 0.000844223823835587 -0.020920691056828387 -0.0003343844598903223 -0.00102720787207763 -0.018738130744122655 -0.01987743853597052 0.00611269128806617 -0.007828532252600693 -0.013310822641943337 0.007816616545243151 -0.019334306614569585 0.0003464980367178742 -0.009336019590194438 0.005121146192794585 -0.007717931129107391 -0.0050541273648290865 0.015377922045610936 0.00904141683325164 0.005128896481743761 0.02250787690391276 -0.012046984122001383 0.00025917379240420976 -0.006659067913339196 -0.0027839524212644167 0.00475421848446091 -0.0013968126828375208 -0.02425112748198082 -0.007221903383440009 -0.018632167330797783 0.004393073923447273 -0.0035541925406318655 -0.019307625801152972 -0.018078463307774226 0.01899275541612308 -0.007386529037292119 -0.017407259442601394 0.012881892055850568 0.0016556906277138718 -0.03501613920947815 0.01233355481899974
1558 9.271602868087004e-05 0.0001753946765731393 0.0003072195758992273 0.003920654489344711 -0.01220665945629939 -0.0005996806495215349 -0.004609835491233971 -0.0011001836489742977 0.0016407627743264873 -0.0019169515800654886 0.00032154346560883055 0.005394930014897255 -0.009065087034707597 -0.0003982131927692391 0.0053174981686329005 -0.0025742141582920774 -0.0009255110818899727 -0.0014854549896025238 0.0012346229131761938 0.001404439511154726 0.0010335709369061479 -0.0014071005926883013 -0.0015533292801804008 -0.001453004957120877 0.00407200285228938 -0.0020572596728929186 -0.0006771388379191555 0.001984181170494316 0.0005170099946352978 0.006906130245498237 -0.004257143481468766 7.898859021733468e-05 -0.009359886200988909 0.005339472838125255 -0.009614840185744324 0.0030347297015072858 -0.003649165629947185 -0.00021330437506050228 0.004008174920904677 -0.0022808137466820543 -0.014088498173015626 -0.004553832889628536 -0.011680226337132359 0.01349608347174213 -0.012580895644994443 -0.002671059101315011 -0.008117327669822441 -0.008019935071623165 0.006874531168681828 -0.013470722667372367 -0.012659055003320431 -0.0005218165056245208 -0.0065041524095796974 -0.014801746651077653 -0.003471943871881133 0.015194142645712654 -0.01329385593317599 -0.030010079139724984 -0.020038547693452213 0.000677748495406556 -0.005167553203169945 0.01685472886038006 -0.01837821393208491 -0.024498793952490532 0.024473975003335893 -0.004229622574310106 0.021083064809463453 0.010993898221784532 0.005998998325356463 0.0019679817204338703 -0.020955664291888196 0.017299436906017405 -0.005594505759921054 -0.013045687564990357 0.01936106738101839 0.012039033822096111 -0.0016106048303952147 -0.011406283958665955 0.009631991711135827 -0.012697275877496904 0.006167760848613509 -0.011586739951595025 0.0026580717302394164 -0.0019515114175046812 -0.0239023109791173 0.012265739075291444 -0.012769085264682553 -0.011471943610909646 -0.002427033909159147 -0.011231651491894586 0.018841118322208184 -0.0017200804330166478 -0.008515109196765262 0.02424125968363844 0.011814137948195802 0.003372145040888939 0.008667069278941418 0.014942067360272837 0.002500257932699872 -0.0009822747312652964 -0.0035293097294929517 -0.02158143036903884 -0.014127243233245091 0.020265825338613038 0.0026486755475282602 -0.0024494939664763196 0.013020482280407943 0.022145424423081598 0.000508117698818498 0.01494677120916161 -0.011578420219950645 -0.008338240540142807 -0.0012310376858962978 0.008853317105459621 0.02370115259713738 -0.004983376599464708 -0.006561272191299224 -0.00930419027086501 -0.004759515231211672 -0.012044016452288251 0.020799134214627125 0.002992498770314067 -0.014061152143616919 0.013099431886981481 0.010137649480387869 -0.0034663345148728364 -0.01021669947211962 -0.017800431075026116
2328 0.00011659444654160994 0.00011865567784071983 0.00022616411502724326 0.00020270367483544882 0.0014843029189565884 -0.00022378276630645715 0.0007654910736465345 -0.0009945117127664693 0.0005816811306426803 -0.0005245473202224845 -0.00030395930274567534 -0.0008189450918858614 -0.004269695017915606 -0.0006785444869923088 -0.003929199821355067 0.001817121592937794 0.003402310082774888 -0.0012076677048353365 -0.00037767818993844274 0.0019952264886950962 0.004018990163440929 -0.0017006326008624489 0.003851391566294581 -0.00013455550272051088 0.004144498303132021 0.00014391542611631443 0.00035277564999105566 0.0010736236545042146 -0.0017545522463200838 0.0046211263027204266 0.00490797775728247 0.0011159225698523804 -0.004901872295256997 0.006237434762633013 -0.010185826583553206 0.002518269919099922 0.010178229130229952 3.8839609594027016e-05 0.008564942108081014 -0.002408942305811737 -0.004388374003918388 -0.005097969774671308 0.001848025970838688 -0.006819917985499554 6.15743307498146e-05 -0.019015968019111668 -0.0022086979431987317 -0.006952415327925719 -0.001162335896401387 -0.00613526492154206 -0.012168916428369182 -0.010879214107076908 -0.001589071264221509 0.009732742401567658 0.01580313301759275 0.0013032157328705593 0.00013398079264646419 0.00607535602287417 -0.003265011710744573 -0.016044931630614392 0.00849981875414661 -0.0022875274139213865 -0.004876445257842473 0.008148948930580666 -0.012226291961042503 0.012460874957943803 -0.0011055778775241917 0.021860318451083136 0.002845366151309333 0.009913945460041465 -0.022381708089446496 0.005832639745951831 -0.00436042006379914 -0.008555005829460623 -0.013785804732739432 -0.019036876113589552 0.002710618175980812 0.008041327058359754 0.013662472021548605 -0.01181659444873809 -0.004381666387368747 0.017954260814908404 0.0034161225361635144 -0.032736685739510656 0.00792500653395608 -0.025558593998549546 0.005290549214858879 0.016369685305626075 0.0009541921904418125 -0.027526590805719328 -0.006136953648393714 -0.0036051999817958503 -0.009687936151918677 -0.000866012223056452 -0.0014597108586564583 -0.012500562382333002 0.005648501129074504 -0.02018647300889804 -0.0019340342351937697 0.014198839230493091 -0.026306971088587247 -0.015051378999959763 0.0010808941277243354 -0.003624176472182708 -0.013474613404344114 0.048393162048846514 -0.0064157719214277984 0.007938694424114604 0.0009850275359279469 -0.012261785223673955 -0.022559747261492798 -0.007125707441032239 -0.004961944277927273 0.008222230425103373 -0.044776456501596715 -0.010594179841565226 -0.0008665707736655992 0.007930004998977924 0.03613188099122561 -0.021780875833097287 -0.019766339379186183 0.0047329754396388994 -0.01433194153918941 0.030768236242996357 0.04953354640514754 -0.0057944789025685135 0.01654681271505171 0.0019309144898493192
2850 8.942236309710002e-05 4.263248413556822e-05 0.00011262110278202342 -0.0002924726938793116 0.0015357744387365564 0.0006486683044495638 0.00038202313027310046 -0.00012372466879832038 0.0010181158930764888 0.006510365709362365 0.00042501050704693636 -0.0011631820435309217 -0.00017441155560355014 -0.0004517526705873713 -0.002207058397020419 0.0012433101148980235 0.002534884109238848 -0.0008786997093039821 0.000860015258113128 0.0004789043132017964 -0.0006599882179605875 -0.0007408776228704915 0.0018330077432618548 0.0006260222594217039 0.0022343023775347874 -0.001271100579788421 0.001247494979234451 0.005163276687009734 0.0037000118243908386 0.0003890281357668145 -0.000760898471713612 0.005077051334204057 -0.00564887373404969 0.0004917617758868794 -0.0023953887976896197 0.001475685048990687 -0.0027900771188577385 -0.000714252579919336 0.0023172478364560435 0.0020320926995268454 -0.0041086734032762095 0.0007875995203802767 -0.005294591573774616 0.00028834892989032724 -0.0011930730955734294 0.0009521697205965172 0.003987361922911534 -0.003614914195524711 0.002044903508874102 -9.119500919609585e-05 0.0037292581259820573 -0.0018425669569730103 0.0002460986712508287 -0.00030838824170472426 0.003820332211427004 -0.00021445349581916605 0.0016491568760737148 0.004378037452903649 -0.006182725154918572 0.0038850725473777844 -0.004726122050835421 0.00012158914082709573 0.00214364508320866 0.008872303374007828 -0.0013400538193702016 0.006350089499958642 0.0020243831230796726 0.0019511547828621604 -0.0002854393801540401 0.006494034561954868 -0.0030351224119834126 -0.004998303676899511 0.006191867312916695 0.017078997605943915 -0.011329786075045924 0.0010830349049089623 -0.00522632920473372 0.010370302441672911 0.01949584576063776 -0.01687243850741843 -0.012579229976213021 -0.009513182062110593 -0.005966647167105393 0.004964894791011121 0.00044243394688294965 -0.013766171815270673 0.017441385831792246 0.0027849595757508975 -0.012271517550671416 0.004224559067366948 0.0017286398816704345 0.005238189367461394 0.0164825200239958 0.003946725336354061 0.00025140653620430337 0.015424061227286937 -7.346074665225083e-05 0.005487651626305523 0.0022321857696249365 0.005822680308809881 0.003565066135415606 -0.025498191649986214 -0.01997975686875937 -0.012073795149804004 0.0013814852190184236 0.02091505603785441 0.03036871021102244 0.014623102121388763 0.0031944658578821855 0.028629122880912072 0.028690703625288902 -0.011773238552377394 0.0003316655683376189 -0.0010731923749289008 -0.0373432703547145 0.0019548844165037603 -0.00037911647376778394 -0.0019057124181597889 0.011693058656145495 0.02829666196490771 -0.031672528226710635 -0.02423117204464361 0.032157858622952694 0.0003261728076486709 0.04153745042412425 0.011725528162364237 -0.016673388581192716 0.01814531873166736
2856 9.098748440616493e-05 -8.773605664397084e-06 0.00018081407629539256 0.0009902548994172925 -0.0025844907529214076 -0.00040655456518517183 0.0003448130572246392 -0.0017037256353617093 0.0010195944544514185 -0.00035053791059864135 0.0002366166104862042 -0.000893937076403338 0.00019423839735420917 -0.0006474512902264905 -0.0011431890230606408 0.0007406768137981383 0.0032172434352165185 0.00040714529593939883 -0.00422341988045696 0.000711483449156656 -3.446201696860969e-05 0.0010453693916386696 -0.0022387340820316497 0.0008157105207264691 -0.00044142025779879163 -0.0012563481784712666 0.00012899791143638085 0.002139325100053935 0.00135931886200184 0.0019568666654704585 -0.000858712174687505 0.001635227196044051 -0.0034219032509219863 0.0038740810759885984 -0.003162145743722484 0.0015811995623811843 -0.0025552648795808147 -0.0022766196772819676 0.003480359279031298 0.005065465937417543 -0.004684839133959466 0.0011721793716208853 -0.003656107714694583 0.0023751495742675203 0.0013131926030437054 -0.0036109975652952875 -0.0011727193281938033 0.0012785484800035708 0.0013334191752995524 0.0003825996079521926 -0.003959357149137442 0.0021769969545347777 4.178842071918896e-05 -0.0026736465006918482 0.0061292515840108905 0.0035717732975352997 0.0018296474261551181 0.010824487368776949 0.0016038992353965536 -0.003295454057060038 0.0017952205894143105 -0.005665673656415149 0.0005628012708580345 0.011155233144426005 -0.009675558911015722 0.002464243840049889 -0.001340101200959342 0.001983893744784963 -3.5097033700858184e-05 -0.0023942711793084317 0.0009368521623028403 -0.003965598029040465 -0.005064662969331639 -0.0048662429422697984 -0.0005927870866385837 -0.004657421368114743 -0.00846834155544423 -0.0008626458211553513 0.0008156371036213214 -0.0032040381978856464 -0.0032351069455416213 -0.0005344837415764739 0.00458143775881282 -0.0055970507694920926 0.002290175188619194 0.0011821762327094679 -0.003757488856374311 -0.006646343644681372 0.010998314625679528 -0.014580043574925594 -0.014889439263444021 -0.005047175223869736 -0.007053778050884204 -0.008926226608534728 0.00915932785349802 -0.00721015697035885 -0.011019274585415167 0.006232154813975168 -0.007870213801493251 0.002940859923325789 -0.015267566106081825 -0.010711048524535293 -0.011410546354529405 0.00045064854424944846 0.01010457153221148 0.01084911904736854 -0.010601310589264145 0.027881921502041114 -0.0025718353063700254 -0.013209047427303468 0.011047128429570695 -0.009267829961534118 -0.009598357184478393 -0.0011166574106417078 0.0018470911843311113 -0.015089939892746382 0.005881294529602383 -0.0012450689687193797 0.01298101933257872 -0.0030905430537493876 -0.007711580529674897 0.0176402945211939 -0.016017596662135456 0.0031030399842995556 0.00594932819974706 0.011948902084923737 -0.013216811046981714 -0.01714942301696954
2092 0.00032044504953379616 0.00036006596617498617 0.0005014712576790004 0.0045174617677554525 -0.012039621192475182 -0.000621733202879481 0.002555708074058072 -0.005629374404676598 0.0001228136706591081 -0.0007013871547069953 0.002807240652690604 0.0018858553943889654 0.0017297345396820518 0.006127785570855796 -0.002809711866371708 0.0025849916769389372 0.005235961438948438 -0.0018578782008661242 -0.0002420890345317287 -0.002746161627729287 -0.0025989902174005934 0.0009827292072069238 0.006238015798719611 0.006910073662152483 -0.008637190431210588 -0.002885213866357312 -0.0030033913121324473 9.88530503746178e-05 0.0032616074023807556 -0.001253593730354681 -0.0023897174362586216 -0.004816659636141722 0.008712876354279031 -0.002046686016066658 0.0052622847152691485 -0.0037779220552084224 0.0031334719728726367 -0.0055074710296286345 -0.000584714296775428 0.00725518702549366 -0.0016258209377691276 -0.009817703669826518 0.0009827966652849632 -0.008838485331946757 0.008328944148694756 -0.02367782883424563 -0.022363125834173936 0.0006899579084784507 0.007693731919696467 0.009889054380957121 0.0039045861187681366 0.0057055816377810315 0.04604968141872015 -0.0004615925624299733 0.00298313180903351 0.0011988028845864409 0.002762942930460108 0.00612725444235979 -0.006235621192817753 -0.005875646439991827 0.0004512568186822612 -0.005473019726927329 0.005535755297353 0.002877838977135546 0.006811024740063023 0.009201150615472201 0.004186857327905366 0.00539318870265782 -0.008121477921493286 0.0028404685608393082 0.007628477926290852 -0.011357223940620071 0.005157929628028401 -0.012324246083007223 0.011763179293918917 -0.001677247897583135 -0.001954395767973879 0.0012315004671092872 0.010080809029140396 0.0059993805410493905 -0.0036579401232912125 0.013642214770888618 0.0023942488080608095 -0.02014743564664461 -0.010557284931123546 0.010908003851503674 0.006385496254379245 -0.0015364523167998164 0.0005327409290300717 0.005723872790019154 -0.023518642466997794 0.004048482262790629 0.005583031186486952 0.011083532850057871 -0.0030393883066709973 -0.0002719570200873883 -0.0015795089763663286 -0.002949678048887034 -0.004524834186220662 0.002581968174661998 0.010946611898695367 0.005357214115701317 0.008844448690007235 0.003713924062585089 0.01202148771484183 0.014952796638494498 -0.0059577684348381815 0.0030984456965646094 -0.016032312619507213 -0.004467002981558842 -0.0005484382780397106 0.007162266270497124 0.020019721184564215 -0.0038771803477126335 -0.021509101499870384 -0.009587312921564433 -0.0044907977979138 0.0028086769939942324 -0.009348095363418353 -0.009569841938375625 0.013786116554712298 -0.008872435471083162 -0.01201946365734992 0.0003372006500708658 -0.016359245622912154 -0.0021888641409526983 -0.013006288568003262 0.0015811095892006135
1709 0.00017324728691763927 0.00019487135738383251 0.0003860649456612152 0.0017023997015537405 -0.005050143521940921 -0.00010703966737369698 0.0015976540994408726 -0.004768819641372738 6.29874834900807e-05 0.0006970091394201574 0.0006784445142166976 -0.0006335133304635912 0.0007406204116379753 0.0005944936700542513 -0.002075040237935523 0.0017848517227195227 0.007382503090195813 0.0022983805143592263 -0.013072187569221969 0.0026392205562697263 -0.009075435200706042 0.007294526904702733 -0.011942068717946909 0.002550830706888071 -0.01023929384362098 -0.0016350676993068776 -0.002360978765380751 -0.0007011155152852887 -0.007269515866651862 -0.005299665418057692 0.0030468683495852833 0.002788548632255335 0.003232995846211776 0.0009677923936525893 4.5704569445646095e-05 0.0001475998201268867 -0.0017481038750948414 -0.0006873851674204805 -0.000588427592519352 0.002493254011530842 0.020386110817957808 0.004663774748073239 0.023214984792626243 -0.0002042201683441216 0.002784958031329764 -0.009094403654103075 0.015267763130337203 0.008117761493181875 -0.007482839945345338 0.00038087441029254393 0.007825848076184336 0.00045481591866967155 0.00044593491192687206 0.01389029783700216 -0.014403587785039572 0.008116788886308285 -0.011050543371630979 -0.024704972761228308 0.004474789815830514 -0.01231520556401962 0.0066439867361919305 -0.0038370154394175623 0.0068257316791137754 0.014671457072575157 0.01293989108588295 0.006226164780070536 -0.0027627898805746166 -0.014300623201898392 -0.0093581312824134 0.0030969691717854493 -0.002838870640197707 -0.013401344795588478 1.4471473231271977e-05 0.0033176044318549342 -0.0005838533303944043 -0.01181540342737635 0.012796731349063081 -0.010437534766211709 0.006423979336048561 0.0037483657920698663 -0.015235587284616941 0.008318942555728133 -0.00629507683651279 -0.009254568624587609 -0.0043481482932729194 -0.0025527977453538315 -0.010282377223457675 0.016383941129600153 -0.0026332621067988496 -0.0070944413914095835 -0.012770288998132215 0.004014763164743585 -0.0018537054240026398 0.007435950623244504 0.007726967850027051 -0.009845469596583362 -0.014547863162718666 -0.010987159954666575 -0.014152105236747734 -0.016420692615544158 -0.006683622070277317 -0.007064573541664041 0.0019591728369309004 0.00349564036973354 0.007528742942241509 0.009195145063775712 -0.0034973307922387363 0.006003643607869368 -0.0057772684071143695 0.004022214119247005 -0.000602777784688401 -0.0005476729205196653 -0.006741731625982274 0.008463745715456678 -0.009913476657247497 -0.008100043242005077 0.0068576799109581026 0.0005075337990539493 -0.004259786946177973 -0.011766735895174152 -0.004446978324776109 -0.0038176360889880393 -0.005200195777700213 0.0008986453134966218 -0.00021799007397086558 -0.0007222955030094672 0.010350319717432593 -0.008698322126155266
2734 6.877028853993743e-05 7.498426146070526e-05 8.291682412962507e-05 0.001189845655446076 -0.0028939754642644437 -0.00011687437672108395 0.0018592635818130753 0.0006397789448404854 -2.3578764866467956e-05 4.05159886044586e-05 -0.00019890359124848792 -0.0001962118026707966 0.0009502677684724085 -0.00016745204702816802 -0.0014914864901129162 0.000877763021844685 0.0038437875945823118 -0.0003235549598829707 -0.0029550167884902358 -0.0007822769696010848 -0.002672420843618968 0.0012057126470058415 0.001948288683124436 0.003237237977538275 -0.006027176004694985 -0.0018656998775513354 -0.0010919814706586855 0.003604416984930941 0.040126805215847564 -0.022592748516225874 -0.0012213021582974705 0.00553707140253417 -0.002438996388945656 0.0026746781307392955 -0.010968678324997748 0.0050970209102848205 0.0060602773955780636 0.005678877643606218 0.002215507955368526 -0.0023302972044353418 -0.0022827002682053706 0.002209239660841271 0.0035272861805109744 -0.002693143204222248 0.0035058008848862236 0.0024490027876870137 -0.008794988453449972 -0.006081775943129447 0.005504885369057792 -0.0013972580000962008 0.00237331809960197 -0.0015420315836021786 0.0006431733933311027 0.00816078308067348 0.008685303728887992 -0.007868882263357892 0.0006710900874135633 -0.0027467404128372537 -0.004852510619337068 -0.0014021453746156391 -0.012747732803245943 -0.007554118907040884 -0.04254189830401088 0.06433644346289286 0.003599859256966214 -0.016174192162026688 -0.001024678507143709 0.02266701667096795 0.009398038915645293 0.002877668073802675 -0.00526861786963846 0.009526079528933407 -0.007536228493547966 -0.00921181476657678 0.016851146767144116 -0.014505283525722489 0.011750748912163145 -0.021951718587496324 0.048209290903252655 0.011499446256038277 -0.0009046196038806772 -0.007980924229502018 -0.03113883931418748 -0.013879334439890976 -0.0015336105731008221 -0.008766215957842712 0.008750797126903586 0.02684735826668973 -0.054350292288409555 -0.10043384912325024 -0.01747114403094772 -0.05677014608781608 0.01907745511998119 0.06065009957083012 -0.04794418011397285 0.003458713346409568 0.02761503249626987 -0.03886159520974215 0.0008483818682780227 -0.029148264116179396 0.056454828886459966 0.026158624989023316 0.029108069519295048 -0.02154399928152664 -0.010836184606007975 -0.022676688408374116 -0.03687662774030712 0.06444351517949493 -0.0010237063769302959 -0.02515355738331317 0.005756969650684588 0.010368445069568188 -0.008257889137651143 -0.029082082338027244 0.03647958439013242 0.05653994951690811 0.022213574367696696 0.02640027306090468 0.003021517626608831 0.008052048453363556 0.0007240758857997272 0.002503759513176288 0.001682265399618021 -0.011078437808273896 -0.0248360153211149 0.03587783345769509 -0.03432212832517665 0.024793039064803783
1971 7.719551389671539e-05 0.0002566154098671217 0.00041166694453128417 0.003949712842281685 -0.0166192622848962 -0.0011992811755101238 0.0025533257496570933 -0.005020020903216184 0.0017718006082869373 0.0011327461940706855 0.0005623661372136204 0.0012017877882505368 0.0016464653843568983 -0.0006990372587866965 0.004281730665632783 -0.00039267753153068846 0.004275455925489265 0.002721003152327747 -0.005464365099704164 0.0030340618540138356 -0.004881855794477481 0.003528674045926104 9.780290435777832e-06 0.005784202789701681 -0.016365389005112897 -0.005376938703805478 -0.006253497556871594 0.0021730757703815333 -0.002904828340401423 -0.007982333916095492 0.0007363572859679119 0.001988510023386257 -0.010371301891205756 -0.003320588320914912 -0.0069763478109429655 0.003771496681958893 -0.00820565096371207 -0.0020018421225115207 -0.001364072556683862 -0.018462016580872948 0.005919598433787983 -0.007642728731205517 0.013460876844206429 0.005355007954717931 0.01886150166623187 0.002477436103863121 -0.005463925463784185 0.00038761632431568897 0.0022760419352306363 0.0025217855284628836 0.011342286032984704 -0.0045395281119015776 -0.0014886537646555103 0.001008789868738836 -0.0033081374875352197 -0.005423270680801699 0.0029969592313969424 0.005230407756995458 0.019916723043873288 0.0076126641895141265 -0.002400904177580307 -0.005790911988186865 0.003748765171010872 0.016979752186336065 -0.015125695549517757 -0.004551086386058056 6.883620517656343e-05 0.012440163169237805 -0.006165245313666896 0.00784241499366163 0.0011334470172235777 0.011472548180768219 0.025872884387364483 -0.008106674584384459 0.006312924878747304 0.016438588317669797 0.009019025528431158 0.018228286511214727 0.00907833875595428 -0.00797488196460697 0.014540925770208704 0.0017614790469132001 0.017596736378976942 -0.00386592941955089 -0.0013462306486006952 0.005161186001639375 -0.0033451143404767173 0.015042744500214096 -0.003090537745296156 0.006756248129152222 0.027740860441908505 -0.004130292525790173 0.016647254541089344 0.0027876415749463917 -0.002933429062500169 0.0058499827654314674 0.01293781217906632 -0.004534974214854897 -0.0013925352198972975 0.011083219804240266 -0.0030529895776706035 -0.01698211262776366 0.007552497800884897 0.007982106245241743 -0.0031844007651586283 0.007050771263482664 0.00650779499953998 0.002039713423917935 0.010982907371150154 0.014320100529004356 -0.005516968337939049 -0.02461976334724026 0.007084679940038128 0.022087752336254575 0.015598907248143381 -0.01645299981450046 -0.0033278320670832363 -0.007617408910927704 -0.007831033191644292 0.010728439152374489 0.0021937715213757396 0.003402321876551662 0.007413453246825892 0.012939650837350691 -0.03352003745764216 -0.003061531420453977 0.0047241269919919655 0.0006860133506380277
1596 0.00014640395424759755 0.00017612452711573008 0.0003126324742051231 0.000418246955398539 0.000713164193542162 0.00018763364690595487 0.0025928659151243467 0.0012633241770795742 0.0007628468343409347 -0.00044549703294179967 0.0003334135076541282 -0.0023667464127588005 -0.001623067211091267 -0.0011314309887281646 -0.0032078755007694925 0.0019608055391112634 0.006645485311099186 0.0022136479940801732 -0.01024931791301895 0.0015827054172567509 0.006752007599881362 -0.0028150832668501612 0.002210823854108195 -0.0009119665928461384 0.0009978362818110118 -0.003455252529320698 0.0008220120046084911 2.6149176446611523e-05 0.0004325343204817136 0.011525429724045345 -0.0063718744901505465 -0.004208884427981842 -0.0019277160223801194 0.011669458900149969 -0.0034087675797278673 0.002320500583106781 -0.004529661082766194 -0.0006568757440473685 -0.0020949817677981416 0.006549711451059153 -0.005781530624013524 0.0018989568475514943 -0.0011477533857209444 0.0027056174613054743 -0.006977309001327354 -0.009952673590865855 -0.00325991647605301 0.004273613485890164 0.0028484750602623017 0.0007513805483320653 -0.005451000809560251 0.008236957409880891 -0.0014994531327768652 0.003052799138161606 0.00985313009848098 0.00548191572791814 0.004512716007572992 0.016673113156094082 -0.0049036547160107285 -0.00842303380403795 0.001163372288441619 -0.017110055209138497 0.001694922780933437 0.003336790043648937 -0.004842174987832741 -0.0022387651690608415 0.005834372571751703 0.003524128040911178 -0.004981928595838639 0.017364120481498147 0.004396322080856927 -0.006812105952246561 -0.01082689075810824 0.0012659182171536891 0.007052418276852224 -0.011987321580774011 -0.02220426279424094 0.0013186003369249169 0.010821933285369865 -0.009995285113767767 -0.002022673523203582 0.005742602983041163 -0.01030560757946258 -0.01574690080942343 -0.005586786568620104 -0.00529273652130416 0.0002855176122456741 0.00017186265012557184 0.00794066029708088 -0.011336136471803038 0.005719488658235144 -0.01115499425062613 -0.013097119302505712 -0.007973697626503058 -0.004933529513798877 0.001524235819313963 -0.02247747364974112 0.0004515300625659984 -0.005771719665191435 -1.4525636119058597e-05 -0.002591225936704235 0.009895356780538551 -0.026717288362224874 -0.012770526841230657 -0.009298709421180626 -0.0012849645604802707 0.015547853220839843 0.005908258191440295 0.005837264461993442 0.001555700984425447 -0.0021157167819335324 0.007412915513747148 0.0030618435418048435 0.00677858189554568 0.02269743057295919 -0.02261743065334161 -0.010436706274556057 0.003208554600721382 0.0052027832044162 -0.004145971318819468 0.039267517026011264 0.007497813638570075 0.009399412000961999 -0.004489109223807706 0.002589964778869026 -0.0028905475660945053 0.025214341024576356 0.006299406993289596
2496 -0.00011558536442428212 0.0002820687666364197 0.0005372341881441966 0.003705173116250154 -0.012574646204706332 -0.0008778079173284551 -0.0008690347205795703 -0.0044265015668828065 0.001047751576372086 -0.0007704953775500543 0.0003737671594251259 -0.0016055158552693003 1.1282735556245364e-05 -0.00018562408122437337 -0.0005562352912725511 -0.0005610866848019269 0.005353476678540761 0.0016142288145000283 -0.006762503486660957 0.0023358895644686327 -0.0036032984835583583 0.0019341505790142926 -0.003516677274843425 0.002981834811332064 -0.006838055277625248 -0.0019102810361723598 -0.0016182801944475951 0.004591726185879828 -0.003767078797886138 0.005711279904141808 -0.003907757256266955 0.005599207047274463 -0.011182902258937574 0.0021108215522633094 -0.012304874338944427 0.00548651411759138 -0.008417854995222209 -0.005035249087594392 0.006748715956885073 -0.0020825109167770545 -0.010533752672787089 -0.005782833493721975 -0.011984669692887816 0.009231548636113609 0.00035831280985002423 -0.002763267098771076 0.00032107679767089337 0.0005312837288049812 0.0014983675169504993 0.0005247171661272971 -0.0009262978581173805 0.0015828280898525864 -0.0026957182743945034 -0.003775028266464186 0.0030138310524126135 0.0018436246761309692 -0.007283612137395745 0.00943927293812972 0.003975050447771159 0.002949124005771659 0.0015525708992774141 0.008260135656935758 0.0002931533662827092 0.00377282414267543 -0.0065210216783321995 0.005493790566309984 -0.0033917551408551684 -0.007217265465199767 -0.004458037213279668 -0.0030690521673647545 0.015305388974069016 -0.008940248046574107 0.0004997457296220633 -0.003108500680175068 -0.01082640801121541 -0.006883791720490376 -0.00878098065155119 0.00044454008073250184 -0.001801051914089972 -0.01590398022147 0.015008681243319737 -0.008699730473684757 -7.948206609582274e-05 -0.011765808031199409 0.014737526937098976 0.00870808044008601 0.00382374125688017 -0.0010884081530959109 0.0014850643300222412 -0.01124794229567778 -0.0163237802807604 0.0067336057326781145 -0.008466773461913808 -0.0065945259999645595 -0.004248079116715091 -0.008620044674789402 -0.0073913058264534065 0.011592051512843666 -0.00297177331585124 0.0002445463967739532 0.0011019424974328357 0.0033875655146262387 -0.003467424064323875 0.004280221275132671 -0.01406849600629522 0.012411991413938669 0.01273517294249583 -0.0043643085066558335 0.015025910037744722 -0.011738171581636913 0.010651549213935081 -0.009573168321345164 -0.011778658589109672 -0.01461581102469557 -0.035373051009350474 0.013482367976338346 -0.013128565102825623 0.0007336831015858726 0.01364650532062243 -0.001467752062707336 0.014391888621176685 0.010828109488686104 0.0005690530679954652 -0.013043473734480152 0.019176962677362932 -0.006166260091441398 -0.0062074359721564516 -0.0070231664584200475
2113 0.00012996240745468212 8.447465239651144e-05 0.00027201861036273714 0.0010482885978775121 -0.0029734537983122683 0.0003158063613920071 -0.003673641374628791 -0.011054642112153333 0.002865637000091858 -0.0010601733647693555 0.0017537159331459352 0.0044108150923536545 0.0016939770237425435 -0.0005798726359099108 -0.002823192760926675 0.0011859599973441963 0.005736545652884331 0.0016593976074196824 -0.01246844666499238 0.00424285767856704 -0.004078992570993698 0.004919848766704376 -0.01743778778222575 -0.004224319223595438 0.003988487831212701 -0.001219158897014143 0.004393827698863184 0.00039132399861931404 0.0010858390804821768 0.005002971025696983 -0.0034532153140875766 -0.0010539445020291425 -0.004412026049803045 0.005046506394404168 -0.00647780989354444 0.0027307991517658645 -0.0016226297871020255 -0.0028875877727946877 0.005912841202273142 0.00041448798791868474 -0.007078247694024548 -0.0031391975098036384 -0.006293971319840252 0.006902640633223284 -0.0007206328525512885 -0.004129494733955001 -0.002881199350428093 0.0028777894189589612 0.00040063146794359076 0.0012548994335394006 -0.007612199195866863 0.007890709765882978 -0.003058565529612276 -0.00015638201482234688 0.010885234785086038 0.0044939782935779935 0.0021982260109227893 0.01449370784369225 0.005220212612361564 -0.0072229189718087325 4.821283713114598e-05 -0.0051633090216602505 0.00043972947398506623 0.012055948388822435 -0.014342538626089382 -0.018252016336322445 5.326627832130523e-05 0.0028427681656753865 0.018738347237369425 0.0061172174966156664 0.0089810028930103 0.006495292070596962 -0.0030371747468526957 -0.013605128112669505 0.0005086691656846117 0.015760500824258512 -0.012209925775482137 0.014598019284842273 0.0012300743429429052 -0.030256754781669993 0.0012763865082000283 0.0040699171731392045 0.016555080807662652 -0.0035163923359496324 -0.001373288019443075 -0.003031053813999255 -0.016696915839926895 -0.0008079295524210657 0.0082882817845962 -0.021444660839592736 0.0027643193312591845 -0.006502311501074938 -0.028462132513225716 0.008241504705927294 0.011055593912725013 -0.017763072347998503 0.0018141428744603103 0.0042096860653554 -0.027191739862403433 -0.019011952446350573 -0.012428444013267176 -0.00638977744046809 -0.009955223554800247 0.017065448170990673 0.02624576071997941 -0.02135851136725338 -0.002621171111693572 0.029873207244685014 -0.010168165716633515 -0.011346235136952957 -0.0014569689072607798 -0.02581182562276665 0.0022752816086924104 0.005919317199455061 -0.025769412419805425 -0.006486713609625775 -0.022791625105499192 0.004206397810593272 -0.00150737029069753 0.016225582193269354 -0.032480606862716414 0.015013743267320082 -0.012379201583147717 -0.014373579666078497 0.00988188069380219 0.004706016898066598 -0.014989036096500876 -0.0029023559316852265
2114 0.00020242268023831412 0.00017037611128812682 0.00040165079724397427 0.0009905658683364996 -0.0022798956537604938 0.0004224125413484832 -0.0008370773110983983 -0.00554651413100099 0.0029237146475009704 -0.0011072446699617584 0.0006811443071226162 -0.00018886747095937968 0.0005532733255215594 -0.0011864117223169845 -0.002869883542079283 0.0009802362723352548 0.0027777389206033423 0.0009297173853626351 -0.0068694140634182575 0.0038180647631459 -0.003382684665484781 0.0013099043290864339 -0.010078580183910687 -0.0004703068879982929 0.0028406467996276623 -0.0024936579535111913 0.0024973340210193524 -0.0008883026142909698 0.00240731449724376 0.004538252005029696 -0.004462667868359699 0.001663935840303482 -0.007211103015697924 0.00025302767508817006 -0.004302081421793035 0.0007286464101676896 -0.0018955232152966614 -0.0045076663460222105 0.002478795584241581 -0.002813063809065557 -0.007053713001598795 -0.005874340180396348 -0.009859288517848142 0.012265744234433653 -0.004230380632016862 -0.004262133132973406 -0.0019567735216719424 0.004964837188639451 0.0007994744235237666 -0.002439491074483499 -0.003054501475017646 0.006249457441009041 -0.005004610537831833 -0.0007311411293959635 0.007470712390095407 0.008145403421099453 -0.006909814078159882 0.0029063973454369887 0.001708638723355284 -0.0011779983222148089 0.0014212498003333082 -0.0005509735085301218 0.007630633343023768 0.01554429200281848 -0.009248668816245557 -0.01315986046419847 0.00021169194074626836 -0.001659296572416913 0.004273929884130201 0.007141751159705865 0.013246026754994372 0.0007119447622220723 0.012039352416406832 -0.005061593256557072 -0.0038084365419724557 0.00607758264051038 -0.010422097548524663 -0.0002102146319396799 0.004684207989011439 -0.006403209963575529 -0.0004147813293858588 0.004665849630087904 0.01097821541280182 0.0010889588935568929 0.005623051556683716 0.004485782870048161 -0.00970077969438711 -0.0014841471119060572 -0.001349661999847391 -0.009687074122968877 0.003635422814267638 -0.006176367763826954 -0.013251305734939413 -0.019335879140234075 0.009617341869050361 -0.006268740200065652 -0.005152528042674307 0.006516632339465329 -0.014021434398013177 -0.0013348433957524187 -0.006380548159717563 -4.2882429456867455e-05 0.011771439916870298 -0.00040184316442326887 0.016935628282285838 -0.008449465553571806 -0.0097390910793854 0.01713552785406928 -0.006090654787816488 0.00070493135288556 -0.002500337121159619 0.0033278424368758993 -0.015004035137790792 -0.013148699020349016 -0.017783353432520962 -0.005546039023764701 -0.009598633935757502 -0.004613539530718208 0.008965554871923966 -0.005198383266937187 -0.012921844792376807 0.010431561290467291 -0.0039766148025326 -0.024301842029991378 -0.004468203149524842 0.013428412744249421 -0.027722885291539674 -0.001538270264838499
1731 0.00010469699593531446 8.628965267338719e-05 2.990301173059704e-05 -0.0002999831223814734 0.0033004524339814655 -0.00033584872215989365 0.002231257144286266 0.004111625675298222 -0.0007834661749093351 0.00013529503536957723 -0.0010399625455054834 -0.00026177878109361064 0.0003454394766997961 -6.216905142379039e-05 -0.0030208904894163786 0.0018691993048772881 0.0017630752618914755 -0.0012308726761955523 -0.0007883643030191976 0.00026924177283618804 -0.0021159678871960014 -0.0011623856459689822 0.0007317826592898943 0.0015915490561606998 -0.0005540746530155924 -0.00221482305314649 0.0002633399460277926 0.0015547414647089518 0.002077382640505112 0.0057829601292775715 -0.001864282849712905 -0.001707269096165878 0.008431855953949624 -0.0013215805428317144 0.0009057493816821967 -0.0008661959220174799 0.004661089565171134 -0.0009015487349009073 0.0007457945075956284 0.015340710023983347 0.004526181430552882 0.0013903345555266282 0.007076084557623646 0.0011738907062164294 -0.009922121047235102 -0.00694053280392406 0.0047318171916872764 -0.005676268882249007 -0.00013036737390078072 -0.00167293916432064 0.0009305939655190186 0.0014471119093166932 -0.003880980354198565 0.003076838714355092 0.009332945212130846 0.006182664334607675 0.0068424996508697775 -0.0030923796420046796 -0.005327557186087982 0.0001552720320099931 -0.0035106973958999735 0.006613353954434992 -0.009400843024435437 0.005664047245918515 -0.010003608434438068 0.004543634995052268 0.009633315629083728 0.008431072200437904 -0.0069449688223252705 0.00019763704819554463 -0.028456155623224687 0.008624000215177015 0.00482657844165556 -0.007911874144274108 0.002600132079932059 0.014632820814421113 0.008779412618059606 0.00016920196868057183 -0.016470213747646054 -0.005230364813960554 0.005180119456271126 -0.008939163911541786 0.011370030899510363 0.005214693280844473 0.001548017926883482 0.010662380494839807 -0.009107429840226553 0.015438466356304179 0.001309326131975556 -0.004494719709735166 0.0024105814245364682 -0.020104151762546124 0.0014177855718870865 0.0001824802541727726 -0.007334405537382493 0.0030623678874673156 -0.0035562795407945973 0.021412759881371146 0.009709939897244916 0.007979492915368482 0.001977176388088428 0.009087498859509522 0.029536294118075825 -0.007240525900927118 0.01070631817527575 0.03689183395813278 0.005883240470736564 0.028769064639492404 -0.002074862334956216 0.018605276036834817 0.0024365632387889765 0.024611638613249155 -0.008485885153328038 -0.03582433233450091 -0.006633296595457182 -0.012126282781960148 0.038898584450672284 -0.0037334374841740074 -0.016657964238984125 0.016800271512281865 -0.0001585742897900553 0.03081829943239317 0.002086599219770589 -0.008534022538782094 0.028240617248258028 -0.001610420684843285 0.028767364015172665 0.0034860751320321248
2124 7.24232060407842e-05 6.249059208949417e-05 0.0001866886005581704 -0.007299861596136591 0.011630293300420296 0.0017167534083645593 -0.00395555774729836 -0.0026974014727678573 0.005678085434473103 0.005057540419483644 -0.0008075146757480776 -0.007284685301692143 -0.0036279331544974897 -0.001417552793314685 0.025461163456507254 -0.007089286455701403 -0.003514014489167478 0.001508243064793444 -0.004572299962384573 -0.00503044742716459 -0.0024787741547959855 -0.0016172130212073804 0.011086269498458525 0.01466807839958487 -0.006035500808902482 -0.007067906022765403 0.13704194048370297 0.01647051259327238 -0.00042468179261286596 -0.01694223089239537 0.0107138012984323 -0.01706689577236435 -0.02957496843925006 -0.0006618527056272263 6.675505214251873e-05 0.005919773516427041 -0.031338381421038855 0.011357611316431657 -0.04480146617190065 0.012546357673250066 -0.005007134515054279 -0.005728551083181199 0.0015551845307923667 0.014263637346506224 0.03623942507053475 -0.010751247638879606 0.004171205929020564 -0.03706370245095009 -0.028930042831066132 0.003053479525205098 -0.006992863728132903 0.0034990129859404557 0.0009503603019022512 0.00243790252357528 -0.00493473636926147 0.007155780703374287 0.009993621003382648 -0.0037750768082429917 0.0037761761330243502 0.0008089899661234512 -0.0060606200708198865 0.0017108579547327337 0.014125469657543917 0.02302602884011784 -0.0012570015270220937 -0.003193040997248272 0.015342710614370219 -0.026140996671487175 0.018728843182249263 -0.004201768662152623 -0.04857864925564639 0.015118129370808702 0.003869173160323906 -0.03541732632598111 0.009746133861219022 0.03675268785316904 -0.07369617621854958 0.01739727453498264 0.07291425201979604 0.00819327620509477 -0.05584652631640466 -0.08831081413170878 -0.029727124735003295 -0.05427877691716735 0.03587866730536669 0.0022208852630434283 0.006013275719243607 0.02425040957065412 0.034564133701204 0.043266715890189794 -0.0025888543192916663 -0.00807940192009819 -0.011351809231571216 -0.023255137522021234 -0.0019277594793673128 0.026737930005447292 -0.0029617737205035596 0.0026509396040193577 0.0043388960393394 0.0032143153922120846 -0.0331212442869776 -0.00593581174648667 0.0024398143312159763 0.010753827859036242 -0.03817083726695225 -0.006125791623233279 0.020871790208987287 0.0037799575477414226 -0.022249917399598605 0.0008647628669010688 0.025034941801708264 0.023210767514692233 0.0002730555581725771 0.03378224082606594 0.0052310023174974435 0.054981606083098405 0.01786729837076474 0.004740657175811523 -0.028630966122581786 0.012918310324651214 -0.00035222035772280145 -0.0024697522015752556 -0.0203451930803707 -0.017873771134503152 -0.007786419556038516 -0.0006320477109720132 0.01066292214042137 0.007117576431604337
1997 0.00011883520313104639 0.00016612493164089737 0.0003507236091588321 0.0019531031767018906 -0.006884031944653821 -0.00017122857395637222 -0.0009294053091482128 -0.00809047317550697 0.002618581747156616 0.0005744554712193024 0.0012532188218776538 0.0020780264017904075 0.0007883926695809767 -0.0009319345772986173 -0.002776614296338617 0.0007163544372080036 0.004251904609159487 0.0030131456448774926 -0.007321781536208602 0.0032071788906006976 -0.003517493030669096 0.003919337625605121 -0.00604195190937307 0.000665284099959644 -0.007396736641201457 -0.0029120117329260453 -0.0019180276266359405 0.0012514925561510552 -0.006748953343823784 -0.003909874745288536 0.005638526404611779 0.0035808549824790075 -0.008064944746880864 0.0029347516358461194 -0.006391831086123598 0.002277077492918502 -0.0006515495759958022 -0.0053685253090963924 -8.362931229006728e-05 -0.009660940920722368 -0.02048005000769167 -0.007861659175832338 -0.022974282137650945 -0.022831630607822433 0.015014331767911497 -0.005917087345161843 0.010096405933280069 0.006738275681099233 -0.0009962928256141569 -0.0007071986479588287 0.008457054050378637 0.0020884454382473403 0.00046848377621839024 0.004796520021064242 -0.007432051572923886 -0.0015756521159660073 0.009553028809843047 0.00016488650872298205 0.00793422073777609 -0.0045219962031328225 0.0016532131616259068 -0.01067069830339582 0.006778364770442731 0.004598500279235625 -0.02016095434851595 -0.004869029331857443 -0.008553225644046033 0.002916203237502132 0.011113548052505888 -0.004035708970114768 -0.0034336720757100997 0.01435448544580098 -0.004811612154397153 0.0016694567805134145 0.004063032468389043 0.0128567488707893 0.010326239646469332 0.009597544519575412 0.0006983474359281897 -0.0031505624901370256 0.01551021696436994 0.0004709656611364419 -0.005375526077222615 -0.0026795608560211018 -0.01021734388038161 0.002657104598598425 0.0007426703612104328 0.011317728284315352 -0.0012039486869392507 -0.00806949818993625 0.006239957647737991 0.00041424980788631725 -0.004622568059969488 -0.002243016548392179 0.008635936923626611 -0.002990529706585895 0.0064134310461187675 -0.0006745197073410287 0.0031349353026027195 0.0014590998417579038 0.0036449625099478564 -0.005875195248871201 -0.003774451411709794 -0.009920460166254372 -0.007544191888625141 0.0002561521772406545 -0.004866935107502143 0.008761198996123622 -0.0022233154362668105 0.0007584627430634619 0.005490783712317089 0.0051476392827578855 -0.012514629107937535 0.0011700615286128514 0.001879331452793226 -0.000575099272649944 0.0028336788593246124 0.01501332823206939 -0.003977940621108324 -0.007041602990298263 0.0026842080998670886 -0.010875374665114363 -0.000913637854853948 0.02117957398061348 0.0036758573480646893 -0.006988141960768298 -0.004459397434647459 -0.01995248978458449
1743 0.000150465175364206 0.0001890931771933898 0.0002563853752978853 0.0018117306437561776 -0.006433250319905184 -0.0029932341700436792 0.0015383010396940436 -0.002559733519710256 0.0017024990635760692 -0.0005696947853795892 0.00033787966462614353 -0.0024320135357135714 0.000522614277634918 -0.0014719890911928503 -0.0009726003851712662 0.0003775469953775031 0.006428686322717841 0.003189670725047371 -0.013930922668271088 0.007136505384640235 0.009853332522540307 -0.005473203760773273 0.0013374632396028058 0.00011067795719570334 -0.0024428771130221147 -0.0026227546694059757 -0.0003029069272715946 0.00515330229833518 0.001160699434466554 0.004060188419117978 -0.003085808421776499 0.002987110889682585 -0.008323089193946791 0.005889572015264826 -0.01118973507057142 0.005291605176785958 -0.0033343860949921456 -0.004372691820860326 0.005645312070390618 0.0008446355963149663 -0.005357135879946681 -0.004124128076036268 -0.006889587968809674 0.01065850036365517 -0.0027448333682278236 -0.007000935258128929 0.0034496378665157027 0.0033852814084921958 -0.004554929023587695 0.00312413052590204 0.0013077443164593206 0.0015455100379807626 -0.001100611994675427 -0.0031327970990254633 0.00492560073062227 0.0055504586699420995 0.002435225816970076 0.009887320971171766 -0.004045090896048456 0.007192761758083097 -0.0006278571723281728 0.005521841938864505 0.0058780504389382105 0.014346656321479707 -0.015095185134562693 0.002062834678751823 -0.006801988495969862 -0.007202741379272606 -0.010431222224533113 -0.007378663409850743 0.0015744245042306694 -0.020462032451864808 0.018369636353206705 0.007379193161715218 -0.01145055206086053 0.01015107817869264 0.009986975982264187 -0.004353397277121377 -0.042564475370402304 -0.006066883224352617 -0.0229689418381853 -0.014206538718118422 -0.012177032836400417 -0.004880753388873887 -0.003980700468709274 -0.023110644818291136 0.009514514492182163 -0.021429137492800125 0.005136614526326674 0.0009512733381167186 -0.025571161364440615 -0.0015143888947763457 -0.01089478203358971 0.02513920097520763 -0.007913147444963606 -0.0011329725610023478 -0.0062076186023055 -0.011822383427003282 -0.008430055975488066 -0.014375970478880305 -0.005340087287976046 -0.002710555869025067 0.012105000659075953 0.00041636796601701736 -0.0015547927411421422 -0.006407719129685666 0.02406830203970342 0.015861026632485283 -0.006009752277623021 -0.006104264852588289 -0.0031409699114283824 -0.0020315648231139564 -0.019017198079758584 -0.012035874365704498 -0.000920636211151977 -0.0027874717402855973 0.016173486610716593 -0.00016015485416234193 -0.006672088007793514 -0.014312062351770072 -0.005153857229853995 0.009095512269296198 -0.008016194820209743 0.01962338021861159 -0.0037762358066776437 -0.015892435532546212 0.0010185495873458223 0.004883226214940802
2768 0.00018067673343510494 0.000159400114099146 0.000281938863982138 0.0002379497130640351 0.002057746852243896 0.00024828876065297577 0.0002868928094559508 -0.0015375321991227511 0.001493640874563922 -0.0007636824685868313 0.00040199078068889007 -0.001392324086702548 -0.0007442781890856696 -0.0011333949570112734 -0.003921505310085306 0.002083255208382406 0.00220320785287981 -0.0018230557132537118 -0.0014608201244563788 0.0001674360157266397 -0.0020327851692438495 0.001097838150959101 -0.006573331740467329 -0.0026155457798732857 0.010132316090838676 -0.0013374843150268695 0.003225172879477171 0.003170667951971093 -0.0005652788991833349 0.009172139127394672 -0.0018490114277486893 0.010191380470497557 0.014667853328481749 0.0044343765196499536 0.002672314939241485 -0.0016326005313709927 0.0042966980050865656 -0.004546181869186897 0.007512376225901206 0.023135213376865253 0.00612975633327458 0.013216359153189345 -0.0030203536124027708 0.011746881031087179 -0.007084946605487616 -0.012897417635991285 0.006999537689494792 0.0001356940301412452 -0.005841691736533378 0.001508561236728256 0.0033743424869765596 -0.001249186809046733 -0.001839946938019834 0.014129840400388125 0.00576400860517271 0.005038739423921321 0.0076031637793268865 0.0090425781715631 0.0007316071615749543 -0.007016892666303252 -0.0003169433779868867 -0.00900702747005511 0.004009016319859074 0.011180090958283713 0.01630820087194471 -0.016496033273715266 0.010564274666121014 -0.01384024541727011 0.0038703403988312253 -0.02043954195223272 -0.05499034641588654 0.012428881862822283 -0.014687679134282707 -0.008907270843644084 -0.008550536166334059 -0.0016584456015768115 0.023519216263297317 0.004366728877968793 -0.013229759872864563 -0.004063065172898236 0.019544843039644853 0.0006861323605443635 0.011218389302292034 0.008339257352258864 0.018503996559113865 -0.010011899462610606 -0.03375668055836164 0.00710619849943969 0.0009996977719051402 -0.003188231918551842 0.0022686371393160283 -0.020142819028539823 0.003907437662620201 -0.007545900333157812 -0.0003816763841391364 -0.007662204517532696 0.001263219874300882 0.001336338593456771 -0.00758179519595192 0.021264248673538617 -0.01612095556083708 0.010177344579809582 0.01352858312026951 0.010664515606837507 -0.002480498804927151 0.004803602952073403 -0.014633525042029187 0.007927428408102108 -0.01155676327176493 0.005557869719079437 0.010686218610932649 0.013462016894021022 0.0018137161428805498 -0.015084792372294242 -0.014831769116775702 -0.014068974191336675 0.013069447026754121 0.009748528477174563 -0.021811026080046446 0.01836003909854098 0.0004473241402867159 0.001706644196693788 0.023831675184028737 -0.007586056856477793 -0.0031519141496956843 0.008008630603959281 -0.005251101141677147 0.000289072027560613
1745 0.00018338111922204162 0.00022827572977242403 0.0004979749161005518 0.0025798917513098815 -0.01192934145403935 -0.0006822725811581997 -0.0012520775978095587 -0.005703255986270995 0.0030967744318746494 -0.0005204547436402831 0.0009686106202292066 -0.0011419866094340592 0.000625345937738496 -0.001454988728131581 0.0011191500311979368 -0.0008768797485401301 0.005344541323466647 0.001576129463465703 -0.0061654674763365995 0.0038226838754464912 -0.0028742286356097297 0.0014561116032967341 -0.006112888941039059 0.0009858466693834327 -0.0034144337770775153 -0.0037263582489085755 -0.0021840363517999298 0.005635759237855215 -0.002882952988200865 0.0035117802040636756 -0.0020696242132462947 0.007299929671722502 -0.014644444999538713 0.0019456755688786241 -0.01271625358468746 0.006514233621634568 -0.00869477848167454 -0.005412924872331913 0.007523101818265587 -0.003305348763920754 -0.012113143766846081 -0.007842460691634011 -0.015125908656253443 0.009519057030491407 0.0010243343366701536 -0.0027130202681094587 9.795197603898534e-05 0.000922130310884787 0.0003998585056908678 0.0012461404959226497 -0.0031140002787871275 0.001645931422798027 -0.0018331017121111022 -0.00379122184761129 0.0041771175638313845 0.002667856783601128 -0.004103323074764876 0.012457183928229075 0.0009658798946369385 0.004988599568427771 -0.002837098828965537 0.006183834180922279 0.002563162500832048 0.012323047877954326 -0.006017443209854189 0.004865626551198012 -0.002637303884351431 -0.013776290405668737 -0.0034701689935197023 -0.004231443304180527 0.01028214807758606 -0.013146254175867143 0.017975772161484507 0.003675722332790076 -0.010331921115486042 0.006951174632581518 -0.003031853533314393 -0.00290115517474796 -0.015090325672805813 -0.006747024997785069 -0.0027974833845909905 -0.0029797110142584945 -0.0015258973081623275 -0.004369055538187962 0.010684365639545336 -0.0037590829863341055 0.00761138786747604 -0.009298702478811911 0.0008504587598718476 -0.0062568533241378 -0.015530770987497208 0.0026969303396149613 -0.009131523190161613 0.0038095810979114205 -0.003798109648305051 0.0003296096352640664 -0.007855900807447289 0.0024280662613421758 0.001183152487553203 -0.006046354446582091 0.008497390389552101 -0.0032365757545339013 -0.0019771402644979145 0.0006108105331795923 -0.007286871633501291 0.010119485752220759 0.00879079447379686 0.0026421007363508636 0.00835757134628192 -0.007403373223997431 0.018864504360138406 -0.007817482940940914 -0.02130974717155711 0.004734054341356041 -0.026087517156802135 0.006304428819575279 -0.011021526018240413 0.010742031613770162 0.009356581454149433 0.0060623319372243275 0.0101304841926533 0.0005750238121945133 -0.013434179978898729 0.0005990304807951201 0.01324418772812468 -0.001099902678571629 -0.02113454985412603 0.00501435987308362
2386 0.00010907239569184915 0.0001756981362776013 0.00034807745075730287 0.002237325310855332 -0.007872563622785513 -0.0010308331938374258 0.00039826842347925434 -0.006719601424530028 -0.003993734549235889 0.0005020226570138913 -0.0001642529107293424 -0.000291840892577528 0.00019912716958282896 -0.0012598626177537779 0.0010308589436357862 -0.0005998035091988437 0.005426245694402677 0.002592459151194796 -0.00804130185529871 0.0025539771903184444 -0.0030461804383675596 0.0025761873314932614 -0.0037013951558990715 0.0036187276302314573 -0.008923034915237764 -0.00023753029168193735 -0.0009624281803972451 -0.0001650284638413632 -0.0034574118357790793 0.0036157840570111865 -0.004780200709116047 0.001846643899777983 -0.012988420372921973 0.005062245333203334 -0.010286687668350562 0.004986207702696537 -0.010694654643915003 0.005543039169003165 0.0020368976344024717 -0.0050297137355508606 -0.00931802575450746 -0.003950565785355512 -0.0033976216654478197 0.006907473885063119 0.0027372115258665346 -0.006932365901269128 -0.0005841695618303292 0.005394116926163389 -0.0007759097235854268 -0.00023774035950496335 -8.683520166442109e-05 0.0009991825973841904 -0.00429725881062404 -0.0013847466443005464 0.0007170622546452627 0.008834282054544495 -0.0041083804295689134 0.0032588014713628892 0.004482705407956231 -0.00470395029983476 -0.002648776138890257 -0.005026177841397595 0.0006861678844326488 0.009591223985435922 -0.007838352134053008 -0.005532800710434184 -0.009536569903865208 0.008459336533705874 -0.00343696343391964 0.00290980635234316 0.004579983518270931 -0.0015669918611766211 0.002743272994722857 -0.007443353974885733 -0.0069934212363038 0.00990946629469826 0.0002516430259082345 0.008625041018903759 0.0060275957643943405 -0.010788461091676195 -0.004067192687078483 -0.0007376748138973736 0.0066269992719635235 -0.002780600599380949 -4.071822114786603e-05 -0.004703803657110924 -0.003409904889500407 0.015145356926755324 0.002607276684463494 -0.006709691674323627 0.005612255152311727 -0.011225790177105356 0.00035253107384640117 -0.008570879255612595 -0.005596127850927477 -0.004744852900499642 -0.0009672871636649367 0.003918452226462174 0.00015196467156031857 -0.004176139353804624 -0.0007248676892336375 -0.00971250466375336 -0.005707524159499893 -0.0005401550123264917 -0.00314066023806833 0.010102415334128376 0.0036400514844013546 0.011877105700111149 0.016937692755725715 -0.010568946510011935 0.000906391194802053 -0.02058150247100547 -0.0074315366682577546 0.008047416076233006 0.007470356365844382 -0.008580097920739134 0.005830572108290106 -0.009377726993612036 -0.0010385143130966622 0.018550750467535317 -0.008828968605373877 0.015745896555448762 -0.005142458237377097 -0.000659750191692202 -0.0005876014248851042 -0.010432769196428058 -0.006781507899158517 -0.0005051651644336527
2133 0.00015145644455544685 0.00011678008202727017 0.00018738819460797446 -0.0009991802255139859 0.004809849754228012 -0.001176540274592439 0.00014066847456595456 -0.001585338644073946 0.0018848310929220561 -0.000260590991451707 0.0001683587153414327 -0.003453492179914929 -0.0022091069572068205 0.0017091329489930397 -0.0016675831822034293 0.0011667169470116947 0.0037445694084996223 0.0012093922012376096 -0.005128764457961611 0.0006427282206738205 -0.0010589787941848719 0.001013065402573718 -0.0010877971102701187 0.001318193962787827 0.004867271493631062 -0.003314559547247522 0.0012486749271026366 -0.014030430161861802 0.00016343192246866945 0.008061948972468974 -0.007890380606051628 0.0007685680318768121 -0.008080069603574783 0.011222973436701249 -0.006660497371955762 0.002711405746452212 -0.007948904124748867 0.0029181297269255473 -0.013316100377768227 0.008350605224258631 -0.0131505159708733 0.008291516193155072 0.005435330607704323 0.006769026786509776 -0.017309143025477192 -0.012722126635535787 -0.006559205941670015 0.01828107559461812 0.0012015182401798753 -0.0006978148141666554 -0.009671865379475295 0.015257318785843368 -0.0007637716769176569 0.010218027146339367 0.0047564499058867825 0.011231268774548709 0.003926367801246314 0.003786161356339829 0.0071550017215353985 -0.028529723503165273 -0.01601043263865297 -0.028348520603248967 -0.003578876006640106 0.005712454362115468 -0.001930625171927274 -0.005006147716978091 -0.0034383716437157556 0.012799709471765473 -0.01080679537244791 0.012381294838550813 0.012067247496873398 0.003148196315766741 0.001005571563847472 -0.003498265877712236 0.0027699798838424564 -0.006664304371079681 0.0076645791961253255 0.013810423022646566 0.005049896298660554 -0.01403192754562479 -0.003347171845145114 -0.010871984767610723 -0.018565922825230518 0.0023873598269781773 -0.014978661657428572 0.006603843909022282 -0.011042511824983035 -0.0044276981395715365 -0.0025015303219508827 -0.024705670196345186 -0.016470166217820142 -0.018400977549975685 0.010372132691099673 -0.009294985320731789 0.001850315019908335 -0.011993198669954873 -0.02040010774419903 0.002173661825706115 0.010173180390073758 -0.0017645508006146023 -0.023621149371313325 0.00608425813269007 -0.006656912761409378 0.014160427381569599 0.017023404025285294 -0.0027140461395771366 0.0006659910612329512 -0.008710542091260352 -0.01838911314138029 0.027420862639408256 0.0008853571401095404 -0.0194863873821178 0.005433112739165459 -0.010370612571520572 0.0023714449639678226 0.004716147969137632 -0.0048072104518103245 -0.008615216201579365 0.008009819884419955 0.012950129229130412 -0.018762623878997377 0.0030176766890598946 -0.004268605458561788 0.011862761580418879 -0.01573426242265134 -0.004861181234625481 -0.035615228241099334 0.011613256280233722
2624 0.00018524664577403613 0.0001753615364179937 0.00022344471638198322 0.00033270081422018326 0.002796011570647718 0.0005254759541981762 0.001844295040712565 0.002845280883777711 -0.0007663007364198466 0.0005778141467976381 -0.0005555571130555644 -0.004675335555162746 -0.0004146717526073317 0.0004439302529504423 -0.0062321807814801665 0.0030943270087347933 0.0034529654831750825 -0.001368931563278496 -0.0030686629246394308 0.0009529285126991531 -0.005215076734892747 0.001978108868333434 0.0016759614957796774 0.005029991710503288 -0.004999671791872684 -0.006555975871268 0.0002305018277585556 0.00564908975623361 -0.006386839237793142 0.0003411245407426887 -0.0007658595630425401 0.006007813747662486 0.012214712428381036 -0.001221168383367551 0.0015573151107958062 -0.0009695267552585267 0.003962209179128521 -0.0010556617624234382 -0.0004058259104459943 0.013628228999130404 0.026859257999827517 0.017212935921963473 0.02005031967485445 0.009834143755568731 -4.486870907863339e-05 -0.013863131310123426 0.022046704758034188 0.009026347011598181 -0.010027510938231893 0.000527743473749105 0.014230273704421047 0.0010200913827553928 0.0006600144210754066 0.02021291229640214 -0.017818151809181105 0.005873447582013078 -0.001473758314865909 -0.03886682502616958 0.0024371599146180744 -0.018307081431010817 0.00934963857075494 0.002794498804643458 -0.0027999288698604655 0.012432583227800194 0.004486907556671914 0.006819962851736266 0.004303826884817781 -0.013016528694007712 -0.004382836414990691 -0.0009178241835985549 -0.019925606063472604 0.0012399488353720526 -0.011770591796524208 -0.0008905650704299446 0.0003776712797801436 0.00475512934051238 0.0028468938948017337 0.0013867973023575038 0.0096067421320935 -0.013008409968095077 -0.004768611689400556 -0.01022004930018278 -0.0013567980034773306 0.008018708743110982 0.0034839783746221796 0.0075471575160525025 -0.002067810861010889 0.0068659553735170445 -0.009365018959890503 0.0030845963890799273 -0.01373209882275655 -0.002580744692563823 0.010826822898218744 0.0107232242783526 0.00638889009322184 0.016474115505413493 0.005831227153162612 0.013732782364627981 -2.6257764778403465e-06 -0.006959536588173926 -0.003161245286697108 -0.0015208705849972756 0.00027591827330920637 0.005708370556515464 0.007811674337647922 -0.0026707774388185558 0.014612647440335311 -0.01133275594043788 0.010045979578048217 -0.00022869127248700512 0.002548104323642356 -0.016760503926141326 -0.00439221209262266 -0.008495912233244826 0.008167258632136482 0.008659915904127817 -0.0033958409966004122 0.010485979845303202 0.015598808783089946 -0.015749134590314164 -0.010724003804610926 0.024671882649345687 -0.0012070264442282505 -0.0003094219130642791 -0.0032257697928515057 -0.017472426636449993 -0.011916791471420003 -0.008021672766638755
2522 0.0001715540710629823 0.00020928656357546311 0.0003659888435849472 0.0022070386510211065 -0.00683767388486408 -0.0004090006814668691 0.0012787525589537702 -0.0031669692944149993 0.0015908098541867679 -0.00042452725800046107 0.0003336263861122985 -0.0015032330166774115 0.0005626183524714365 0.0006149047204568459 -0.002062047707077039 -0.00017354296606337933 0.005911327700516926 0.0011545088407190908 -0.008441206819623504 0.0026203175574800257 -0.004164988874226409 0.0028337132389916753 -0.0038337759407332354 0.002782041810432555 -0.007361284313751476 -0.004824136878541102 -0.0023339358310422915 0.003894864725014332 0.0017756667610606656 -2.2499181985682718e-05 -0.0008503837648187951 0.004491511310103543 -0.008868913434451712 0.0035803790047348495 -0.00911815223459765 0.004276299588631409 -0.00504602850169766 0.0019858719450605218 0.004969785074155895 -6.556456394254884e-05 -0.009550661550275777 -0.006263986621350623 -0.004356986239180978 0.007113387550022935 0.0005909593108190511 -0.005879767561222912 -0.0009981667674915627 -0.0003816766205521847 -0.0001437024167110946 -0.0010313667778108165 -0.0012119430946371788 -0.0010966097657870927 -0.001219013653723935 0.0014904473713121982 0.005208700668517456 0.002803108884981004 -0.0029565198123542528 0.008832550345758689 -0.001484097558399102 -0.0013802109306223411 -0.001592951823908709 -8.32653625138705e-05 -0.0018194539738013572 0.014722350570119901 -0.004403074399236812 0.00010732839869818727 -0.002045066593777816 0.007315186130193173 -0.004577331801460054 0.0044308325423174175 0.0003901691938148614 -0.004636673913545601 0.002321731619492502 -0.0037658146412764488 -0.0007148215175436114 0.0018455617129433113 0.0050950184549850425 -0.0002708808130199137 0.015508122446412318 -0.005141661363573898 -0.003656570078183899 0.0006537375810914655 -0.0013186885043235922 -0.0108649960427371 0.0003904455292710324 -3.363241600420685e-05 0.002540356793044931 0.01495470855777443 -0.009357121176300096 -0.025318819700716456 -0.012798792953459497 -0.016465259451007123 0.003548346106123095 -0.004712571102087801 -0.006488926295470854 -0.007057802235869023 -0.0017788770411756726 -0.0011010533829625877 -0.004468610477686256 -0.0054079969038688235 0.0019258180596764837 -0.007578603573151911 0.020479669865222986 -0.025951652387706664 -0.006758665756142449 0.020152567131949514 -0.010548119460462333 0.019767215531922594 -0.003633699910189459 -0.009465868256664895 0.0006144227616146463 -0.0036974860237927484 -0.023414802751203057 -0.008969766206372395 -0.013565937900655842 0.0018485723859968306 0.012792051889901424 -0.009633007876331187 0.014765658773181776 -0.011309080470451708 -0.02112864845021963 0.002507832212825138 -0.01461892971083833 0.0048637513922841005 0.023118507862011733 -0.0017984763460849977 -0.02117207595973911 0.0017800501454103964
2916 7.39041851198575e-05 0.0001040262626503827 0.00020244667203642673 0.0017427106832996523 -0.007406604675408204 -0.0004432181431017003 0.0011491349385956014 -0.0029353161115854907 0.00111948734400979 0.0009231942658043942 0.00039484902092551286 -0.00043348709770065635 0.0004468496840768879 -0.0009478072054450447 0.0012896201071678607 0.0004952510549388056 0.0040612833053134114 0.0013751967871970254 -0.006448759212081226 0.002241418440628797 -0.0033907274761244464 0.00206597559505758 -0.0013026509063041182 0.0034061611892507444 -0.010611726372092928 -0.004726364712748036 -0.0016172638566673994 0.002869864070668067 -0.0038308930812525318 -0.001894821315510051 -0.0016553451804331178 0.0012934432412926415 -0.010212574365981872 -0.0017630207855115407 -0.007525345686199717 0.004432581539506838 -0.010453607455838699 0.0007630338661305621 -0.0022305458762867953 -0.009612180525000246 0.0015885971141544977 -0.006188578069252338 0.010715187966682815 0.006145108937429309 0.015706608935809687 0.00016753223617015775 -0.006469317517396951 0.0007059811904006751 0.011392091783253299 0.00859615338873933 0.01982229513305461 -0.015386456036772697 -0.005806580290255116 -0.011531250787203004 0.022251395696370854 0.0020654715056953976 0.009193511721132882 0.016626782866708746 0.0117821978322926 -0.009809863297385738 -0.006730733565741869 -0.010635069000485473 0.0031936409321325775 0.02486789905038863 -0.02079203781204778 -0.009084305333991183 -0.0048851754979250235 0.028047441202257252 5.0829814783496874e-05 0.017439367507710985 -0.0004947226363941448 0.004818741679212424 0.017488578490232772 -0.020697040450773977 -0.0019335191093223997 0.028979323298879943 -0.009531998717925197 0.018550038483202747 0.02481502139713608 -0.031639580083168056 0.00638911209531418 0.031897129961145104 0.03520552475715669 -0.009600641339090894 0.0023107039408861844 0.003478219492845562 -0.007228949257261 0.04136604369237911 0.007936975114784852 -0.002886591264670261 0.04155002933180098 -0.07543927649829031 0.012122835892522225 0.04731254052082859 -0.0322887608671596 0.03205773434035799 0.023006499001149233 -0.026121141771689647 -0.023208994068794935 0.015691288282940252 -0.00660689560620927 -0.03849671600360715 -0.0166459149403706 0.019235663935938303 0.010021809330261084 0.03837431771832467 0.05891046858399166 0.05389584853785765 0.10146253056133983 -0.007522455208311298 0.08578123011782253 -0.15120076844359645 0.009797691061840069 0.06045769021828794 0.05223764853718889 -0.09413830192444728 0.04291067264679552 -0.035646167702215174 -0.038125351334182975 0.09629760958769146 -0.06171675164363491 0.10788127647961092 -0.06599519884704978 0.016129652327997072 -0.04910577837648218 -0.013710510745297168 0.0044630798467344655 -0.06050968463308217
1639 0.00014958120959141427 0.0002706573028610438 0.0004692138277562231 0.00511382596657814 -0.0184310967681704 -0.0014954478220339914 0.002120642378383485 -0.0062029467571922785 0.00250832326696987 -0.00014114415641355217 0.0007777269078820046 0.001127509804617466 0.001054391731960288 -0.0015645953654800872 0.003976560837022682 -0.00029798666653198973 0.005041549069798527 0.0036845332635561407 -0.00703048830441729 0.003192868217230229 -0.003346220056283433 0.0028282719078552934 -0.0009092348576295027 0.004363350564580785 -0.015228795227471725 -0.005947017009628725 -0.005514484864833292 0.003229981048179546 -0.005662463600436048 -0.0010075649822329838 -0.002949414709338692 0.0034149276285630453 -0.014940663722012462 -0.00134452891747214 -0.012007046852635601 0.0066850846134949545 -0.012051856772092605 -0.0021508328308854096 0.0034966907854027374 -0.016083247089983453 -0.00640017040412659 -0.00908321855273329 0.0021052257440596417 0.005916763598772252 0.014778740679136409 0.0019962141426604976 -0.011537062151810726 -0.0014145098537890763 0.0029736126577123976 0.0013104645503223386 0.0051505427419226 -0.006236932133113904 -0.00264938026627333 -0.0035281278263029577 0.006510389519869926 -0.0051481323384672826 0.006457662754956461 0.014372611784896919 0.009598542936533594 0.009557429617166116 -0.0049358450067117565 -0.0026796680402961627 0.003357823006403357 0.020322822859187465 -0.017582217791356443 0.0003126651935409645 -0.008415550448295298 0.01990461787902617 -0.004407499163154961 0.014180202535249637 0.00014963648391374745 0.007236823427406037 0.02788797923024188 -0.009731514743153574 0.000759144103381555 0.02590627233780363 0.02065581713760631 0.021266525235778554 -0.003262086537067753 -0.0030360830204348476 0.00435148926358549 -0.006424328641985199 0.03514946635293246 -0.00048084467220063556 -0.0021669463551337183 -0.0063231847089184655 -0.0021520059979259114 0.021384843471487686 -0.007540116731476863 2.9698457881327285e-05 0.031175549663673016 -0.020361916151905173 0.016250646644945726 0.0023074926563883004 -0.009011760767678933 0.0020046054719027183 0.018848771797256685 0.0007101128889999852 -0.00832762396218518 -0.0040597639076151 -0.010515875898675862 -0.026745671472022645 0.0036628156734152574 0.015834082077535217 0.002208899544175961 -0.00047421529334078466 -0.002353756185865994 0.0023292730954155975 0.018008066603970696 0.009055437856388834 -0.004146560981411834 -0.024167630882765193 0.0017913842833021424 0.03538380746432302 0.03220490390300114 -0.011878229637658092 -0.0029455475428464477 -0.005285311307947844 0.004847762491963271 -0.002645948089194939 -0.002870102836032846 -0.008547553945964606 0.0041133709866387445 0.02774110041852379 -0.015769748552333242 -0.002934111055783129 -0.00783994604565168 0.009205329334240236
2920 0.00013205949606985508 0.00010509093293931372 0.00012856175293176548 0.0011727686840735142 -0.0029015724317738743 4.17286132230519e-05 0.0015926171858969612 -0.0008597807476533463 0.0015094520389595306 -0.00035269908452881786 -0.00035311568255007856 0.0011297257967906105 0.0010883817808692517 -0.0005976802415434276 -0.0018484521114633804 0.0011586088176305089 0.0069470388016414945 0.0034916476167851725 -0.017489944536522188 0.00845805403392706 0.011632994163490232 -0.004016931120435473 0.0005803162864657347 -0.0020763821147909488 -0.00027869985675375923 -0.002350004357928811 0.0001448734185010397 0.00014841559987845886 0.0014143607885503358 0.003998003490828611 -0.00274244547025048 -0.001971519488162482 -0.0029096449621504586 0.0010699733033299238 -0.0017078266260111036 0.000369063724793294 -0.0007483596635732748 -0.0005887611357817135 -0.0005688694840868156 0.0003338419278077614 -0.0006721951090428658 -0.0006706500823939367 0.0010548066330846049 0.004962064983121998 -0.0028279801207384274 -0.0025407161213270284 -0.0028827437623199998 -0.0037276831275427093 0.00490961599803705 -0.0011162934704732881 0.0006968079368531618 0.006596870795212444 -0.002256518611950782 0.002058458272349734 0.011336296340652792 0.003404794731649787 0.0017963687173417541 0.010929640269029827 -0.00015709705039775317 -0.002597996980326456 -7.74147097284027e-05 -0.004805448070481014 -0.005569802000752193 0.01053779024157713 -0.01687938515283408 -0.003473625360044818 -0.005015676078030715 0.014954218022643314 -0.004711859443121769 0.003928924972695086 0.0018900543653990731 -0.004841732283312955 -0.0033276153313860587 -0.016986693023628787 -0.0018175431425112977 0.0037395323652556433 -0.008116864477017757 0.005929944597976121 0.0013503302045880853 0.005601891654530278 -0.011382532966744012 0.004519467091959965 0.019406473892106025 -0.001549714878181072 -0.005100636628761028 -0.0030898748682990757 -0.004906487908552983 0.014775720539394174 0.0032856406138211565 -0.012487682241578781 -0.009157012245581702 -0.006711352554118484 -0.012811761410550793 -0.007381968816165934 0.002750208173094438 -0.019618988573678674 -0.005440714248769069 -0.006695418652198269 -0.012679883129406442 0.0123391563738314 -0.029390152319016212 -0.025704867236858612 0.0033705848144055545 0.0018227016798041005 0.023548187268932205 0.013286369617694976 -0.022715529484182737 0.034927116944917014 -0.016943179312771357 -0.006866211272292795 0.00507039371696768 -0.009020722794448545 -0.03338082012848366 0.00637364545243358 -0.004477266583225962 -0.0009406953267150824 -0.00342011405338197 -0.002300436291382106 0.025235468924942783 -0.016267229981125047 -0.021254619535244042 0.009280537777219386 -0.004711996934429255 0.0055977507296876665 0.01388461899950543 -0.0005140423156455447 -0.008595190385654618 -0.01380697941114627
2538 5.8843610686604556e-05 0.00011580832631767118 0.00022873611126100066 -0.0005952888246741828 -0.005646632170549281 -0.0005760793465035164 0.0006432866864958214 -0.0025620312640406246 0.0012474554925793638 0.001161260635547926 0.00034658000054491766 -0.00033955091468705883 0.00034831902566549456 -0.0006663302385154955 0.0006543183232845372 0.00012668050121898225 0.0008554673094757197 0.002880144975319307 -0.007480261077381577 0.0028445378614838945 -0.0010184234688734885 0.001300475287096232 -0.00017193702109615132 0.002826064488855418 -0.008262300592547765 -0.003271069502389189 -0.0030735191318837403 -0.0016354515256051213 -0.003021061642222041 -0.0025200604740437532 0.0003972527525972463 0.0024381772932533107 -0.0062016616102302516 -0.0009116616062599877 -0.0036292559065384594 0.0017414373403504015 -0.005415064904153906 -0.0031496786801762664 0.0033681138490874703 -0.00632871854503902 0.0009473068076762686 -0.00386836489102823 0.0023463474700204383 0.002486091418491314 0.008535094321411469 -0.0003504584669570342 -0.0014407674949055498 -0.0032348671380634745 0.0023929909769991866 -0.0002855196655682947 0.0029193857247499025 -0.002214657352822293 -8.694317232987751e-05 -0.0014431601161944369 -0.002717285039851995 0.0011532551654524245 0.0015092691426153452 0.0050919899441821985 0.006570265209212529 0.003590926214709819 -0.0003396288217498239 -0.0019537177977199025 0.007035121286655447 0.01267065061569431 -0.006518718240227784 -0.004288436225478086 -0.010437213780108296 0.010254968056270464 -0.00753237353240954 0.0036169146563134903 0.001294526576900891 0.0028560955969262874 0.0196255639944444 -0.005494471475467284 0.008177667226791101 0.011784247464595485 0.0050017006033884785 -0.0015110514482438678 0.010153296146530856 0.0042113625193039555 -0.0033731499974980306 0.00740341647913841 0.01365742417850752 -0.006357822187156993 -0.003308134753435934 -0.0074475339761757705 0.003520641440181165 0.006164245225742043 0.005056801469270579 0.0001533125110510305 0.0004344233747460612 -0.013434374930578388 -0.0006467823469234493 0.010993465446891847 0.004237638370769226 -0.015171253965393849 0.016523746503926212 -0.0037293437485018417 -0.0012881351026872688 0.0031094737548434275 -0.012228363687210251 -0.017138013374358208 0.001667317531992073 0.012329569803198487 0.010734356736657314 -0.010531832731194183 0.002851311031294566 0.01397168966425858 -0.007229952142248293 0.011770927591820203 -0.003547904858726923 -0.0018245105862843669 -0.012248715366234328 0.012243581945827602 0.005529020714376505 0.01080392069328589 -0.015881135334734352 0.008617610775439419 -0.01693992065701067 -0.0017594784940176099 0.002829066633226886 0.0008287908665113577 0.007041372163605511 0.03700970220570209 0.00962057028273556 -0.0009972235123708638 -0.0012891173364453401 -0.0029714662749160663
2797 0.00014112836749597294 0.0001585265777551294 0.0002792364453839421 0.0012821599019536749 -0.002948046579821369 -0.00022205924652331054 0.0010692908778686025 -0.0013958110208758376 0.0002668579313331983 -0.0005354461559338698 0.0003638403309127796 -0.0014565132723313036 -0.0006240110812490584 -0.0007458868668161555 -0.0021729028040347975 0.0012981032226566918 0.0029034849697250668 0.0011105430760893155 -0.002531897615016428 -0.0004508186033766097 -0.0014780125859716877 0.0006753923477220173 -0.0009282609012529701 0.0019377813954153686 -0.0012923105320202701 -0.002235312158399052 0.0013419602032746377 0.0014510574698882697 0.00038327015636677566 0.004533802487368198 -0.0018305741082823164 -0.0019094036161665018 -0.0009090306815472218 0.003638264693246655 -0.0034727818315959187 0.0014549536923598428 -0.0018629997041917515 -0.0012472479346702246 0.00581421871636197 0.004073441785369637 -0.00295943851970771 -0.004152178493715238 -0.0025444525474241186 0.0016528355050665598 0.00045963794812770546 -0.008928348398071505 -0.004522010589130078 -0.0001937534690005653 -0.0011844872541578778 0.004319891589264366 -0.0023650926293051927 0.0019954643136225873 -0.0003161194640285976 0.0022939275394613175 0.0051159223280348165 0.00638731158960296 0.0013516893269012503 0.010300974589197046 -0.0018494010130387345 -0.00540101128315928 0.007589950924199627 -0.004573632342492678 0.00514114437213907 0.007952383325997549 0.00108968172947608 0.004875428871689052 -0.002929522642727158 0.0004060398160040281 -0.002234836385892242 0.008816296990305627 -0.0035284477589404444 -0.003268897322603137 0.002612405777125453 -0.01015255949622755 0.0044603655105889895 -0.005355745111152952 -0.01457035977140185 -0.006829657960299402 0.01011938759763803 0.0008868805972712026 -0.0020045126795007473 0.006991788587107706 0.003692526128821852 -0.011629512091656812 -0.0029977753663676856 -0.003245937059517998 0.0029193839254633494 0.0029705221139658023 0.012388478524575803 -0.013664784725465732 -0.010942915213549642 -0.0043540759973963615 -0.0034059890919068644 -0.004332850767949612 0.002290843787501382 -0.00118320235529045 -0.0017654386539361128 0.0052014010982257015 -0.011301716442677816 -0.006704010614640457 0.005026679255261763 0.00040360888262843184 -0.009243296018558876 -0.006734178504765541 -0.005767706806483332 0.006076161177029284 0.0020726649293350413 0.005876406548090356 -0.004010627061702324 -0.0075721395170831275 0.0025678995558818924 0.0003003497264499203 0.004072248024491091 0.00931434995362101 -0.008203283694005633 -0.016009875145493607 -0.003503516672398498 0.00013827232816107055 -0.0028009333151193085 -0.011675489473677086 0.0067038616458407 0.010050006188859612 -0.006242472831254354 0.004845573152875597 0.007650795977597753 0.013069426230192714 0.01101100167422584 0.009432808290989081
